{"learner":{"attributes":{"scikit_learn":"{\"_estimator_type\": \"regressor\"}"},"feature_names":["day_of_week","month","week_of_year","day_of_year","quarter","is_weekend","is_monday","is_friday","is_holiday","is_exam_period","is_semester_break","is_waterlogging","is_normal_day","temperature_c","humidity_pct","heat_index","is_rainy","high_humidity","extreme_heat","weather_discount","is_monsoon","is_winter","is_pre_monsoon","is_post_monsoon","heaviness_num","base_demand_score","consecutive_weeks","sentiment_decay","meal_num","menu_item_encoded","heavy_x_humidity","is_university","capacity","kai_value","academic_stress_factor","lag_7_count","lag_14_count","lag_30_count","rolling_7d_mean","rolling_14d_mean","rolling_30d_mean","rolling_7d_std","wow_change","prev_day_waste_bucket","prev_day_waste_kg"],"feature_types":["int","int","int","int","int","int","int","int","int","int","int","int","int","float","float","float","int","int","int","float","int","int","int","int","int","float","int","float","int","int","int","int","int","float","float","float","float","float","float","float","float","float","float","float","float"],"gradient_booster":{"model":{"cats":{"enc":[],"feature_segments":[],"sorted_idx":[]},"gbtree_model_param":{"num_parallel_tree":"1","num_trees":"400"},"iteration_indptr":[0,1,2,3,4,5,6,7,8,9,10,11,12,13,14,15,16,17,18,19,20,21,22,23,24,25,26,27,28,29,30,31,32,33,34,35,36,37,38,39,40,41,42,43,44,45,46,47,48,49,50,51,52,53,54,55,56,57,58,59,60,61,62,63,64,65,66,67,68,69,70,71,72,73,74,75,76,77,78,79,80,81,82,83,84,85,86,87,88,89,90,91,92,93,94,95,96,97,98,99,100,101,102,103,104,105,106,107,108,109,110,111,112,113,114,115,116,117,118,119,120,121,122,123,124,125,126,127,128,129,130,131,132,133,134,135,136,137,138,139,140,141,142,143,144,145,146,147,148,149,150,151,152,153,154,155,156,157,158,159,160,161,162,163,164,165,166,167,168,169,170,171,172,173,174,175,176,177,178,179,180,181,182,183,184,185,186,187,188,189,190,191,192,193,194,195,196,197,198,199,200,201,202,203,204,205,206,207,208,209,210,211,212,213,214,215,216,217,218,219,220,221,222,223,224,225,226,227,228,229,230,231,232,233,234,235,236,237,238,239,240,241,242,243,244,245,246,247,248,249,250,251,252,253,254,255,256,257,258,259,260,261,262,263,264,265,266,267,268,269,270,271,272,273,274,275,276,277,278,279,280,281,282,283,284,285,286,287,288,289,290,291,292,293,294,295,296,297,298,299,300,301,302,303,304,305,306,307,308,309,310,311,312,313,314,315,316,317,318,319,320,321,322,323,324,325,326,327,328,329,330,331,332,333,334,335,336,337,338,339,340,341,342,343,344,345,346,347,348,349,350,351,352,353,354,355,356,357,358,359,360,361,362,363,364,365,366,367,368,369,370,371,372,373,374,375,376,377,378,379,380,381,382,383,384,385,386,387,388,389,390,391,392,393,394,395,396,397,398,399,400],"tree_info":[0,0,0,0,0,0,0,0,0,0,0,0,0,0,0,0,0,0,0,0,0,0,0,0,0,0,0,0,0,0,0,0,0,0,0,0,0,0,0,0,0,0,0,0,0,0,0,0,0,0,0,0,0,0,0,0,0,0,0,0,0,0,0,0,0,0,0,0,0,0,0,0,0,0,0,0,0,0,0,0,0,0,0,0,0,0,0,0,0,0,0,0,0,0,0,0,0,0,0,0,0,0,0,0,0,0,0,0,0,0,0,0,0,0,0,0,0,0,0,0,0,0,0,0,0,0,0,0,0,0,0,0,0,0,0,0,0,0,0,0,0,0,0,0,0,0,0,0,0,0,0,0,0,0,0,0,0,0,0,0,0,0,0,0,0,0,0,0,0,0,0,0,0,0,0,0,0,0,0,0,0,0,0,0,0,0,0,0,0,0,0,0,0,0,0,0,0,0,0,0,0,0,0,0,0,0,0,0,0,0,0,0,0,0,0,0,0,0,0,0,0,0,0,0,0,0,0,0,0,0,0,0,0,0,0,0,0,0,0,0,0,0,0,0,0,0,0,0,0,0,0,0,0,0,0,0,0,0,0,0,0,0,0,0,0,0,0,0,0,0,0,0,0,0,0,0,0,0,0,0,0,0,0,0,0,0,0,0,0,0,0,0,0,0,0,0,0,0,0,0,0,0,0,0,0,0,0,0,0,0,0,0,0,0,0,0,0,0,0,0,0,0,0,0,0,0,0,0,0,0,0,0,0,0,0,0,0,0,0,0,0,0,0,0,0,0,0,0,0,0,0,0,0,0,0,0,0,0,0,0,0,0,0,0,0,0,0,0,0,0,0,0,0,0,0,0,0,0,0,0,0,0,0,0,0,0,0,0,0,0,0,0,0,0,0,0,0,0,0,0],"trees":[{"base_weights":[6.046625E-4,-4.6303842E-2,6.215054E-1,-6.0847905E-2,5.586207E-1,-4.687501E-3,7.602564E-1,-8.0036156E-2,1.5876286E-1,-4.375001E-3,7.681818E-1,8.1194025E-1,4.083333E-1,-9.352444E-2,-3.0120718E-3,3.114754E-1,-4.864866E-3,4.21875E-2,2.4285713E-2,4.1803278E-2,2.4285713E-2,3.75E-2,2.857142E-3,-9.751187E-2,-5.8585882E-2,-4.912282E-3,4.6363614E-2,1.4634144E-1,6.190476E-1,-4.9328464E-3,-2.8846166E-3,9.999999E-3,-3.870969E-3,-1.178993E-9,1.2749999E-2,1.4423075E-2,-4.687501E-3,2.0416666E-2,4.05E-2],"categories":[],"categories_nodes":[],"categories_segments":[],"categories_sizes":[],"default_left":[0,0,0,0,0,0,0,0,0,0,0,0,0,0,0,0,0,0,0,0,0,0,0,0,0,0,0,0,0,0,0,0,0,0,0,0,0,0,0],"id":0,"left_children":[1,3,5,7,9,-1,11,13,15,-1,17,19,21,23,25,27,-1,-1,-1,-1,-1,-1,-1,29,31,-1,33,35,37,-1,-1,-1,-1,-1,-1,-1,-1,-1,-1],"loss_changes":[3.8561844E1,1.0864402E1,9.300819E0,5.0820856E0,3.9938679E0,0E0,1.0871811E0,1.1498051E0,3.8233542E0,0E0,5.978012E-2,1.2121582E-1,1.3970237E0,1.2552261E-1,7.85124E-1,3.007635E0,0E0,0E0,0E0,0E0,0E0,0E0,0E0,3.2790184E-2,4.976214E-1,0E0,1.0640454E0,1.4260378E0,5.142145E-1,0E0,0E0,0E0,0E0,0E0,0E0,0E0,0E0,0E0,0E0],"parents":[2147483647,0,0,1,1,2,2,3,3,4,4,6,6,7,7,8,8,10,10,11,11,12,12,13,13,14,14,15,15,23,23,24,24,26,26,27,27,28,28],"right_children":[2,4,6,8,10,-1,12,14,16,-1,18,20,22,24,26,28,-1,-1,-1,-1,-1,-1,-1,30,32,-1,34,36,38,-1,-1,-1,-1,-1,-1,-1,-1,-1,-1],"split_conditions":[4.19E2,4.36E2,1E0,9.3E-1,7.5E-1,-6.900002E-1,3.7E1,3.17E2,5E0,-1.45E0,3.35E1,8.94E1,3.46E2,2.8657144E2,9E-1,2.73E2,-2.4250011E0,1.012E1,4.5E0,7.7799997E0,3.1000001E0,8.1E0,6.15E0,9.2E-1,2.51E2,-1.1000007E0,3.1257144E2,8.48E1,7.78E1,-4.995001E0,-9.400007E-1,2.4E0,-1.4300002E0,7.9999566E-2,5.7E0,1.4599998E0,-2.3600001E0,3.11E0,7.5E0],"split_indices":[35,36,12,25,33,0,2,36,0,0,13,14,36,38,33,38,0,0,0,0,0,0,0,25,39,0,38,14,14,0,0,0,0,0,0,0,0,0,0],"split_type":[0,0,0,0,0,0,0,0,0,0,0,0,0,0,0,0,0,0,0,0,0,0,0,0,0,0,0,0,0,0,0,0,0,0,0,0,0,0,0],"sum_hessian":[1.322E3,1.23E3,9.2E1,1.202E3,2.8E1,1.5E1,7.7E1,1.106E3,9.6E1,7E0,2.1E1,6.6E1,1.1E1,9.41E2,1.65E2,6E1,3.6E1,1.5E1,6E0,6E1,6E0,5E0,6E0,8.43E2,9.8E1,5.6E1,1.09E2,4E1,2E1,8.18E2,2.5E1,6E0,9.2E1,9E1,1.9E1,2.5E1,1.5E1,1.1E1,9E0],"tree_param":{"num_deleted":"0","num_feature":"45","num_nodes":"39","size_leaf_vector":"1"}},{"base_weights":[-6.1117735E-4,-5.515205E-2,5.119047E-1,-7.41014E-2,1.5099998E-1,-4.761906E-3,6.273585E-1,-8.41847E-2,7.794115E-2,2.9218748E-1,-4.864866E-3,3.7021273E-1,8.183333E-1,-9.64409E-2,-1.148651E-2,3.1724137E-1,-4.8750015E-3,1.5686272E-1,3.8214285E-2,2.4571426E-1,6.7692304E-1,8.472727E-1,2.0833334E-2,-9.752361E-2,-5.416669E-2,-4.919356E-3,5.057469E-2,-4.500001E-3,5.05E-1,3.4210503E-2,4.7857141E-1,4.6874997E-1,5.4999977E-2,3.9375E-2,2.0833334E-2,2.6874999E-2,4.40625E-2,-4.9334154E-3,-2.6086967E-3,-4.7368435E-3,4.166666E-3,-4.82143E-3,5.916666E-3,3.4642857E-2,2.857142E-3,2.0624999E-2,-3.2258076E-3,3.142857E-2,1.4374998E-2,1.3636363E-2,3.75E-2,-4.666668E-3,2.0833334E-2],"categories":[],"categories_nodes":[],"categories_segments":[],"categories_sizes":[],"default_left":[0,0,0,0,0,0,0,0,0,0,0,0,0,0,0,0,0,0,0,0,0,0,0,0,0,0,0,0,0,0,0,0,0,0,0,0,0,0,0,0,0,0,0,0,0,0,0,0,0,0,0,0,0],"id":1,"left_children":[1,3,5,7,9,-1,11,13,15,17,-1,19,21,23,25,27,-1,29,-1,31,33,35,-1,37,39,-1,41,-1,43,45,47,49,51,-1,-1,-1,-1,-1,-1,-1,-1,-1,-1,-1,-1,-1,-1,-1,-1,-1,-1,-1,-1],"loss_changes":[3.6618793E1,4.6364236E0,8.891956E0,1.6699634E0,3.5340762E0,0E0,4.9025307E0,9.0593386E-1,2.8857822E0,3.968853E0,0E0,1.6283636E0,3.4440994E-1,3.4584045E-2,8.0316305E-1,2.2628794E0,0E0,1.9960004E0,0E0,1.4629822E0,4.5993805E-2,1.0521698E-1,0E0,3.887272E-2,1.417763E-1,0E0,8.779951E-1,0E0,1.6430717E0,1.4458085E0,2.2053576E-1,6.7755675E-1,1.1118335E0,0E0,0E0,0E0,0E0,0E0,0E0,0E0,0E0,0E0,0E0,0E0,0E0,0E0,0E0,0E0,0E0,0E0,0E0,0E0,0E0],"parents":[2147483647,0,0,1,1,2,2,3,3,4,4,6,6,7,7,8,8,9,9,11,11,12,12,13,13,14,14,15,15,17,17,19,19,20,20,21,21,23,23,24,24,26,26,28,28,29,29,30,30,31,31,32,32],"right_children":[2,4,6,8,10,-1,12,14,16,18,-1,20,22,24,26,28,-1,30,-1,32,34,36,-1,38,40,-1,42,-1,44,46,48,50,52,-1,-1,-1,-1,-1,-1,-1,-1,-1,-1,-1,-1,-1,-1,-1,-1,-1,-1,-1,-1],"split_conditions":[3.9E2,9.3E-1,8.5E-1,3.2142856E2,5E0,-1.4024996E0,3.7716666E2,3.07E2,5E0,3.24E2,-2.3037517E0,4.52E2,2.23E2,9.2E-1,1E0,1E0,-1.6285006E0,3.68E1,7.5813994E0,1.34E1,8.53E1,7.9E-1,5.8425E0,3E2,8.9E1,-2.0717006E0,8.2E-1,-1.6155001E0,3.53E2,5.6E0,1.11E2,9.3E-1,4E1,7.7440004E0,1.3110001E0,2.911E0,7.7209992E0,-4.7302513E0,-2.9002556E-1,-2.8130014E0,1.5970001E0,-1.7236003E0,7.149991E-1,8.1449995E0,2.9449997E0,1.2270005E0,-6.2249895E-2,3.0945008E0,2.3945007E0,4.0595994E0,6.275E0,-4.5449993E-1,1.0440003E0],"split_indices":[36,25,33,38,0,0,40,36,0,38,0,36,3,25,33,12,0,13,0,44,14,25,0,36,14,0,25,0,36,44,3,25,44,0,0,0,0,0,0,0,0,0,0,0,0,0,0,0,0,0,0,0,0],"split_type":[0,0,0,0,0,0,0,0,0,0,0,0,0,0,0,0,0,0,0,0,0,0,0,0,0,0,0,0,0,0,0,0,0,0,0,0,0,0,0,0,0,0,0,0,0,0,0,0,0,0,0,0,0],"sum_hessian":[1.308E3,1.183E3,1.25E2,1.084E3,9.9E1,2E1,1.05E2,1.017E3,6.7E1,6.3E1,3.6E1,4.6E1,5.9E1,8.7E2,1.47E2,2.8E1,3.9E1,5E1,1.3E1,3.4E1,1.2E1,5.4E1,5E0,8.47E2,2.3E1,6.1E1,8.6E1,9E0,1.9E1,3.7E1,1.3E1,1.5E1,1.9E1,7E0,5E0,7E0,4.7E1,8.25E2,2.2E1,1.8E1,5E0,2.7E1,5.9E1,1.3E1,6E0,7E0,3E1,6E0,7E0,1E1,5E0,1.4E1,5E0],"tree_param":{"num_deleted":"0","num_feature":"45","num_nodes":"53","size_leaf_vector":"1"}},{"base_weights":[-9.714751E-3,-5.4121587E-2,5.4020613E-1,-7.278483E-2,1.6145831E-1,-5.0000023E-2,7.0394737E-1,-9.867313E-2,4.6762354E-3,2.9841268E-1,-4.8529427E-3,-4.7058836E-3,4.166666E-3,8.183333E-1,2.588235E-1,-4.9939333E-3,4.166666E-3,6.628569E-2,-4.951924E-3,1.8490563E-1,4.0909093E-2,2.0624999E-2,4.320755E-2,4.999989E-4,2.6874999E-2,8.63307E-3,2.8108105E-1,4.999998E-2,4.0499997E-1,2.1904751E-3,-4.8571443E-3,-4.500001E-3,2.017857E-2,-2.8000013E-3,1.5499999E-2,4.166666E-3,2.5333334E-2],"categories":[],"categories_nodes":[],"categories_segments":[],"categories_sizes":[],"default_left":[0,0,0,0,0,0,0,0,0,0,0,0,0,0,0,0,0,0,0,0,0,0,0,0,0,0,0,0,0,0,0,0,0,0,0,0,0],"id":2,"left_children":[1,3,5,7,9,11,13,15,17,19,-1,-1,-1,21,23,-1,-1,25,-1,27,-1,-1,-1,-1,-1,29,31,33,35,-1,-1,-1,-1,-1,-1,-1,-1],"loss_changes":[3.17023E1,4.8438797E0,9.409382E0,2.218361E0,3.427849E0,1.372549E-1,3.6578064E0,1.9021988E-1,1.7829313E0,3.5655527E0,0E0,0E0,0E0,7.591934E-1,1.1734263E0,0E0,0E0,2.1646888E0,0E0,1.5534245E0,0E0,0E0,0E0,0E0,0E0,5.214498E-1,1.7181137E0,9.5439994E-1,6.1183333E-1,0E0,0E0,0E0,0E0,0E0,0E0,0E0,0E0],"parents":[2147483647,0,0,1,1,2,2,3,3,4,4,5,5,6,6,7,7,8,8,9,9,13,13,14,14,17,17,19,19,25,25,26,26,27,27,28,28],"right_children":[2,4,6,8,10,12,14,16,18,20,-1,-1,-1,22,24,-1,-1,26,-1,28,-1,-1,-1,-1,-1,30,32,34,36,-1,-1,-1,-1,-1,-1,-1,-1],"split_conditions":[4.08E2,9.3E-1,1E0,2.617143E2,5E0,3.69E1,8.62E1,2.812143E2,5E0,3.24E2,-3.1235635E0,-1.0698986E0,9.9772495E-1,7.9E-1,3.7323334E2,-4.1137376E0,7.6025087E-1,3.2142856E2,-3.647075E0,3.32E1,7.180462E0,2.7654495E0,7.887245E0,1.0784497E0,3.068875E0,8.3E1,1E0,3.6E2,4E0,1.6212514E-1,-2.1247432E0,-1.5347246E0,5.5157485E0,-3.1836814E-1,1.3132508E0,2.415651E0,2.7230246E0],"split_indices":[36,25,12,38,0,13,14,39,0,38,0,0,0,25,40,0,0,38,0,13,0,0,0,0,0,14,12,36,1,0,0,0,0,0,0,0,0],"split_type":[0,0,0,0,0,0,0,0,0,0,0,0,0,0,0,0,0,0,0,0,0,0,0,0,0,0,0,0,0,0,0,0,0,0,0,0,0],"sum_hessian":[1.296E3,1.2E3,9.6E1,1.105E3,9.5E1,2.1E1,7.5E1,8.28E2,2.77E2,6.2E1,3.3E1,1.6E1,5E0,5.9E1,1.6E1,8.23E2,5E0,1.74E2,1.03E2,5.2E1,1E1,7E0,5.2E1,9E0,7E0,1.38E2,3.6E1,3.3E1,1.9E1,1.04E2,3.4E1,9E0,2.7E1,2.4E1,9E0,5E0,1.4E1],"tree_param":{"num_deleted":"0","num_feature":"45","num_nodes":"37","size_leaf_vector":"1"}},{"base_weights":[-9.358514E-3,-6.686959E-2,3.6647725E-1,-8.5800625E-2,5.2531622E-2,5.515873E-1,-4.901962E-3,-9.6902676E-2,-6.1708886E-2,-1.7213138E-2,2.8108105E-1,2.3518516E-1,7.780822E-1,-9.836555E-2,4.166666E-3,-3.529414E-2,-4.96154E-3,9.756095E-2,-7.439027E-2,-4.5833346E-3,4.4230768E-1,1.0714263E-2,4.5925924E-1,3.6923075E-1,8.52459E-1,-4.992201E-3,-6.666669E-2,1.0333331E-1,-6.139243E-2,-3.125023E-3,2.0499999E-2,-8.552634E-2,2.857142E-3,3.1071428E-2,2.1538459E-1,-4.761906E-3,1.4374998E-2,6.0499996E-1,1.874999E-3,2.6874999E-2,4.166666E-3,2.0833334E-2,4.4196427E-2,4.166666E-3,-4.82143E-3,-4.687501E-3,1.5333332E-2,-4.947918E-3,-1.5873135E-4,1.2222222E-2,-4.7916677E-3,-4.1666775E-4,-4.923078E-3,1.874999E-3,2.0833334E-2,9.999999E-3,3.8214285E-2],"categories":[],"categories_nodes":[],"categories_segments":[],"categories_sizes":[],"default_left":[0,0,0,0,0,0,0,0,0,0,0,0,0,0,0,0,0,0,0,0,0,0,0,0,0,0,0,0,0,0,0,0,0,0,0,0,0,0,0,0,0,0,0,0,0,0,0,0,0,0,0,0,0,0,0,0,0],"id":3,"left_children":[1,3,5,7,9,11,-1,13,15,17,19,21,23,25,-1,27,-1,29,31,-1,33,35,37,39,41,-1,43,45,47,49,-1,51,-1,-1,53,-1,-1,55,-1,-1,-1,-1,-1,-1,-1,-1,-1,-1,-1,-1,-1,-1,-1,-1,-1,-1,-1],"loss_changes":[2.866401E1,2.6039543E0,1.5187727E1,2.596159E-1,2.5233781E0,8.846603E0,0E0,1.8695974E-1,3.0969536E-1,8.078768E-1,2.2641284E0,2.7111773E0,1.9051094E0,2.4884224E-2,0E0,6.8289846E-1,0E0,1.2910686E0,1.24997735E-1,0E0,9.2296743E-1,8.485119E-1,1.6369352E0,5.8060896E-1,4.6826172E-1,0E0,1.5535715E-1,1.2309582E0,3.4523278E-1,7.5788194E-1,0E0,7.506609E-2,0E0,0E0,4.4983983E-1,0E0,0E0,1.1373568E0,0E0,0E0,0E0,0E0,0E0,0E0,0E0,0E0,0E0,0E0,0E0,0E0,0E0,0E0,0E0,0E0,0E0,0E0,0E0],"parents":[2147483647,0,0,1,1,2,2,3,3,4,4,5,5,7,7,8,8,9,9,10,10,11,11,12,12,13,13,15,15,17,17,18,18,20,20,21,21,22,22,23,23,24,24,26,26,27,27,28,28,29,29,31,31,34,34,37,37],"right_children":[2,4,6,8,10,12,-1,14,16,18,20,22,24,26,-1,28,-1,30,32,-1,34,36,38,40,42,-1,44,46,48,50,-1,52,-1,-1,54,-1,-1,56,-1,-1,-1,-1,-1,-1,-1,-1,-1,-1,-1,-1,-1,-1,-1,-1,-1,-1,-1],"split_conditions":[3.24E2,3.37E2,5E0,2.314E2,9.3E-1,9E-1,-1.2197217E0,1.419022E2,5E0,3.644E1,9E-1,2E0,8.2E-1,2.3857143E2,1.4194946E-1,2.39E2,-6.9096346E0,9E-1,3.95E1,-9.718286E-1,2.6993332E2,8.94E1,3.22E1,7.56E1,2.11E1,-5.0080504E0,1.66E2,7.75E1,2.6743332E2,-8.5E1,5.665937E0,6.014902E1,7.222382E-1,2.6001217E0,3.2E1,-9.241317E-1,2.149431E0,3.02E1,1.1915268E0,2.6271775E0,3.745453E0,7.730588E0,7.206379E0,1.6419495E0,-2.1923428E0,-3.4648368E-1,2.0977943E0,-1.721845E0,-1.3703975E-2,8.1243896E-1,-5.178563E-1,4.6652913E-1,-5.378091E-1,5.312439E0,2.1386247E0,3.036908E0,3.9703007E0],"split_indices":[38,36,0,40,25,33,0,41,0,15,33,30,25,38,0,35,0,25,13,0,40,14,13,14,13,0,3,14,40,42,0,41,0,0,13,0,0,13,0,0,0,0,0,0,0,0,0,0,0,0,0,0,0,0,0,0,0],"split_type":[0,0,0,0,0,0,0,0,0,0,0,0,0,0,0,0,0,0,0,0,0,0,0,0,0,0,0,0,0,0,0,0,0,0,0,0,0,0,0,0,0,0,0,0,0,0,0,0,0,0,0,0,0,0,0,0,0],"sum_hessian":[1.324E3,1.149E3,1.75E2,9.92E2,1.57E2,1.25E2,5E1,6.77E2,3.15E2,1.21E2,3.6E1,5.3E1,7.2E1,6.72E2,5E0,1.86E2,1.29E2,4E1,8.1E1,1.1E1,2.5E1,2.7E1,2.6E1,1.2E1,6E1,6.4E2,3.2E1,2.9E1,1.57E2,3.1E1,9E0,7.5E1,6E0,1.3E1,1.2E1,2E1,7E0,1.9E1,7E0,7E0,5E0,5E0,5.5E1,5E0,2.7E1,1.5E1,1.4E1,9.5E1,6.2E1,8E0,2.3E1,1.1E1,6.4E1,7E0,5E0,6E0,1.3E1],"tree_param":{"num_deleted":"0","num_feature":"45","num_nodes":"57","size_leaf_vector":"1"}},{"base_weights":[-8.877111E-3,-5.3196747E-2,5.373737E-1,-7.751868E-2,1.2214763E-1,-4.5000024E-2,6.7625E-1,-8.7029725E-2,7.619045E-2,2.4761882E-2,3.4666663E-1,4.166666E-3,-4.666668E-3,7.964912E-1,3.6249998E-1,-8.971489E-2,6.896529E-3,-3.7736082E-3,4.5454544E-1,-5.3030327E-2,1.5249997E-1,2.352939E-2,5.241379E-1,1.2499999E-2,4.221154E-2,1.2142855E-1,3.181818E-2,-9.83728E-2,-7.035833E-2,-4.7916677E-3,2.0833334E-2,1.2499999E-2,-3.541669E-2,4.166666E-3,3.75E-2,-2.3072765E-8,-4.861112E-3,-3.8888913E-2,2.9565215E-1,1.2499999E-2,-4.5833346E-3,-4.285715E-3,6.869565E-1,2.0833334E-2,-4.444446E-3,-4.992309E-3,-2.9629641E-3,4.2553074E-4,-4.2145606E-3,9.999999E-3,-3.6904775E-3,-4.7368435E-3,6.9230758E-3,-4.615386E-3,4.166666E-3,2.0277778E-2,-4.166668E-3,3.9411765E-2,1.7142856E-2],"categories":[],"categories_nodes":[],"categories_segments":[],"categories_sizes":[],"default_left":[0,0,0,0,0,0,0,0,0,0,0,0,0,0,0,0,0,0,0,0,0,0,0,0,0,0,0,0,0,0,0,0,0,0,0,0,0,0,0,0,0,0,0,0,0,0,0,0,0,0,0,0,0,0,0,0,0,0,0],"id":4,"left_children":[1,3,5,7,9,11,13,15,17,19,21,-1,-1,23,25,27,29,31,33,35,37,39,41,-1,-1,43,-1,45,47,-1,-1,-1,49,-1,-1,51,-1,53,55,-1,-1,-1,57,-1,-1,-1,-1,-1,-1,-1,-1,-1,-1,-1,-1,-1,-1,-1,-1],"loss_changes":[3.1936886E1,5.21242E0,8.037342E0,1.5738244E0,3.2492938E0,1.3183333E-1,2.729332E0,2.5534916E-1,1.9077678E0,1.051475E0,2.5683079E0,0E0,0E0,1.2760277E0,1.5072241E0,1.5764856E-1,1.2607042E0,4.3445367E-1,1.1439395E0,1.5467171E-1,1.1074071E0,4.664216E-1,2.9384456E0,0E0,0E0,9.063492E-1,0E0,3.3040524E-2,3.380711E-1,0E0,0E0,0E0,4.4860122E-1,0E0,0E0,4.1975707E-1,0E0,1.2521368E-1,9.917872E-1,0E0,0E0,0E0,5.3129673E-1,0E0,0E0,0E0,0E0,0E0,0E0,0E0,0E0,0E0,0E0,0E0,0E0,0E0,0E0,0E0,0E0],"parents":[2147483647,0,0,1,1,2,2,3,3,4,4,5,5,6,6,7,7,8,8,9,9,10,10,13,13,14,14,15,15,16,16,17,17,18,18,19,19,20,20,21,21,22,22,25,25,27,27,28,28,32,32,35,35,37,37,38,38,42,42],"right_children":[2,4,6,8,10,12,14,16,18,20,22,-1,-1,24,26,28,30,32,34,36,38,40,42,-1,-1,44,-1,46,48,-1,-1,-1,50,-1,-1,52,-1,54,56,-1,-1,-1,58,-1,-1,-1,-1,-1,-1,-1,-1,-1,-1,-1,-1,-1,-1,-1,-1],"split_conditions":[4.08E2,3.45E2,1E0,3.5E2,3.32E2,1E0,8.53E1,1.4794127E2,9.3E-1,9.2E-1,8.1E1,9.7472996E-1,-9.254816E-1,2.942857E2,8.9220436E1,2.314E2,2.8E2,3.54E2,3.76E2,3.32E2,7.2E-1,3.6E1,1E0,5.0468173E0,7.3193E0,2E0,4.184309E0,2.3857143E2,2.3164285E2,-1.0262927E0,1.492073E0,9.2881775E-1,5.3E0,7.3444366E-1,5.2419086E0,2.99E2,-7.309657E-1,3.62E1,3.89E2,1.1716431E0,-1.0922976E-1,-1.4117813E0,8.67E1,2.8558547E0,-1.8405E-1,-4.6076484E0,-1.5732902E0,1.5705858E-1,-1.2055578E0,5.382642E0,-3.582799E-1,-2.4247081E0,6.919672E-1,-1.6219787E-1,2.0316942E0,8.8052577E-1,-5.937851E-1,6.556166E0,2.8850632E0],"split_indices":[36,35,12,36,38,0,14,41,25,25,42,0,0,38,41,40,3,36,36,36,34,42,12,0,0,0,0,38,39,0,0,0,44,0,0,36,0,13,35,0,0,0,14,0,0,0,0,0,0,0,0,0,0,0,0,0,0,0,0],"split_type":[0,0,0,0,0,0,0,0,0,0,0,0,0,0,0,0,0,0,0,0,0,0,0,0,0,0,0,0,0,0,0,0,0,0,0,0,0,0,0,0,0,0,0,0,0,0,0,0,0,0,0,0,0,0,0,0,0,0,0],"sum_hessian":[1.317E3,1.219E3,9.8E1,1.071E3,1.48E2,1.9E1,7.9E1,1.009E3,6.2E1,1.04E2,4.4E1,5E0,1.4E1,5.6E1,2.3E1,9.81E2,2.8E1,5.2E1,1E1,6.5E1,3.9E1,1.6E1,2.8E1,5E0,5.1E1,1.3E1,1E1,6.75E2,3.06E2,2.3E1,5E0,5E0,4.7E1,5E0,5E0,3E1,3.5E1,1.7E1,2.2E1,5E0,1.1E1,6E0,2.2E1,5E0,8E0,6.49E2,2.6E1,4.6E1,2.6E2,6E0,4.1E1,1.8E1,1.2E1,1.2E1,5E0,1.7E1,5E0,1.6E1,6E0],"tree_param":{"num_deleted":"0","num_feature":"45","num_nodes":"59","size_leaf_vector":"1"}},{"base_weights":[-1.5597039E-2,-5.4502014E-2,5.5232555E-1,-7.42955E-2,2.188235E-1,-4.666668E-3,6.791666E-1,-9.2907116E-2,3.5087697E-2,1.10447735E-1,5.8947366E-1,7.9272723E-1,2.944444E-1,-9.648529E-2,-6.583336E-2,-1.9565241E-2,2.5588232E-1,3.2083333E-1,-6.818205E-3,9.999999E-3,3.7692305E-2,2.3333332E-2,4.191489E-2,-2.1674417E-8,3.3125E-2,-4.993152E-3,-7.973859E-2,-8.173916E-2,1.2499999E-2,-8.1034504E-2,2.4691334E-2,-4.375001E-3,3.4814814E-1,-4.285715E-3,4.611111E-1,-6.857145E-2,1.0499999E-2,-4.166668E-3,4.166666E-3,3.749999E-3,-4.6126773E-3,4.5454535E-3,-4.9523823E-3,2.857142E-3,-4.9038474E-3,-2.1818194E-3,8.148148E-3,4.5454535E-3,2.4705881E-2,2.857142E-3,3.2916665E-2,-4.8333346E-3,4.166666E-3],"categories":[],"categories_nodes":[],"categories_segments":[],"categories_sizes":[],"default_left":[0,0,0,0,0,0,0,0,0,0,0,0,0,0,0,0,0,0,0,0,0,0,0,0,0,0,0,0,0,0,0,0,0,0,0,0,0,0,0,0,0,0,0,0,0,0,0,0,0,0,0,0,0],"id":5,"left_children":[1,3,5,7,9,-1,11,13,15,17,19,21,23,25,27,29,31,33,35,-1,-1,-1,-1,37,-1,-1,39,41,-1,43,45,-1,47,-1,49,51,-1,-1,-1,-1,-1,-1,-1,-1,-1,-1,-1,-1,-1,-1,-1,-1,-1],"loss_changes":[2.9637423E1,6.805887E0,7.106449E0,2.3871808E0,3.3493009E0,0E0,2.9122124E0,9.061909E-2,2.0684762E0,1.6551486E0,1.065587E0,4.260292E-1,1.9506944E0,4.192829E-2,6.232645E-1,3.774187E-1,1.107666E0,1.4082341E0,6.03526E-1,0E0,0E0,0E0,0E0,8.333333E-2,0E0,0E0,3.0321068E-1,3.5265642E-1,0E0,1.4218736E-1,7.723816E-1,0E0,9.689045E-1,0E0,1.3964682E0,1.5742858E-1,0E0,0E0,0E0,0E0,0E0,0E0,0E0,0E0,0E0,0E0,0E0,0E0,0E0,0E0,0E0,0E0,0E0],"parents":[2147483647,0,0,1,1,2,2,3,3,4,4,6,6,7,7,8,8,9,9,10,10,11,11,12,12,13,13,14,14,15,15,16,16,17,17,18,18,23,23,26,26,27,27,29,29,30,30,32,32,34,34,35,35],"right_children":[2,4,6,8,10,-1,12,14,16,18,20,22,24,26,28,30,32,34,36,-1,-1,-1,-1,38,-1,-1,40,42,-1,44,46,-1,48,-1,50,52,-1,-1,-1,-1,-1,-1,-1,-1,-1,-1,-1,-1,-1,-1,-1,-1,-1],"split_conditions":[4.19E2,3.75E2,1E0,3.19E2,3.7157144E2,-6.233795E-1,8.54E1,1E0,9.3E-1,3.649E1,2E0,7.9E-1,9.2E-1,2.8E1,1.3982948E2,1E0,2.3292857E2,9E-1,4E0,1.4128541E0,8.400653E0,3.192215E0,6.369437E0,3E0,3.2530777E0,-3.377266E0,3.3E1,4.4136154E1,2.1570098E0,1.56E2,6.74E1,-1.7821854E0,1E0,-2.1890411E0,2.479E1,4.41E2,8.396072E-1,-1.5509187E-1,1.8799164E0,3.4771962E0,-2.4736404E0,3.8920674E-1,-3.4569135E0,2.51214E0,-1.381107E0,-3.1803402E-1,7.124922E-1,1.7716258E0,3.9895484E0,1.07917786E-1,4.898462E0,-7.0651734E-1,9.259934E-1],"split_indices":[35,36,12,35,39,0,14,7,25,15,24,25,25,42,41,33,39,33,0,0,0,0,0,0,0,0,42,41,0,36,14,0,34,0,15,36,0,0,0,0,0,0,0,0,0,0,0,0,0,0,0,0,0],"split_type":[0,0,0,0,0,0,0,0,0,0,0,0,0,0,0,0,0,0,0,0,0,0,0,0,0,0,0,0,0,0,0,0,0,0,0,0,0,0,0,0,0,0,0,0,0,0,0,0,0,0,0,0,0],"sum_hessian":[1.339E3,1.254E3,8.5E1,1.17E3,8.4E1,1.4E1,7.1E1,1E3,1.7E2,6.6E1,1.8E1,5.4E1,1.7E1,8.81E2,1.19E2,1.37E2,3.3E1,2.3E1,4.3E1,6E0,1.2E1,8E0,4.6E1,1E1,7E0,7.29E2,1.52E2,1.14E2,5E0,5.7E1,8E1,7E0,2.6E1,6E0,1.7E1,3.4E1,9E0,5E0,5E0,1.1E1,1.41E2,1E1,1.04E2,6E0,5.1E1,5.4E1,2.6E1,1E1,1.6E1,6E0,1.1E1,2.9E1,5E0],"tree_param":{"num_deleted":"0","num_feature":"45","num_nodes":"53","size_leaf_vector":"1"}},{"base_weights":[-1.1912012E-2,-5.2532703E-2,5.115789E-1,-7.355011E-2,2.2298849E-1,-4.687501E-3,6.2624997E-1,-8.249519E-2,1.5238072E-2,9.516127E-2,5.192307E-1,4.0294117E-1,7.7446806E-1,-9.808698E-2,-6.282611E-2,-3.855424E-2,2.0869564E-1,2.678569E-2,3.142857E-2,3.8214285E-2,2.1538459E-1,5.8947366E-1,1.5624997E-1,2.0624999E-2,4.1375E-2,-4.9910243E-3,-4.2105287E-2,1.9285712E-1,-7.069354E-2,1.8181816E-1,-7.12329E-2,3.733333E-1,-4.444446E-3,1.9999997E-1,-4.750002E-2,-4.375001E-3,2.9166667E-2,3.7083335E-2,1.4374998E-2,-4.500001E-3,2.4285713E-2,-4.6428586E-3,4.166666E-3,-4.375001E-3,2.4285713E-2,-2.3481795E-3,-4.9751257E-3,2.0833334E-2,-4.166668E-3,-4.9218764E-3,5.499999E-3,1.874999E-3,3.3125E-2,-4.500001E-3,2.6874999E-2,9.999999E-3,-4.8529427E-3],"categories":[],"categories_nodes":[],"categories_segments":[],"categories_sizes":[],"default_left":[0,0,0,0,0,0,0,0,0,0,0,0,0,0,0,0,0,0,0,0,0,0,0,0,0,0,0,0,0,0,0,0,0,0,0,0,0,0,0,0,0,0,0,0,0,0,0,0,0,0,0,0,0,0,0,0,0],"id":6,"left_children":[1,3,5,7,9,-1,11,13,15,17,19,21,23,25,27,29,31,33,-1,-1,35,37,39,-1,-1,-1,41,43,45,47,49,51,-1,53,55,-1,-1,-1,-1,-1,-1,-1,-1,-1,-1,-1,-1,-1,-1,-1,-1,-1,-1,-1,-1,-1,-1],"loss_changes":[2.805357E1,7.104268E0,6.653013E0,9.05076E-1,3.24509E0,0E0,2.3358078E0,3.1094074E-1,1.1007316E0,2.2444415E0,1.7713184E0,1.4724364E0,5.608616E-1,5.1598072E-2,9.389553E-1,6.106739E-1,1.1600388E0,7.300714E-1,0E0,0E0,1.4998397E0,6.599784E-1,1.3418037E0,0E0,0E0,0E0,1.2869674E-1,1.1919643E0,3.0091214E-1,7.19697E-1,3.7074524E-1,1.4318333E0,0E0,1.71225E0,5.1004416E-1,0E0,0E0,0E0,0E0,0E0,0E0,0E0,0E0,0E0,0E0,0E0,0E0,0E0,0E0,0E0,0E0,0E0,0E0,0E0,0E0,0E0,0E0],"parents":[2147483647,0,0,1,1,2,2,3,3,4,4,6,6,7,7,8,8,9,9,10,10,11,11,12,12,13,13,14,14,15,15,16,16,17,17,20,20,21,21,22,22,26,26,27,27,28,28,29,29,30,30,31,31,33,33,34,34],"right_children":[2,4,6,8,10,-1,12,14,16,18,20,22,24,26,28,30,32,34,-1,-1,36,38,40,-1,-1,-1,42,44,46,48,50,52,-1,54,56,-1,-1,-1,-1,-1,-1,-1,-1,-1,-1,-1,-1,-1,-1,-1,-1,-1,-1,-1,-1,-1,-1],"split_conditions":[4.19E2,3.75E2,1E0,3.43E2,3.422857E2,-5.9700626E-1,9E-1,2.1357143E2,9.3E-1,4.3E1,8.48E1,4.093E1,3.44E2,3.1E2,-1.27E2,5.37E1,4E0,6.8E0,4.868587E0,6.8363037E0,8.94E1,2.8E1,1.9E1,5.9503083E0,6.2858305E0,-4.490616E0,8.9E1,7E0,5E0,3.58E2,3.217857E2,1E0,-1.6138153E-1,9.3E-1,1E0,-3.1308135E-1,1.6767426E0,5.22583E0,2.368901E0,-1.8374789E-1,1.7859207E0,-3.1396809E0,4.0974578E-1,-6.1646575E-1,4.0507846E0,-2.2855751E-1,-3.6394813E0,6.841324E-1,-2.7572328E-1,-9.4854766E-1,7.8274355E0,2.5670168E-1,3.6493027E0,-6.479173E-1,6.1056215E-1,4.3451235E-1,-8.8484114E-1],"split_indices":[35,36,12,35,39,0,25,38,25,2,14,15,36,37,42,14,0,44,0,0,14,2,44,0,0,0,14,1,0,35,39,12,0,25,0,0,0,0,0,0,0,0,0,0,0,0,0,0,0,0,0,0,0,0,0,0,0],"split_type":[0,0,0,0,0,0,0,0,0,0,0,0,0,0,0,0,0,0,0,0,0,0,0,0,0,0,0,0,0,0,0,0,0,0,0,0,0,0,0,0,0,0,0,0,0,0,0,0,0,0,0,0,0,0,0,0,0],"sum_hessian":[1.317E3,1.223E3,9.4E1,1.137E3,8.6E1,1.5E1,7.9E1,1.033E3,1.04E2,6.1E1,2.5E1,3.3E1,4.6E1,5.74E2,4.59E2,8.2E1,2.2E1,5.5E1,6E0,1.3E1,1.2E1,1.8E1,1.5E1,7E0,3.9E1,5.56E2,1.8E1,1.3E1,4.46E2,1E1,7.2E1,1.4E1,8E0,1.6E1,3.9E1,7E0,5E0,1.1E1,7E0,9E0,6E0,1.3E1,5E0,7E0,6E0,2.46E2,2E2,5E0,5E0,6.3E1,9E0,7E0,7E0,9E0,7E0,6E0,3.3E1],"tree_param":{"num_deleted":"0","num_feature":"45","num_nodes":"57","size_leaf_vector":"1"}},{"base_weights":[-1.4641534E-2,-5.3765208E-2,5.164835E-1,-7.189144E-2,1.6702126E-1,-4.7222236E-3,6.5810806E-1,-9.285717E-2,-9.688605E-3,2.9841268E-1,-4.8437514E-3,3.897959E-2,4.0384614E-1,-9.3992956E-2,4.166666E-3,3.8829762E-2,-4.9509816E-3,1.0249998E-1,6.1249995E-1,5.368421E-1,1.874999E-3,-9.513067E-2,1.874999E-3,4.0714285E-1,9.142834E-3,4.9166664E-1,-6.2068988E-2,2.857142E-3,3.9722223E-2,1.0499999E-2,4.05E-2,-4.856754E-3,-4.045456E-3,-4.166668E-3,3.4444444E-2,-4.2029E-3,3.4579427E-3,1.2499999E-2,3.142857E-2,4.166666E-3,-4.7916677E-3],"categories":[],"categories_nodes":[],"categories_segments":[],"categories_sizes":[],"default_left":[0,0,0,0,0,0,0,0,0,0,0,0,0,0,0,0,0,0,0,0,0,0,0,0,0,0,0,0,0,0,0,0,0,0,0,0,0,0,0,0,0],"id":7,"left_children":[1,3,5,7,9,-1,11,13,15,17,-1,-1,19,21,-1,23,-1,25,27,29,-1,31,-1,33,35,37,39,-1,-1,-1,-1,-1,-1,-1,-1,-1,-1,-1,-1,-1,-1],"loss_changes":[2.7560688E1,4.9545116E0,7.9356995E0,1.4884138E0,3.288237E0,0E0,1.9709244E0,1.7873144E-1,1.2564273E0,3.8138409E0,0E0,0E0,1.246655E0,1.3057804E-1,0E0,2.0518856E0,0E0,2.5923076E0,2.3796625E0,1.5262103E0,0E0,1.6142845E-2,0E0,1.9920633E0,9.846834E-1,2.3988104E-1,1.5035918E-1,0E0,0E0,0E0,0E0,0E0,0E0,0E0,0E0,0E0,0E0,0E0,0E0,0E0,0E0],"parents":[2147483647,0,0,1,1,2,2,3,3,4,4,6,6,7,7,8,8,9,9,12,12,13,13,15,15,17,17,18,18,19,19,21,21,23,23,24,24,25,25,26,26],"right_children":[2,4,6,8,10,-1,12,14,16,18,-1,-1,20,22,-1,24,-1,26,28,30,-1,32,-1,34,36,38,40,-1,-1,-1,-1,-1,-1,-1,-1,-1,-1,-1,-1,-1,-1],"split_conditions":[4.19E2,9.3E-1,1E0,2.595E2,5E0,-9.19356E-1,8.08E1,2.92E2,5E0,2.8157144E2,-1.0804656E0,5.4792385E0,4.72E2,3.76E2,1.5977601E0,2.2E2,-2.2785935E0,6E0,1E0,9E-1,1.6494522E0,1E0,4.6251574E0,1E0,9E-1,9.5E-1,1E0,2.4386597E-1,5.412172E0,2.771313E0,8.309304E0,-3.4231346E0,-3.4298894E0,-2.3540223E0,2.7100723E0,-7.455654E-1,4.5826802E-1,1.8286911E0,2.2061431E0,6.6404575E-1,-1.3475864E-1],"split_indices":[36,25,12,39,0,0,14,38,0,38,0,0,36,36,0,36,0,44,12,25,0,26,0,33,33,25,0,0,0,0,0,0,0,0,0,0,0,0,0,0,0],"split_type":[0,0,0,0,0,0,0,0,0,0,0,0,0,0,0,0,0,0,0,0,0,0,0,0,0,0,0,0,0,0,0,0,0,0,0,0,0,0,0,0,0],"sum_hessian":[1.324E3,1.234E3,9E1,1.141E3,9.3E1,1.7E1,7.3E1,8.53E2,2.88E2,6.2E1,3.1E1,4.8E1,2.5E1,8.48E2,5E0,1.87E2,1.01E2,3.9E1,2.3E1,1.8E1,7E0,8.41E2,7E0,1.3E1,1.74E2,1.1E1,2.8E1,6E0,1.7E1,9E0,9E0,7.32E2,1.09E2,5E0,8E0,6.8E1,1.06E2,5E0,6E0,5E0,2.3E1],"tree_param":{"num_deleted":"0","num_feature":"45","num_nodes":"41","size_leaf_vector":"1"}},{"base_weights":[-2.195309E-2,-6.1488166E-2,4.6666664E-1,-7.85778E-2,1.3333331E-1,-4.7222236E-3,5.841463E-1,-9.822296E-2,-5.4437894E-2,4.0217388E-1,-4.9074087E-3,7.595238E-1,3.902439E-1,-4.9916958E-3,-3.8888913E-2,-3.8216799E-3,-7.69231E-2,3.4782585E-2,7.3749995E-1,8.216216E-1,1.2499999E-2,4.617647E-1,1.874999E-3,4.166666E-3,-4.615386E-3,2.3999998E-1,-2.9370653E-2,-8.236997E-2,1.2499999E-2,-4.666668E-3,1.2222222E-2,1.2499999E-2,4.2631578E-2,2.6874999E-2,4.3500002E-2,6.55E-1,1.7333332E-1,-4.444446E-3,3.142857E-2,-2.9098373E-3,6.590908E-3,-4.493465E-3,-1.2195134E-3,3.8666666E-2,1.2499999E-2,2.0833334E-2,4.999989E-4],"categories":[],"categories_nodes":[],"categories_segments":[],"categories_sizes":[],"default_left":[0,0,0,0,0,0,0,0,0,0,0,0,0,0,0,0,0,0,0,0,0,0,0,0,0,0,0,0,0,0,0,0,0,0,0,0,0,0,0,0,0,0,0,0,0,0,0],"id":8,"left_children":[1,3,5,7,9,-1,11,13,15,17,-1,19,21,-1,23,25,27,29,31,33,-1,35,-1,-1,-1,37,39,41,-1,-1,-1,-1,-1,-1,-1,43,45,-1,-1,-1,-1,-1,-1,-1,-1,-1,-1],"loss_changes":[2.554727E1,4.082368E0,6.5811653E0,5.281644E-1,6.2004027E0,0E0,2.4921017E0,5.5284023E-2,5.7673085E-1,5.641359E0,0E0,1.1234894E0,1.0170536E0,0E0,1.2521368E-1,9.8506355E-1,6.4562035E-1,6.406183E-1,1.1338806E0,4.0952682E-2,0E0,1.7814608E0,0E0,0E0,0E0,1.9728255E0,6.721128E-1,1.4825225E-1,0E0,0E0,0E0,0E0,0E0,0E0,0E0,7.6516724E-1,5.920001E-1,0E0,0E0,0E0,0E0,0E0,0E0,0E0,0E0,0E0,0E0],"parents":[2147483647,0,0,1,1,2,2,3,3,4,4,6,6,7,7,8,8,9,9,11,11,12,12,14,14,15,15,16,16,17,17,18,18,19,19,21,21,25,25,26,26,27,27,35,35,36,36],"right_children":[2,4,6,8,10,-1,12,14,16,18,-1,20,22,-1,24,26,28,30,32,34,-1,36,-1,-1,-1,38,40,42,-1,-1,-1,-1,-1,-1,-1,44,46,-1,-1,-1,-1,-1,-1,-1,-1,-1,-1],"split_conditions":[4.08E2,3.2142856E2,1E0,2.18E2,5E0,-5.621631E-1,7.4E0,2.38E2,-2.1E1,9E-1,-6.9387096E-1,8.97E1,1.311633E2,-4.018793E0,8.1E1,5.1E0,4.23E1,8.94E1,3.157E2,2E0,2.5055237E0,2.9E1,1.7975769E0,1.6472412E0,-1.1896318E0,8.7E-1,-2.6E1,1E0,1.9770402E0,-3.7295684E-1,2.0882585E0,3.5038254E0,6.9480677E0,1.9764938E0,5.382184E0,5.02E2,3.732143E2,-1.3936783E0,4.3938994E0,-2.3110227E-1,7.8672624E-1,-1.116207E0,-1.03711E-1,6.947576E0,2.797577E0,1.56698E0,1.1769314E0],"split_indices":[35,38,12,40,0,0,44,38,42,33,0,14,41,0,14,44,13,14,40,24,0,2,0,0,0,25,42,26,0,0,0,0,0,0,0,35,39,0,0,0,0,0,0,0,0,0,0],"split_type":[0,0,0,0,0,0,0,0,0,0,0,0,0,0,0,0,0,0,0,0,0,0,0,0,0,0,0,0,0,0,0,0,0,0,0,0,0,0,0,0,0,0,0,0,0,0,0],"sum_hessian":[1.32E3,1.222E3,9.8E1,1.124E3,9.8E1,1.7E1,8.1E1,6.18E2,5.06E2,4.5E1,5.3E1,4.1E1,4E1,6.01E2,1.7E1,1.56E2,3.5E2,2.2E1,2.3E1,3.6E1,5E0,3.3E1,7E0,5E0,1.2E1,1.4E1,1.42E2,3.45E2,5E0,1.4E1,8E0,5E0,1.8E1,7E0,2.9E1,1.9E1,1.4E1,8E0,6E0,1.21E2,2.1E1,3.05E2,4E1,1.4E1,5E0,5E0,9E0],"tree_param":{"num_deleted":"0","num_feature":"45","num_nodes":"47","size_leaf_vector":"1"}},{"base_weights":[-1.6653959E-2,-7.238013E-2,3.244565E-1,-8.698927E-2,-3.045709E-3,5.007692E-1,-4.909092E-3,1.2499999E-2,-8.908111E-2,-2.0105844E-2,1.7777776E-2,-4.7222236E-3,5.911504E-1,-4.3956067E-2,-9.389224E-2,-4.166669E-2,7.9411745E-2,7.3246753E-1,2.8108105E-1,-7.5294144E-2,1.7142856E-2,-9.716984E-2,-6.70213E-2,-5.7931058E-2,1.5833332E-1,2.3999998E-1,-4.5000024E-2,3.6363634E-1,7.8208953E-1,1.4482756E-1,3.4444444E-2,-4.9218764E-3,-2.2727386E-4,-4.92143E-3,-3.7209315E-3,-4.931508E-3,2.0454533E-3,1.999999E-3,-3.4351156E-3,2.0833334E-2,-4.285715E-3,-4.166668E-3,2.0499999E-2,4.166666E-3,-4.666668E-3,4.166666E-3,2.9166667E-2,4.0241934E-2,2.0833334E-2,-1.1353266E-9,2.3333332E-2],"categories":[],"categories_nodes":[],"categories_segments":[],"categories_sizes":[],"default_left":[0,0,0,0,0,0,0,0,0,0,0,0,0,0,0,0,0,0,0,0,0,0,0,0,0,0,0,0,0,0,0,0,0,0,0,0,0,0,0,0,0,0,0,0,0,0,0,0,0,0,0],"id":9,"left_children":[1,3,5,7,9,11,-1,-1,13,15,-1,-1,17,19,21,23,25,27,29,31,-1,33,35,37,39,41,43,45,47,49,-1,-1,-1,-1,-1,-1,-1,-1,-1,-1,-1,-1,-1,-1,-1,-1,-1,-1,-1,-1,-1],"loss_changes":[2.490598E1,1.1402783E0,1.3760204E1,6.778512E-1,1.2123525E0,7.049328E0,0E0,0E0,1.9669247E-1,4.0884298E-1,0E0,0E0,4.7455635E0,1.1289153E0,6.702852E-2,5.1662076E-1,6.900882E-1,1.1248665E0,1.9561441E0,1.3872841E-1,0E0,1.3924599E-2,3.247211E-1,1.5569991E-1,7.9226196E-1,8.586667E-1,1.3183333E-1,6.28788E-1,2.216301E-1,1.351724E0,0E0,0E0,0E0,0E0,0E0,0E0,0E0,0E0,0E0,0E0,0E0,0E0,0E0,0E0,0E0,0E0,0E0,0E0,0E0,0E0,0E0],"parents":[2147483647,0,0,1,1,2,2,3,3,4,4,5,5,8,8,9,9,12,12,13,13,14,14,15,15,16,16,17,17,18,18,19,19,21,21,22,22,23,23,24,24,25,25,26,26,27,27,28,28,29,29],"right_children":[2,4,6,8,10,12,-1,-1,14,16,-1,-1,18,20,22,24,26,28,30,32,-1,34,36,38,40,42,44,46,48,50,-1,-1,-1,-1,-1,-1,-1,-1,-1,-1,-1,-1,-1,-1,-1,-1,-1,-1,-1,-1,-1],"split_conditions":[3.24E2,3.11E2,5E0,-2.82E2,5.391E1,1E0,-9.165867E-1,4.0437164E0,-7.4E1,2.62E2,1.8781875E0,-1.4646902E0,8.53E1,1.2707834E2,9.12E1,9.5E-1,2.29E2,8.2E-1,9.3E-1,2.2142857E2,4.1742053E0,2.794E2,2.314E2,5.22E1,1.4179193E2,2.69E1,8E-1,4.122857E2,1.3557286E2,1.0614882E2,1.9838456E0,-2.1317756E0,-3.0809356E-2,-3.311776E0,-1.6098131E0,-4.4521713E0,5.01243E-1,5.453559E-1,-2.6827434E-1,1.8761414E0,-4.821167E-2,-1.8689164E0,4.193649E-1,1.9078065E-2,-3.771204E-1,3.790314E-1,1.6066421E0,5.530329E0,7.857698E0,3.2525685E-1,3.2130373E0],"split_indices":[38,35,0,42,15,12,0,0,42,3,0,0,14,41,14,25,37,25,25,38,0,40,40,14,41,13,25,38,41,41,0,0,0,0,0,0,0,0,0,0,0,0,0,0,0,0,0,0,0,0,0],"split_type":[0,0,0,0,0,0,0,0,0,0,0,0,0,0,0,0,0,0,0,0,0,0,0,0,0,0,0,0,0,0,0,0,0,0,0,0,0,0,0,0,0,0,0,0,0,0,0,0,0,0,0],"sum_hessian":[1.308E3,1.125E3,1.83E2,9.29E2,1.96E2,1.29E2,5.4E1,5E0,9.24E2,1.88E2,8E0,1.7E1,1.12E2,9E1,8.34E2,1.55E2,3.3E1,7.6E1,3.6E1,8.4E1,6E0,7.41E2,9.3E1,1.44E2,1.1E1,1.4E1,1.9E1,1E1,6.6E1,2.8E1,8E0,6.3E1,2.1E1,6.99E2,4.2E1,7.2E1,2.1E1,1.4E1,1.3E2,5E0,6E0,5E0,9E0,5E0,1.4E1,5E0,5E0,6.1E1,5E0,2E1,8E0],"tree_param":{"num_deleted":"0","num_feature":"45","num_nodes":"51","size_leaf_vector":"1"}},{"base_weights":[-2.0655511E-2,-7.161806E-2,2.961538E-1,-9.3289495E-2,-2.7150562E-2,4.3014702E-1,-4.893618E-3,-9.455514E-2,1.874999E-3,-1.811618E-3,-4.948455E-3,1.1833331E-1,6.6753244E-1,-9.708336E-2,-3.8235318E-2,2.210526E-1,-1.8217077E-2,1.8604629E-2,3.4999996E-1,3.3571425E-1,7.2968745E-1,-4.99195E-3,-7.9000026E-2,1.2499999E-2,-4.8275874E-3,2.8888887E-2,-4.545456E-3,-8.842108E-2,2.2560952E-2,-4.166669E-2,1.4374998E-2,-4.285715E-3,5.75E-1,2.857142E-3,2.6874999E-2,4.0568184E-2,5.238095E-1,-1.1353266E-9,-4.937501E-3,4.166666E-3,-4.9444456E-3,-1.7727284E-3,6.9090896E-3,-4.8076934E-3,4.5454535E-3,3.857143E-2,1.2499999E-2,4.0909093E-2,9.090908E-3],"categories":[],"categories_nodes":[],"categories_segments":[],"categories_sizes":[],"default_left":[0,0,0,0,0,0,0,0,0,0,0,0,0,0,0,0,0,0,0,0,0,0,0,0,0,0,0,0,0,0,0,0,0,0,0,0,0,0,0,0,0,0,0,0,0,0,0,0,0],"id":10,"left_children":[1,3,5,7,9,11,-1,13,-1,15,-1,17,19,21,23,25,27,29,31,33,35,-1,37,-1,-1,-1,-1,39,41,43,-1,-1,45,-1,-1,-1,47,-1,-1,-1,-1,-1,-1,-1,-1,-1,-1,-1,-1],"loss_changes":[2.1203989E1,1.0873828E0,9.651122E0,1.2935019E-1,6.7678845E-1,9.987734E0,0E0,1.0350704E-1,0E0,1.0131353E0,0E0,1.3797171E0,1.3430977E0,2.7991295E-2,5.9563905E-1,2.1669326E0,7.4059224E-1,7.0886624E-1,1.8139288E0,7.5625E-1,6.5118027E-1,0E0,1.5602499E-1,0E0,0E0,0E0,0E0,1.7904091E-1,1.1049788E0,2.687937E-1,0E0,0E0,5.7321405E-1,0E0,0E0,0E0,1.9653678E0,0E0,0E0,0E0,0E0,0E0,0E0,0E0,0E0,0E0,0E0,0E0,0E0],"parents":[2147483647,0,0,1,1,2,2,3,3,4,4,5,5,7,7,9,9,11,11,12,12,13,13,14,14,15,15,16,16,17,17,18,18,19,19,20,20,22,22,27,27,28,28,29,29,32,32,36,36],"right_children":[2,4,6,8,10,12,-1,14,-1,16,-1,18,20,22,24,26,28,30,32,34,36,-1,38,-1,-1,-1,-1,40,42,44,-1,-1,46,-1,-1,-1,48,-1,-1,-1,-1,-1,-1,-1,-1,-1,-1,-1,-1],"split_conditions":[3.2142856E2,2.3853334E2,5E0,1.4864595E2,5E0,9E-1,-6.2911814E-1,9.2E-1,1.9176331E-1,1.8E2,-5.689815E0,9.3E-1,8.2E-1,2.2057143E2,1E0,2.18E1,1E0,2E0,8.63E1,3.13E2,4.322857E2,-3.700401E0,5.332738E1,1.9480346E0,-1.8158709E-1,3.9654953E0,-3.714331E-1,1.7657143E2,6.91E1,1.0973583E2,2.4096572E0,-8.658295E-2,3.43E2,2.2664185E0,1.5263108E0,5.8407006E0,5.7E1,2.1164933E-1,-1.8730611E0,5.9116215E-1,-1.4888352E0,-6.677554E-2,8.154625E-1,-2.1339147E-1,1.4352597E0,1.8846527E0,2.2810547E0,5.176569E0,2.0239153E0],"split_indices":[38,40,0,41,0,33,0,25,0,35,0,25,25,38,0,44,33,43,14,37,38,0,41,0,0,0,0,38,14,41,0,0,37,0,0,0,14,0,0,0,0,0,0,0,0,0,0,0,0],"split_type":[0,0,0,0,0,0,0,0,0,0,0,0,0,0,0,0,0,0,0,0,0,0,0,0,0,0,0,0,0,0,0,0,0,0,0,0,0,0,0,0,0,0,0,0,0,0,0,0,0],"sum_hessian":[1.311E3,1.13E3,1.81E2,7.59E2,3.71E2,1.35E2,4.6E1,7.52E2,7E0,2.75E2,9.6E1,5.9E1,7.6E1,7.19E2,3.3E1,1.8E1,2.57E2,4.2E1,1.7E1,1.3E1,6.3E1,6.2E2,9.9E1,5E0,2.8E1,8E0,1E1,9.4E1,1.63E2,3.5E1,7E0,6E0,1.1E1,6E0,7E0,4.3E1,2E1,2E1,7.9E1,5E0,8.9E1,1.09E2,5.4E1,2.5E1,1E1,6E0,5E0,1E1,1E1],"tree_param":{"num_deleted":"0","num_feature":"45","num_nodes":"49","size_leaf_vector":"1"}},{"base_weights":[-2.399395E-2,-5.7189833E-2,3.762376E-1,-6.644354E-2,4.2608693E-1,1.0249998E-1,5.4677415E-1,-8.71528E-2,-1.2349421E-2,4E-2,1.7333332E-1,-4.7500012E-3,2.8571427E-1,6.5208334E-1,1.7333332E-1,-9.225891E-2,-3.376626E-2,-3.5587214E-2,1.1346152E-1,-4.444446E-3,2.4285713E-2,2.6874999E-2,1.2142855E-1,4.611111E-1,7.4193543E-1,-4.444446E-3,2.4285713E-2,-9.807358E-2,-7.660553E-2,2.3999998E-1,-4.9206363E-3,-5.9437774E-2,1.4545453E-1,3.3333104E-3,2.521739E-1,-4.444446E-3,2.0833334E-2,5.75E-1,9.999999E-3,1.7142856E-2,4.12E-2,-4.9909926E-3,-1.7647072E-3,-3.6363755E-4,-4.9695135E-3,2.9166667E-2,4.999989E-4,2.3809513E-3,-3.4497827E-3,2.0416666E-2,-2.2727386E-4,-4.7058836E-3,6.0714274E-3,2.1999998E-2,-4.444446E-3,3.857143E-2,1.2499999E-2],"categories":[],"categories_nodes":[],"categories_segments":[],"categories_sizes":[],"default_left":[0,0,0,0,0,0,0,0,0,0,0,0,0,0,0,0,0,0,0,0,0,0,0,0,0,0,0,0,0,0,0,0,0,0,0,0,0,0,0,0,0,0,0,0,0,0,0,0,0,0,0,0,0,0,0,0,0],"id":11,"left_children":[1,3,5,7,9,11,13,15,17,-1,19,-1,21,23,25,27,29,31,33,-1,-1,-1,35,37,39,-1,-1,41,43,45,-1,47,49,51,53,-1,-1,55,-1,-1,-1,-1,-1,-1,-1,-1,-1,-1,-1,-1,-1,-1,-1,-1,-1,-1,-1],"loss_changes":[1.7519234E1,5.4708567E0,4.658866E0,1.3376217E0,2.0350142E0,1.4745358E0,2.3252296E0,2.32409E-1,9.746624E-1,0E0,1.2718731E0,0E0,8.0339277E-1,4.8152733E-1,1.2718731E0,6.420994E-2,1.3863665E0,1.2219887E0,7.9351896E-1,0E0,0E0,0E0,9.063492E-1,4.202776E-1,7.327423E-1,0E0,0E0,5.9075356E-2,3.436581E-1,1.1786666E0,0E0,2.580713E-1,1.3031063E0,3.5668346E-1,1.5125023E0,0E0,0E0,5.7321405E-1,0E0,0E0,0E0,0E0,0E0,0E0,0E0,0E0,0E0,0E0,0E0,0E0,0E0,0E0,0E0,0E0,0E0,0E0,0E0],"parents":[2147483647,0,0,1,1,2,2,3,3,4,4,5,5,6,6,7,7,8,8,10,10,12,12,13,13,14,14,15,15,16,16,17,17,18,18,22,22,23,23,24,24,27,27,28,28,29,29,31,31,32,32,33,33,34,34,37,37],"right_children":[2,4,6,8,10,12,14,16,18,-1,20,-1,22,24,26,28,30,32,34,-1,-1,-1,36,38,40,-1,-1,42,44,46,-1,48,50,52,54,-1,-1,56,-1,-1,-1,-1,-1,-1,-1,-1,-1,-1,-1,-1,-1,-1,-1,-1,-1,-1,-1],"split_conditions":[4.19E2,4.41E2,9E-1,2.89E2,4.72E2,8.66E1,1.87E1,2.8542856E2,9.3E-1,6.9778857E0,9E-1,-2.4170081E-1,8.9E1,6E0,4.3E2,2.18E2,4E0,2.77E2,2.7385715E2,-3.1828615E-1,5.927028E0,3.0630538E0,4.347E1,4.322857E2,7.925246E1,-2.9548645E-1,7.1727786E0,2.3857143E2,2.2142857E2,3.02E2,-8.7697077E-1,5.37E1,2.86E2,3.6E2,5E0,-4.7299805E-1,2.1670015E0,7.59E1,5.064853E0,5.233707E0,3.9533231E0,-3.6359978E0,9.196775E-2,-4.552094E-1,-2.2073238E0,2.760083E0,2.2891731E0,3.5118163E-1,-5.213291E-1,3.019838E0,2.2710018E-1,-1.6654162E-1,4.7009936E-1,2.978006E0,-1.1634369E-1,3.8435485E0,2.1599166E0],"split_indices":[35,36,33,36,36,14,44,38,25,0,33,0,14,42,36,40,0,3,38,0,0,0,15,38,41,0,0,38,38,35,0,14,3,36,0,0,0,14,0,0,0,0,0,0,0,0,0,0,0,0,0,0,0,0,0,0,0],"split_type":[0,0,0,0,0,0,0,0,0,0,0,0,0,0,0,0,0,0,0,0,0,0,0,0,0,0,0,0,0,0,0,0,0,0,0,0,0,0,0,0,0,0,0,0,0,0,0,0,0,0,0,0,0,0,0,0,0],"sum_hessian":[1.316E3,1.216E3,1E2,1.194E3,2.2E1,3.9E1,6.1E1,8.63E2,3.31E2,8E0,1.4E1,1.9E1,2E1,4.7E1,1.4E1,7.87E2,7.6E1,2.8E2,5.1E1,8E0,6E0,7E0,1.3E1,1.7E1,3E1,8E0,6E0,5.7E2,2.17E2,1.4E1,6.2E1,2.48E2,3.2E1,2.9E1,2.2E1,8E0,5E0,1.1E1,6E0,6E0,2.4E1,5.54E2,1.6E1,5.4E1,1.63E2,5E0,9E0,2E1,2.28E2,1.1E1,2.1E1,1.6E1,1.3E1,1.4E1,8E0,6E0,5E0],"tree_param":{"num_deleted":"0","num_feature":"45","num_nodes":"57","size_leaf_vector":"1"}},{"base_weights":[-2.6215829E-2,-5.4315984E-2,3.6179772E-1,-8.305278E-2,2.1597609E-2,2.0588212E-2,5.625E-1,-9.013401E-2,-2.3506058E-8,8.681816E-2,-4.9579847E-3,1.9285712E-1,-4.761906E-3,1.3846152E-1,6.7499995E-1,-9.816056E-2,-6.830359E-2,9.72222E-2,-4.861112E-3,2.1084314E-2,2.8363633E-1,-4.166668E-3,1.7777776E-2,1.4374998E-2,-4.166668E-3,3.8958333E-2,5.238095E-1,-4.9915267E-3,1.1111101E-3,6.315787E-2,-8.009711E-2,-3.8888913E-2,2.210526E-1,6.2111565E-3,2.0833334E-2,1.15151495E-1,5.1304346E-1,4.166666E-3,6.5625E-1,-4.545456E-3,1.2222222E-2,-4.674557E-3,-9.210538E-4,4.166666E-3,-4.615386E-3,4.999989E-4,2.0499999E-2,8.2608685E-3,-1.0071954E-3,2.9166667E-2,5.3571316E-4,4E-2,1.5333332E-2,1.7142856E-2,4.05E-2],"categories":[],"categories_nodes":[],"categories_segments":[],"categories_sizes":[],"default_left":[0,0,0,0,0,0,0,0,0,0,0,0,0,0,0,0,0,0,0,0,0,0,0,0,0,0,0,0,0,0,0,0,0,0,0,0,0,0,0,0,0,0,0,0,0,0,0,0,0,0,0,0,0,0,0],"id":12,"left_children":[1,3,5,7,9,11,13,15,17,19,-1,21,-1,23,25,27,29,31,-1,33,35,-1,-1,-1,-1,-1,37,-1,-1,39,41,43,45,47,-1,49,51,-1,53,-1,-1,-1,-1,-1,-1,-1,-1,-1,-1,-1,-1,-1,-1,-1,-1],"loss_changes":[1.4368318E1,2.6806915E0,6.083274E0,5.240116E-1,2.6706486E0,6.967787E-1,2.577982E0,1.3715315E-1,6.805556E-1,2.8402948E0,0E0,6.5873015E-1,0E0,4.5368588E-1,2.8482056E-1,1.22437954E-1,3.5234678E-1,6.153655E-1,0E0,9.7408277E-1,2.066762E0,0E0,0E0,0E0,0E0,0E0,1.1703868E0,0E0,0E0,5.5289733E-1,1.684525E-1,1.2521368E-1,7.5357896E-1,6.7801774E-1,0E0,1.6073053E0,1.1167536E0,0E0,4.9323177E-1,0E0,0E0,0E0,0E0,0E0,0E0,0E0,0E0,0E0,0E0,0E0,0E0,0E0,0E0,0E0,0E0],"parents":[2147483647,0,0,1,1,2,2,3,3,4,4,5,5,6,6,7,7,8,8,9,9,11,11,13,13,14,14,15,15,16,16,17,17,19,19,20,20,26,26,29,29,30,30,31,31,32,32,33,33,35,35,36,36,38,38],"right_children":[2,4,6,8,10,12,14,16,18,20,-1,22,-1,24,26,28,30,32,-1,34,36,-1,-1,-1,-1,-1,38,-1,-1,40,42,44,46,48,-1,50,52,-1,54,-1,-1,-1,-1,-1,-1,-1,-1,-1,-1,-1,-1,-1,-1,-1,-1],"split_conditions":[4.19E2,2.617143E2,9E-1,3.29E2,5E0,4.57E2,3.7885715E2,2.18E2,7.95E1,3.24E2,-2.06235E0,3.96E1,-3.0859166E-1,1.3557286E2,6.14E1,2.3857143E2,2.0885715E2,6.51E1,-4.2572552E-1,5.487E1,9E-1,-1.3217011E-1,2.9099014E0,3.5044067E0,-5.8562773E-1,5.9926124E0,6.55E1,-3.3753853E0,1.7152863E0,4.189E1,3.4E1,6.7E1,9E-1,2.6742856E2,1.6387177E0,2.8816666E2,6E0,1.7668457E0,4E0,-3.2178423E-1,1.8733933E0,-1.9819468E0,-2.9370774E-2,1.7436372E-1,-8.5944283E-1,4.446225E-1,3.7558649E0,3.1161585E-1,-7.227213E-2,2.1747148E0,1.349939E0,4.3777423E0,5.676698E0,1.7412186E0,6.6289916E0],"split_indices":[36,38,33,36,0,36,39,40,14,38,0,15,0,41,14,38,39,14,0,15,33,0,0,0,0,0,14,0,0,15,2,3,25,38,0,40,29,0,1,0,0,0,0,0,0,0,0,0,0,0,0,0,0,0,0],"split_type":[0,0,0,0,0,0,0,0,0,0,0,0,0,0,0,0,0,0,0,0,0,0,0,0,0,0,0,0,0,0,0,0,0,0,0,0,0,0,0,0,0,0,0,0,0,0,0,0,0,0,0,0,0,0,0],"sum_hessian":[1.315E3,1.227E3,8.8E1,8.9E2,3.37E2,3.3E1,5.5E1,8.2E2,7E1,2.19E2,1.18E2,1.3E1,2E1,1.2E1,4.3E1,5.97E2,2.23E2,3.5E1,3.5E1,1.65E2,5.4E1,5E0,8E0,7E0,5E0,2.3E1,2E1,5.89E2,8E0,1.8E1,2.05E2,1.7E1,1.8E1,1.6E2,5E0,3.2E1,2.2E1,5E0,1.5E1,1E1,8E0,1.68E2,3.7E1,5E0,1.2E1,9E0,9E0,2.2E1,1.38E2,5E0,2.7E1,8E0,1.4E1,6E0,9E0],"tree_param":{"num_deleted":"0","num_feature":"45","num_nodes":"55","size_leaf_vector":"1"}},{"base_weights":[-3.049059E-2,-5.707359E-2,3.3932582E-1,-7.050175E-2,1.329268E-1,5.4545432E-2,4.982456E-1,-8.410664E-2,2.569442E-2,8.799998E-2,2.6874999E-2,2.4166664E-1,-5.0000023E-2,6.0681814E-1,1.2142855E-1,-9.2798136E-2,-3.9520983E-2,-8.1967235E-2,1.0357141E-1,-4.7500012E-3,1.5178569E-1,2.9166667E-2,-4.285715E-3,-4.7058836E-3,4.166666E-3,4.5925924E-1,3.9722223E-2,-4.444446E-3,2.0833334E-2,-4.991682E-3,-7.530367E-2,1.259259E-1,-7.092201E-2,-4.9074087E-3,1.874999E-3,2.4285713E-2,6.794869E-2,3.7837815E-2,3.55E-1,3.6363635E-2,2.588235E-1,1.612902E-3,-4.5161303E-3,-4.687501E-3,2.0416666E-2,9.999999E-3,-4.2222235E-3,8.749999E-3,-3.4285726E-3,-4.6428586E-3,5.624999E-3,2.7272725E-2,5.499999E-3,2.9166667E-2,3.749999E-3],"categories":[],"categories_nodes":[],"categories_segments":[],"categories_sizes":[],"default_left":[0,0,0,0,0,0,0,0,0,0,0,0,0,0,0,0,0,0,0,0,0,0,0,0,0,0,0,0,0,0,0,0,0,0,0,0,0,0,0,0,0,0,0,0,0,0,0,0,0,0,0,0,0,0,0],"id":13,"left_children":[1,3,5,7,9,11,13,15,17,19,-1,21,23,25,27,29,31,33,35,-1,37,-1,-1,-1,-1,39,-1,-1,-1,-1,41,43,45,-1,-1,-1,47,49,51,-1,53,-1,-1,-1,-1,-1,-1,-1,-1,-1,-1,-1,-1,-1,-1],"loss_changes":[1.3045215E1,3.1653996E0,4.000717E0,1.5150619E0,1.4431474E0,6.576516E-1,2.258298E0,3.8888645E-1,1.2158381E0,8.8987863E-1,0E0,1.3922617E0,1.372549E-1,8.533249E-1,9.063492E-1,9.673262E-2,8.765297E-1,1.2159905E-1,1.1104853E0,0E0,1.2832943E0,0E0,0E0,0E0,0E0,1.2621908E0,0E0,0E0,0E0,0E0,4.0193284E-1,1.7133102E0,5.334467E-1,0E0,0E0,0E0,1.1519433E0,3.714913E-1,8.7322736E-1,0E0,9.70343E-1,0E0,0E0,0E0,0E0,0E0,0E0,0E0,0E0,0E0,0E0,0E0,0E0,0E0,0E0],"parents":[2147483647,0,0,1,1,2,2,3,3,4,4,5,5,6,6,7,7,8,8,9,9,11,11,12,12,13,13,14,14,15,15,16,16,17,17,18,18,20,20,25,25,30,30,31,31,32,32,36,36,37,37,38,38,40,40],"right_children":[2,4,6,8,10,12,14,16,18,20,-1,22,24,26,28,30,32,34,36,-1,38,-1,-1,-1,-1,40,-1,-1,-1,-1,42,44,46,-1,-1,-1,48,50,52,-1,54,-1,-1,-1,-1,-1,-1,-1,-1,-1,-1,-1,-1,-1,-1],"split_conditions":[4.23E2,3.78E2,9E-1,3.37E2,9.5E-1,4.57E2,1.2561506E2,2.7142856E2,8.8E-1,1E0,4.063951E0,3.15E1,9.1E1,9.3E-1,1.63E1,2.18E2,2E0,3.92E1,1.53E2,-1.6694825E0,8.8E1,2.764406E0,-1.9573669E-1,-3.5620257E-1,1.1145753E0,5.83E1,4.7977576E0,-2.4034882E-1,3.6450806E-1,-3.2619798E0,2.2142857E2,1E0,2.3892857E2,-1.1705161E0,4.2239228E-1,2.838724E0,3.7E2,8.8E-1,9.2922905E1,6.1176004E0,4.23E2,1.9187504E-1,-1.6204672E0,-9.1701424E-1,1.8861653E0,2.4031923E0,-1.0753994E0,1.5949649E0,-2.9501346E-1,-2.7899477E-1,1.001378E0,3.864126E0,1.2829114E0,1.7204713E0,9.53667E-1],"split_indices":[36,35,33,36,25,36,41,38,25,12,0,13,14,25,44,38,0,13,35,0,42,0,0,0,0,14,0,0,0,0,38,0,39,0,0,0,36,25,41,0,35,0,0,0,0,0,0,0,0,0,0,0,0,0,0],"split_type":[0,0,0,0,0,0,0,0,0,0,0,0,0,0,0,0,0,0,0,0,0,0,0,0,0,0,0,0,0,0,0,0,0,0,0,0,0,0,0,0,0,0,0,0,0,0,0,0,0,0,0,0,0,0,0],"sum_hessian":[1.324E3,1.236E3,8.8E1,1.155E3,8.1E1,3.2E1,5.6E1,1.012E3,1.43E2,7.4E1,7E0,1.1E1,2.1E1,4.3E1,1.3E1,8.46E2,1.66E2,6E1,8.3E1,1.9E1,5.5E1,5E0,6E0,1.6E1,5E0,2.6E1,1.7E1,8E0,5E0,6E2,2.46E2,2.6E1,1.4E2,5.3E1,7E0,6E0,7.7E1,3.6E1,1.9E1,1E1,1.6E1,3E1,2.16E2,1.5E1,1.1E1,6E0,1.34E2,4.3E1,3.4E1,1.3E1,2.3E1,1E1,9E0,5E0,1.1E1],"tree_param":{"num_deleted":"0","num_feature":"45","num_nodes":"55","size_leaf_vector":"1"}},{"base_weights":[-3.0511085E-2,-7.146669E-2,2.1604276E-1,-8.074715E-2,4.7560953E-2,3.2408756E-1,-7.84314E-2,-9.6884295E-2,-5.1212963E-2,1.7777776E-2,9.459436E-3,2.1030925E-1,5.8536583E-1,-4.8913057E-3,4.166666E-3,-9.835578E-2,4.166666E-3,1.8181816E-1,-5.8171768E-2,-5.714288E-2,1.3461536E-1,5.5294114E-1,1.3580245E-1,6.60606E-1,1.2222222E-2,-4.992164E-3,-6.562503E-2,2.0833334E-2,-4.166668E-3,9.374998E-2,-6.502893E-2,-4.886365E-3,1.2499999E-2,1.6666643E-2,1.7777776E-2,6.583333E-1,1.2499999E-2,2.9166667E-2,9.8684184E-2,7.555555E-1,9.999999E-3,4.166666E-3,-4.814816E-3,2.0833334E-2,-4.545456E-3,-4.9541295E-3,-2.4579845E-3,1.2499999E-2,-4.615386E-3,3.857143E-2,2.0833334E-2,2.9285704E-3,2.4285713E-2,4.068182E-2,2.0833334E-2],"categories":[],"categories_nodes":[],"categories_segments":[],"categories_sizes":[],"default_left":[0,0,0,0,0,0,0,0,0,0,0,0,0,0,0,0,0,0,0,0,0,0,0,0,0,0,0,0,0,0,0,0,0,0,0,0,0,0,0,0,0,0,0,0,0,0,0,0,0,0,0,0,0,0,0],"id":14,"left_children":[1,3,5,7,9,11,13,15,17,-1,19,21,23,-1,-1,25,-1,27,29,31,33,35,37,39,-1,-1,41,-1,-1,43,45,-1,-1,47,-1,49,-1,-1,51,53,-1,-1,-1,-1,-1,-1,-1,-1,-1,-1,-1,-1,-1,-1,-1],"loss_changes":[1.3253606E1,1.2465506E0,5.975086E0,4.9260616E-1,9.5891166E-1,3.9495993E0,1.6815856E-1,1.8693209E-1,6.121972E-1,0E0,6.245322E-1,2.401165E0,8.9021015E-1,0E0,0E0,2.6019573E-2,0E0,7.19697E-1,3.8216853E-1,6.352273E-1,6.7162395E-1,3.7818623E-1,1.2879709E0,1.2921209E0,0E0,0E0,1.5422453E-1,0E0,0E0,9.919508E-1,1.8210948E-1,0E0,0E0,4.8076925E-1,0E0,6.547451E-3,0E0,0E0,1.1514399E0,1.9242477E-1,0E0,0E0,0E0,0E0,0E0,0E0,0E0,0E0,0E0,0E0,0E0,0E0,0E0,0E0,0E0],"parents":[2147483647,0,0,1,1,2,2,3,3,4,4,5,5,6,6,7,7,8,8,10,10,11,11,12,12,15,15,17,17,18,18,19,19,20,20,21,21,22,22,23,23,26,26,29,29,30,30,33,33,35,35,38,38,39,39],"right_children":[2,4,6,8,10,12,14,16,18,-1,20,22,24,-1,-1,26,-1,28,30,32,34,36,38,40,-1,-1,42,-1,-1,44,46,-1,-1,48,-1,50,-1,-1,52,54,-1,-1,-1,-1,-1,-1,-1,-1,-1,-1,-1,-1,-1,-1,-1],"split_conditions":[3.24E2,9.3E-1,5E0,2.3383333E2,1E0,9.3E-1,5.3E2,1.4680681E2,2.095E2,3.089299E0,3.53E1,5.92E1,1.164016E2,-3.9115426E-1,4.636078E-2,2.3857143E2,1.968094E-1,5E0,-1.36E2,3.83E2,6.88E1,5.02E2,2.7683334E2,2.47E2,2.5435913E0,-3.0288694E0,1.66E2,1.770131E0,-4.2837024E0,2.5314285E2,2.54E2,-2.5355145E-1,3.3328246E-2,2.662E2,1.5406723E0,3.22E1,2.4475784E0,1.9716705E0,3.83E1,8.85E1,3.8607528E0,1.7105454E0,-1.3426182E0,3.5828233E0,-5.511988E-1,-1.9056753E0,-2.4354215E-1,1.7572235E0,-1.4064185E-1,6.067496E0,3.965648E0,1.630819E0,6.496283E0,4.933971E0,1.5098785E0],"split_indices":[38,25,0,40,0,25,37,41,39,0,13,14,41,0,0,38,0,0,42,36,14,35,40,3,0,0,3,0,0,39,38,0,0,40,0,13,0,0,13,14,0,0,0,0,0,0,0,0,0,0,0,0,0,0,0],"split_type":[0,0,0,0,0,0,0,0,0,0,0,0,0,0,0,0,0,0,0,0,0,0,0,0,0,0,0,0,0,0,0,0,0,0,0,0,0,0,0,0,0,0,0,0,0,0,0,0,0,0,0,0,0,0,0],"sum_hessian":[1.31E3,1.124E3,1.86E2,1.043E3,8.1E1,1.36E2,5E1,6.73E2,3.7E2,8E0,7.3E1,9.6E1,4E1,4.5E1,5E0,6.68E2,5E0,1E1,3.6E2,4.8E1,2.5E1,1.6E1,8E1,3.2E1,8E0,6.37E2,3.1E1,5E0,5E0,1.5E1,3.45E2,4.3E1,5E0,1.7E1,8E0,1.1E1,5E0,5E0,7.5E1,2.6E1,6E0,5E0,2.6E1,5E0,1E1,1.08E2,2.37E2,5E0,1.2E1,6E0,5E0,6.9E1,6E0,2.1E1,5E0],"tree_param":{"num_deleted":"0","num_feature":"45","num_nodes":"55","size_leaf_vector":"1"}},{"base_weights":[-3.8131148E-2,-7.4247815E-2,1.6818179E-1,-8.4960185E-2,1.1023599E-2,2.7482012E-1,-8.166669E-2,-9.368032E-2,-4.898992E-2,-8.264487E-3,1.7142856E-2,1.220779E-1,4.5714283E-1,-4.909092E-3,4.166666E-3,-9.487502E-2,1.874999E-3,-5.7812523E-2,9.999999E-3,-4.868422E-3,3.2142833E-2,6.29032E-2,3.4374997E-1,-4.375001E-3,5.267857E-1,-9.832063E-2,-7.876715E-2,6.6666654E-3,-6.684785E-2,9.473682E-2,-4.82143E-3,2.9230767E-1,1.9999766E-3,2.55E-2,2.857142E-3,6.275E-1,2.588235E-1,-4.992027E-3,-3.1034495E-3,1.4583323E-3,-4.959351E-3,-4.2045466E-3,-1.1320766E-3,2.7884606E-3,2.0833334E-2,1.874999E-3,2.9166667E-2,-1.5555568E-3,1.2499999E-2,3.5142858E-2,4.166666E-3,3.749999E-3,2.9166667E-2],"categories":[],"categories_nodes":[],"categories_segments":[],"categories_sizes":[],"default_left":[0,0,0,0,0,0,0,0,0,0,0,0,0,0,0,0,0,0,0,0,0,0,0,0,0,0,0,0,0,0,0,0,0,0,0,0,0,0,0,0,0,0,0,0,0,0,0,0,0,0,0,0,0],"id":15,"left_children":[1,3,5,7,9,11,13,15,17,19,-1,21,23,-1,-1,25,-1,27,-1,-1,29,31,33,-1,35,37,39,-1,41,43,-1,45,47,-1,-1,49,51,-1,-1,-1,-1,-1,-1,-1,-1,-1,-1,-1,-1,-1,-1,-1,-1],"loss_changes":[9.900408E0,1.0331454E0,5.2978415E0,3.1033087E-1,8.156885E-1,3.8151178E0,1.7168179E-1,1.3003254E-1,4.4651672E-1,4.387844E-1,0E0,9.8841524E-1,2.4357138E0,0E0,0E0,3.6655903E-2,0E0,3.4050947E-1,0E0,0E0,6.851504E-1,8.6564666E-1,7.3323226E-1,0E0,1.3488951E0,2.9893398E-2,3.246761E-1,0E0,1.3835073E-1,6.9181854E-1,0E0,9.421475E-1,4.1835558E-1,0E0,0E0,1.5817022E0,9.70343E-1,0E0,0E0,0E0,0E0,0E0,0E0,0E0,0E0,0E0,0E0,0E0,0E0,0E0,0E0,0E0,0E0],"parents":[2147483647,0,0,1,1,2,2,3,3,4,4,5,5,6,6,7,7,8,8,9,9,11,11,12,12,15,15,17,17,20,20,21,21,22,22,24,24,25,25,26,26,28,28,29,29,31,31,32,32,35,35,36,36],"right_children":[2,4,6,8,10,12,14,16,18,20,-1,22,24,-1,-1,26,-1,28,-1,-1,30,32,34,-1,36,38,40,-1,42,44,-1,46,48,-1,-1,50,52,-1,-1,-1,-1,-1,-1,-1,-1,-1,-1,-1,-1,-1,-1,-1,-1],"split_conditions":[3.2142856E2,9.2E-1,5E0,2.595E2,2.95E2,9.2E-1,4.2976666E2,1.4747026E2,5.322E1,1E0,3.403682E0,4E0,1E0,-7.2736496E-1,4.404297E-2,2.314E2,1.86969E-1,2.612857E2,4.134491E-1,-8.766572E-2,5E0,3.72E2,9.3E0,-4.685959E-1,8.48E1,2.3857143E2,2.18E2,1.0847794E0,8.8E-1,4.96E1,-1.413047E1,2E0,1E0,4.5917463E0,9.773056E-1,4.97E2,4.312E1,-2.837653E0,-9.5963556E-1,4.9308982E-1,-2.2981207E0,-9.3648434E-1,-4.8339922E-2,3.3955686E-2,1.3225678E0,1.1062012E0,2.3782074E0,-8.280651E-2,5.9307604E0,4.4992223E0,1.0437317E-1,1.4626889E-1,1.7480484E0],"split_indices":[38,25,0,39,3,25,40,41,15,12,0,0,12,0,0,40,0,39,0,0,0,35,44,0,14,38,39,0,25,15,0,24,26,0,0,37,15,0,0,0,0,0,0,0,0,0,0,0,0,0,0,0,0],"split_type":[0,0,0,0,0,0,0,0,0,0,0,0,0,0,0,0,0,0,0,0,0,0,0,0,0,0,0,0,0,0,0,0,0,0,0,0,0,0,0,0,0,0,0,0,0,0,0,0,0,0,0,0,0],"sum_hessian":[1.326E3,1.129E3,1.97E2,1.003E3,1.26E2,1.38E2,5.9E1,8.06E2,1.97E2,1.2E2,6E0,7.6E1,6.2E1,5.4E1,5E0,7.99E2,7E0,1.91E2,6E0,3.7E1,8.3E1,6.1E1,1.5E1,7E0,5.5E1,6.54E2,1.45E2,8E0,1.83E2,5.6E1,2.7E1,1.2E1,4.9E1,9E0,6E0,3.9E1,1.6E1,6.26E2,2.8E1,2.3E1,1.22E2,1.31E2,5.2E1,5.1E1,5E0,7E0,5E0,4.4E1,5E0,3.4E1,5E0,1.1E1,5E0],"tree_param":{"num_deleted":"0","num_feature":"45","num_nodes":"53","size_leaf_vector":"1"}},{"base_weights":[-3.8901627E-2,-6.762655E-2,1.5963852E-1,-7.90467E-2,1.4999976E-2,2.4508195E-1,-7.555558E-2,-9.521607E-2,-4.9722247E-2,1.7297295E-1,-4.1346177E-2,5.4237265E-2,4.1718748E-1,-4.8750015E-3,4.166666E-3,-9.6734084E-2,4.166666E-3,-2.9844984E-2,-4.9514575E-3,3.333333E-1,-3.529414E-2,1.2142855E-1,-6.593409E-2,-4.4736866E-2,2.2272725E-1,1.2777776E-1,5.191489E-1,-5.0000023E-2,-4.911577E-3,7.317071E-2,-4.9082592E-2,1.874999E-3,4.7857141E-1,4.166666E-3,-4.5833346E-3,-4.375001E-3,1.7142856E-2,-4.9206363E-3,6.896529E-3,-4.8387107E-3,8.124999E-3,2.55E-2,-1.5384638E-2,-4.500001E-3,1.7777776E-2,6.0249996E-1,1.874999E-3,-4.7058836E-3,4.166666E-3,-1.2500011E-3,1.3214285E-2,-3.1701045E-3,3.199999E-3,3.3125E-2,9.999999E-3,2.0833334E-2,-4.7916677E-3,4.166666E-3,-4.375001E-3,1.2222222E-2,3.421875E-2],"categories":[],"categories_nodes":[],"categories_segments":[],"categories_sizes":[],"default_left":[0,0,0,0,0,0,0,0,0,0,0,0,0,0,0,0,0,0,0,0,0,0,0,0,0,0,0,0,0,0,0,0,0,0,0,0,0,0,0,0,0,0,0,0,0,0,0,0,0,0,0,0,0,0,0,0,0,0,0,0,0],"id":16,"left_children":[1,3,5,7,9,11,13,15,17,19,21,23,25,-1,-1,27,-1,29,-1,31,33,35,37,39,41,43,45,47,-1,49,51,-1,53,-1,-1,-1,-1,-1,55,-1,-1,-1,57,-1,-1,59,-1,-1,-1,-1,-1,-1,-1,-1,-1,-1,-1,-1,-1,-1,-1],"loss_changes":[7.4874964E0,1.0825591E0,3.3544178E0,4.7274256E-1,1.2533154E0,3.9845142E0,1.650278E-1,1.8369484E-1,3.498754E-1,1.2474829E0,4.2424452E-1,9.938569E-1,1.822217E0,0E0,0E0,4.0086746E-2,0E0,5.148895E-1,0E0,8.843453E-1,1.21323526E-1,6.776786E-1,2.1593365E-1,4.2551994E-1,1.5127134E0,9.2488897E-1,1.8642654E0,1.372549E-1,0E0,7.75845E-1,3.5706192E-1,0E0,5.8482146E-1,0E0,0E0,0E0,0E0,0E0,1.2607042E0,0E0,0E0,0E0,9.983974E-2,0E0,0E0,1.0053406E0,0E0,0E0,0E0,0E0,0E0,0E0,0E0,0E0,0E0,0E0,0E0,0E0,0E0,0E0,0E0],"parents":[2147483647,0,0,1,1,2,2,3,3,4,4,5,5,6,6,7,7,8,8,9,9,10,10,11,11,12,12,15,15,17,17,19,19,20,20,21,21,22,22,23,23,24,24,25,25,26,26,27,27,29,29,30,30,32,32,38,38,42,42,45,45],"right_children":[2,4,6,8,10,12,14,16,18,20,22,24,26,-1,-1,28,-1,30,-1,32,34,36,38,40,42,44,46,48,-1,50,52,-1,54,-1,-1,-1,-1,-1,56,-1,-1,-1,58,-1,-1,60,-1,-1,-1,-1,-1,-1,-1,-1,-1,-1,-1,-1,-1,-1,-1],"split_conditions":[3.422857E2,9.2E-1,5E0,2.314E2,-2.3E1,9E-1,4.762E1,1.4179193E2,5E0,2.5885715E2,5.3E1,9.2E-1,2E0,-3.296742E-1,4.1841127E-2,4.94E1,1.7761993E-1,2.39E2,-4.8853464E0,9E-1,5E0,3.53E2,2.3E1,1.2008251E2,2.89E2,2E0,4.3266666E2,1E2,-2.4559717E0,8.05E1,2.77E2,1.6799256E0,8E0,3.2830812E-2,-3.4007892E-2,-3.6198425E-1,1.2564392E0,-5.2055764E-1,4.3E1,-2.9344428E-1,9.2844087E-1,2.5373304E0,3E0,-2.700503E-2,2.3600235E0,2.99E2,1.0137345E0,-2.8227262E0,5.0646972E-2,1.3840258E-2,1.6969928E0,-5.203415E-1,2.65248E-1,1.6676636E0,3.2334976E0,1.8113724E0,-1.9844677E-1,1.6606461E0,-2.6448518E-1,1.2360016E0,4.462311E0],"split_indices":[39,25,0,40,42,33,15,41,0,39,37,25,24,0,0,14,0,35,0,33,1,35,42,41,37,0,40,3,0,14,3,0,1,0,0,0,0,0,42,0,0,0,0,0,0,37,0,0,0,0,0,0,0,0,0,0,0,0,0,0,0],"split_type":[0,0,0,0,0,0,0,0,0,0,0,0,0,0,0,0,0,0,0,0,0,0,0,0,0,0,0,0,0,0,0,0,0,0,0,0,0,0,0,0,0,0,0,0,0,0,0,0,0,0,0,0,0,0,0,0,0,0,0,0,0],"sum_hessian":[1.31E3,1.145E3,1.65E2,1.006E3,1.39E2,1.21E2,4.4E1,6.47E2,3.59E2,3.6E1,1.03E2,5.8E1,6.3E1,3.9E1,5E0,6.42E2,5E0,2.57E2,1.02E2,2E1,1.6E1,1.3E1,9E1,3.7E1,2.1E1,1.7E1,4.6E1,2.1E1,6.21E2,4E1,2.17E2,7E0,1.3E1,5E0,1.1E1,7E0,6E0,6.2E1,2.8E1,3E1,7E0,9E0,1.2E1,9E0,8E0,3.9E1,7E0,1.6E1,5E0,2.7E1,1.3E1,1.93E2,2.4E1,7E0,6E0,5E0,2.3E1,5E0,7E0,8E0,3.1E1],"tree_param":{"num_deleted":"0","num_feature":"45","num_nodes":"61","size_leaf_vector":"1"}},{"base_weights":[-4.1996974E-2,-7.772851E-2,1.7473117E-1,-8.743512E-2,-2.0606084E-2,2.766917E-1,-7.962965E-2,-9.6563034E-2,-7.1388125E-2,-5.0000023E-2,1.5416664E-1,1.4021736E-1,5.690476E-1,-4.8958347E-3,2.857142E-3,-9.815439E-2,-3.1250022E-2,-9.508931E-2,-3.0000024E-2,9.090907E-2,-6.136366E-2,-2.666669E-2,2.0499999E-2,-2.7907E-2,2.8199998E-1,6.5277773E-1,2.857142E-3,-3.8888913E-2,-4.9913656E-3,4.166666E-3,-4.545456E-3,1.874999E-3,-4.9769594E-3,-5.641028E-2,1.9285712E-1,-4.166668E-3,1.2499999E-2,-8.000002E-2,1.0714263E-2,4.166666E-3,-4.500001E-3,1.2222222E-2,-4.8571443E-3,1.4545453E-1,5.1666665E-1,3.6923075E-1,7.7916664E-1,4.166666E-3,-4.615386E-3,5.7894727E-3,-4.444446E-3,-4.375001E-3,2.4285713E-2,4.999989E-4,-4.4270842E-3,1.2499999E-2,-2.6086967E-3,1.7187499E-2,-1.9444457E-3,9.999999E-3,3.2916665E-2,2.9166667E-2,8.124999E-3,4.25E-2,2.4285713E-2],"categories":[],"categories_nodes":[],"categories_segments":[],"categories_sizes":[],"default_left":[0,0,0,0,0,0,0,0,0,0,0,0,0,0,0,0,0,0,0,0,0,0,0,0,0,0,0,0,0,0,0,0,0,0,0,0,0,0,0,0,0,0,0,0,0,0,0,0,0,0,0,0,0,0,0,0,0,0,0,0,0,0,0,0,0],"id":17,"left_children":[1,3,5,7,9,11,13,15,17,19,21,23,25,-1,-1,27,29,31,33,35,37,39,-1,41,43,45,-1,47,-1,-1,-1,-1,-1,49,51,-1,-1,53,55,-1,-1,-1,-1,57,59,61,63,-1,-1,-1,-1,-1,-1,-1,-1,-1,-1,-1,-1,-1,-1,-1,-1,-1,-1],"loss_changes":[1.0173747E1,6.230812E-1,4.845899E0,1.3416195E-1,8.5535604E-1,5.2267866E0,1.4065805E-1,6.043768E-2,3.4342158E-1,2.3295459E-1,1.1212499E0,2.2008843E0,1.7628956E0,0E0,0E0,5.520916E-2,1.1695076E-1,1.358943E-1,7.76022E-1,3.2575762E-1,1.7816883E-1,1.12E-1,0E0,8.345751E-1,1.5269816E0,1.0024481E0,0E0,1.2521368E-1,0E0,0E0,0E0,0E0,0E0,6.646514E-1,1.1919643E0,0E0,0E0,8.160412E-2,4.3439445E-1,0E0,0E0,0E0,0E0,1.2196654E0,6.758332E-1,4.8060882E-1,8.601189E-2,0E0,0E0,0E0,0E0,0E0,0E0,0E0,0E0,0E0,0E0,0E0,0E0,0E0,0E0,0E0,0E0,0E0,0E0],"parents":[2147483647,0,0,1,1,2,2,3,3,4,4,5,5,6,6,7,7,8,8,9,9,10,10,11,11,12,12,15,15,16,16,17,17,18,18,19,19,20,20,21,21,23,23,24,24,25,25,27,27,33,33,34,34,37,37,38,38,43,43,44,44,45,45,46,46],"right_children":[2,4,6,8,10,12,14,16,18,20,22,24,26,-1,-1,28,30,32,34,36,38,40,-1,42,44,46,-1,48,-1,-1,-1,-1,-1,50,52,-1,-1,54,56,-1,-1,-1,-1,58,60,62,64,-1,-1,-1,-1,-1,-1,-1,-1,-1,-1,-1,-1,-1,-1,-1,-1,-1,-1],"split_conditions":[3.2142856E2,3.21E2,5E0,2.1913333E2,4.966E1,9.3E-1,1E1,2.3857143E2,4.379E1,5.22E1,6.96E1,9E-1,1.311633E2,-4.4520947E-1,1.1254883E-2,4.94E1,1.7E2,2.223E2,1E0,4.87E1,3.7E1,1.6E1,1.3774534E0,3.617143E2,7.27E1,9E-1,2.7566833E0,2E0,-2.6758692E0,1.7957977E0,-2.1190464E0,1.2099457E-1,-1.0857375E0,4.47E1,9E0,-1.6404938E0,7.837357E-1,6.014902E1,5.3E1,6.1276245E-1,-3.4204137E-2,1.7801942E0,-2.5642014E-1,1.2E1,8.2E-1,9.2922905E1,4.2392856E2,4.8114013E-2,-2.81484E0,5.3719765E-1,-1.6144457E0,-1.5863084E0,2.0564454E0,7.399181E-1,-2.589583E-1,5.9788514E-2,-1.7003761E-1,4.343348E0,1.0859345E0,1.380896E0,3.958946E0,1.5776138E0,1.3002045E0,3.7347653E0,3.7377274E0],"split_indices":[38,35,0,40,15,25,1,38,15,14,14,33,41,0,0,14,3,40,26,14,2,2,0,39,14,33,0,0,0,0,0,0,0,15,29,0,0,41,37,0,0,0,0,2,25,41,39,0,0,0,0,0,0,0,0,0,0,0,0,0,0,0,0,0,0],"split_type":[0,0,0,0,0,0,0,0,0,0,0,0,0,0,0,0,0,0,0,0,0,0,0,0,0,0,0,0,0,0,0,0,0,0,0,0,0,0,0,0,0,0,0,0,0,0,0,0,0,0,0,0,0,0,0,0,0,0,0,0,0,0,0,0,0],"sum_hessian":[1.311E3,1.126E3,1.85E2,9.62E2,1.64E2,1.32E2,5.3E1,6.1E2,3.52E2,1.41E2,2.3E1,9.1E1,4.1E1,4.7E1,6E0,5.95E2,1.5E1,2.23E2,1.29E2,1E1,1.31E2,1.4E1,9E0,4.2E1,4.9E1,3.5E1,6E0,1.7E1,5.78E2,5E0,1E1,7E0,2.16E2,1.16E2,1.3E1,5E0,5E0,1.04E2,2.7E1,5E0,9E0,8E0,3.4E1,3.2E1,1.7E1,1.2E1,2.3E1,5E0,1.2E1,1.8E1,9.8E1,7E0,6E0,9E0,9.5E1,5E0,2.2E1,1.5E1,1.7E1,6E0,1.1E1,5E0,7E0,1.7E1,6E0],"tree_param":{"num_deleted":"0","num_feature":"45","num_nodes":"65","size_leaf_vector":"1"}},{"base_weights":[-4.6741597E-2,-7.2393686E-2,1.7810217E-1,-8.7408975E-2,-1.1715505E-2,-3.404258E-2,2.8571427E-1,-8.9401916E-2,6.6666654E-3,-8.952383E-2,4.8888866E-2,-4.864866E-3,1.8181816E-1,-4.7058836E-3,3.6799997E-1,-9.4007075E-2,-5.0485462E-2,-4.946238E-3,-1.5384638E-2,-6.1111134E-2,1.2073168E-1,-4.166668E-3,2.0833334E-2,6.421052E-1,2.7017543E-1,-9.687037E-2,-8.287295E-2,-8.720933E-2,1.2777776E-1,4.166666E-3,-4.375001E-3,-4.893618E-3,8.124999E-3,2.5588232E-1,2.4489773E-2,1.7777776E-2,4.0909093E-2,1.5999998E-1,4.2608693E-1,-4.9913507E-3,-3.88298E-3,1.1764695E-3,-4.666668E-3,-4.9382728E-3,4.166666E-3,2.4285713E-2,-4.5833346E-3,8.2608685E-3,2.0416666E-2,1.5499999E-2,-2.375001E-3,-1.0714297E-3,1.340909E-2,1.4722221E-2,3.75E-2],"categories":[],"categories_nodes":[],"categories_segments":[],"categories_sizes":[],"default_left":[0,0,0,0,0,0,0,0,0,0,0,0,0,0,0,0,0,0,0,0,0,0,0,0,0,0,0,0,0,0,0,0,0,0,0,0,0,0,0,0,0,0,0,0,0,0,0,0,0,0,0,0,0,0,0],"id":18,"left_children":[1,3,5,7,9,11,13,15,-1,17,19,-1,21,-1,23,25,27,-1,29,31,33,-1,-1,35,37,39,41,43,45,-1,-1,-1,-1,47,49,-1,-1,51,53,-1,-1,-1,-1,-1,-1,-1,-1,-1,-1,-1,-1,-1,-1,-1,-1],"loss_changes":[7.71279E0,1.0913854E0,3.1373458E0,4.3468904E-1,1.1313871E0,6.5943855E-1,2.8788161E0,1.6604757E-1,0E0,7.166058E-2,1.0742439E0,0E0,7.19697E-1,0E0,1.8375864E0,1.910162E-2,6.8543446E-1,0E0,9.983974E-2,4.5979607E-1,1.0603203E0,0E0,0E0,6.677294E-1,9.1095114E-1,3.0359745E-2,2.0365119E-1,1.7772031E-1,1.4583731E0,0E0,0E0,0E0,0E0,4.0248322E-1,1.0218623E0,0E0,0E0,6.927013E-1,7.5990295E-1,0E0,0E0,0E0,0E0,0E0,0E0,0E0,0E0,0E0,0E0,0E0,0E0,0E0,0E0,0E0,0E0],"parents":[2147483647,0,0,1,1,2,2,3,3,4,4,5,5,6,6,7,7,9,9,10,10,12,12,14,14,15,15,16,16,18,18,19,19,20,20,23,23,24,24,25,25,26,26,27,27,28,28,33,33,34,34,37,37,38,38],"right_children":[2,4,6,8,10,12,14,16,-1,18,20,-1,22,-1,24,26,28,-1,30,32,34,-1,-1,36,38,40,42,44,46,-1,-1,-1,-1,48,50,-1,-1,52,54,-1,-1,-1,-1,-1,-1,-1,-1,-1,-1,-1,-1,-1,-1,-1,-1],"split_conditions":[3.8E2,3.07E2,2E0,3.68E2,1E0,3.86E2,1E0,2.77E2,1.691185E0,4.23E2,8.9E1,-2.7481458E-1,1E0,-1.5299908E0,8.6529106E1,2.8E1,2.59E2,-7.3134935E-1,8E0,1.4E1,1.1969962E2,-3.40831E-1,7.0525664E-1,3.2E1,3.27E1,1E0,3.3E1,3.4E2,2.82E2,3.4739684E-2,-2.6592805E0,-1.3949542E-1,7.445496E-1,3.75E2,1.07E2,5.318619E0,4.126291E0,1.0197128E2,1.1E2,-2.19758E0,-2.049078E0,1.5856478E0,-1.7882706E0,-1.9529984E0,9.811539E-1,3.2001495E-1,-1.460539E-1,9.108605E-1,4.897001E0,1.5574203E0,-7.040568E-2,5.910507E-1,2.1042027E0,3.7311838E0,5.35681E0],"split_indices":[35,36,24,35,33,37,12,3,0,37,3,0,16,0,41,42,36,0,1,42,41,0,0,42,13,26,42,37,3,0,0,0,0,36,3,0,0,41,3,0,0,0,0,0,0,0,0,0,0,0,0,0,0,0,0],"split_type":[0,0,0,0,0,0,0,0,0,0,0,0,0,0,0,0,0,0,0,0,0,0,0,0,0,0,0,0,0,0,0,0,0,0,0,0,0,0,0,0,0,0,0,0,0,0,0,0,0,0,0,0,0,0,0],"sum_hessian":[1.334E3,1.198E3,1.36E2,9.6E2,2.38E2,4.6E1,9E1,9.52E2,8E0,1.04E2,1.34E2,3.6E1,1E1,1.6E1,7.4E1,8.5E2,1.02E2,9.2E1,1.2E1,5.3E1,8.1E1,5E0,5E0,1.8E1,5.6E1,6.7E2,1.8E2,8.5E1,1.7E1,5E0,7E0,4.6E1,7E0,3.3E1,4.8E1,8E0,1E1,3.4E1,2.2E1,5.77E2,9.3E1,1.6E1,1.64E2,8E1,5E0,6E0,1.1E1,2.2E1,1.1E1,9E0,3.9E1,1.3E1,2.1E1,1.7E1,5E0],"tree_param":{"num_deleted":"0","num_feature":"45","num_nodes":"55","size_leaf_vector":"1"}},{"base_weights":[-4.5911502E-2,-7.688222E-2,1.2487803E-1,-8.47475E-2,-2.0714309E-2,2.041379E-1,-6.55738E-2,-4.98889E-3,-7.208875E-2,-5.9523832E-2,3.0666664E-1,4.9545452E-1,1.5080643E-1,-4.900001E-3,7.499998E-2,-9.009587E-2,-4.7161594E-2,-7.25664E-2,4.999998E-2,3.142857E-2,1.1111101E-3,6.2142855E-1,1.2222222E-2,8.510615E-3,2.3461536E-1,1.2499999E-2,-4.285715E-3,-2.6190499E-2,-4.981619E-3,7.586204E-2,-6.467664E-2,4.166666E-3,-8.055558E-2,1.2499999E-2,-4.444446E-3,2.0624999E-2,3.857143E-2,1.2222222E-2,-4.615387E-2,7.428569E-2,3.5681817E-1,-4.8275874E-3,6.0714274E-3,1.2083332E-2,-1.9444457E-3,-1.5196091E-3,-4.9500014E-3,-2.000001E-3,-4.932434E-3,-4.8529427E-3,1.2499999E-2,2.0833334E-2,1.6666552E-4,8.148148E-3,3.138889E-2],"categories":[],"categories_nodes":[],"categories_segments":[],"categories_sizes":[],"default_left":[0,0,0,0,0,0,0,0,0,0,0,0,0,0,0,0,0,0,0,0,0,0,0,0,0,0,0,0,0,0,0,0,0,0,0,0,0,0,0,0,0,0,0,0,0,0,0,0,0,0,0,0,0,0,0],"id":19,"left_children":[1,3,5,7,9,11,13,-1,15,17,19,21,23,-1,25,27,29,31,33,-1,-1,35,-1,37,39,-1,-1,41,-1,43,45,-1,47,-1,-1,-1,-1,-1,49,51,53,-1,-1,-1,-1,-1,-1,-1,-1,-1,-1,-1,-1,-1,-1],"loss_changes":[7.06047E0,4.9700975E-1,3.1079E0,1.8116951E-1,1.7970237E0,2.178052E0,2.854049E-1,0E0,2.3858762E-1,1.8361565E-1,1.3594922E0,5.437522E-1,1.476785E0,0E0,3.589286E-1,1.8814325E-1,4.9834758E-1,1.4745575E-1,4.1111115E-1,0E0,0E0,1.2053537E-1,0E0,6.174504E-1,1.5017276E0,0E0,0E0,4.479639E-1,0E0,5.611591E-1,2.3351961E-1,0E0,7.530177E-2,0E0,0E0,0E0,0E0,0E0,6.1221725E-1,8.4885716E-1,2.20888E0,0E0,0E0,0E0,0E0,0E0,0E0,0E0,0E0,0E0,0E0,0E0,0E0,0E0,0E0],"parents":[2147483647,0,0,1,1,2,2,3,3,4,4,5,5,6,6,8,8,9,9,10,10,11,11,12,12,14,14,15,15,16,16,17,17,18,18,21,21,23,23,24,24,27,27,29,29,30,30,32,32,38,38,39,39,40,40],"right_children":[2,4,6,8,10,12,14,-1,16,18,20,22,24,-1,26,28,30,32,34,-1,-1,36,-1,38,40,-1,-1,42,-1,44,46,-1,48,-1,-1,-1,-1,-1,50,52,54,-1,-1,-1,-1,-1,-1,-1,-1,-1,-1,-1,-1,-1,-1],"split_conditions":[3.1257144E2,2.727143E2,5E0,1E0,5.003E1,5.1E0,5.08E2,-3.2169678E0,2E0,2.77E2,1.08E1,9E0,2E0,-8.1701213E-1,1.6E1,5.5617313E1,1E0,4.4136154E1,2.83E2,1.3121017E0,3.0437928E-1,5.2E1,1.1746628E0,3.402E1,9E-1,5.0006103E-2,-3.555069E-1,8.05E1,-1.5501846E0,-3.4E1,4E0,6.833847E-1,6.014902E1,3.4845278E-1,-4.7775117E-1,9.320969E-1,3.3445268E0,1.7992249E0,1E0,3.217857E2,6.88E1,-3.042732E0,8.312139E-1,2.2819479E0,-2.777487E-1,-6.822695E-2,-2.1908054E0,-5.6898063E-1,-9.2478096E-1,-2.5327736E-1,6.699936E-1,1.6066254E0,5.041682E-1,1.954413E0,5.0896964E0],"split_indices":[38,39,0,28,15,44,37,0,24,3,44,29,24,0,2,41,0,41,3,0,0,42,0,15,33,0,0,14,0,42,0,0,41,0,0,0,0,0,26,39,14,0,0,0,0,0,0,0,0,0,0,0,0,0,0],"split_type":[0,0,0,0,0,0,0,0,0,0,0,0,0,0,0,0,0,0,0,0,0,0,0,0,0,0,0,0,0,0,0,0,0,0,0,0,0,0,0,0,0,0,0,0,0,0,0,0,0,0,0,0,0,0,0],"sum_hessian":[1.332E3,1.128E3,2.04E2,9.89E2,1.39E2,1.44E2,6E1,4.49E2,5.4E2,1.25E2,1.4E1,2.1E1,1.23E2,4.9E1,1.1E1,3.12E2,2.28E2,1.12E2,1.3E1,6E0,8E0,1.3E1,8E0,4.6E1,7.7E1,5E0,6E0,4.1E1,2.71E2,2.8E1,2E2,5E0,1.07E2,5E0,8E0,7E0,6E0,8E0,3.8E1,3.4E1,4.3E1,2.8E1,1.3E1,1.1E1,1.7E1,1.01E2,9.9E1,3.4E1,7.3E1,3.3E1,5E0,5E0,2.9E1,2.6E1,1.7E1],"tree_param":{"num_deleted":"0","num_feature":"45","num_nodes":"55","size_leaf_vector":"1"}},{"base_weights":[-3.9747424E-2,-7.151465E-2,1.5999998E-1,-9.1408476E-2,-4.0176623E-2,3.8461303E-3,2.7129626E-1,-9.276598E-2,4.166666E-3,1.5499997E-1,-4.9078364E-2,2.0833334E-2,-3.013701E-2,1.5810809E-1,5.0285715E-1,-9.41345E-2,2.857142E-3,2.0624999E-2,-1.5384638E-2,6.4864844E-2,-5.9547763E-2,-6.666669E-2,1.8181816E-1,5.8823507E-2,3.6249998E-1,5.931034E-1,2.857142E-3,-9.5481075E-2,-2.1428594E-2,-4.375001E-3,4.166666E-3,-4.7368435E-3,2.210526E-1,-7.307695E-2,1.639342E-2,-4.8979605E-3,3.9999977E-2,4.166666E-3,1.2499999E-2,-4.7727283E-3,1.6999997E-1,4.999989E-4,5.733333E-1,6.869565E-1,9.999999E-3,-2.2500013E-3,-4.84258E-3,4.166666E-3,-4.444446E-3,2.3333332E-2,-1.0837209E-9,-4.970239E-3,-2.3391824E-3,1.0769229E-2,-1.836736E-3,-4.444446E-3,9.999999E-3,-4.500001E-3,1.4285713E-2,1.2499999E-2,3.55E-2,3.90625E-2,2.0624999E-2],"categories":[],"categories_nodes":[],"categories_segments":[],"categories_sizes":[],"default_left":[0,0,0,0,0,0,0,0,0,0,0,0,0,0,0,0,0,0,0,0,0,0,0,0,0,0,0,0,0,0,0,0,0,0,0,0,0,0,0,0,0,0,0,0,0,0,0,0,0,0,0,0,0,0,0,0,0,0,0,0,0,0,0],"id":20,"left_children":[1,3,5,7,9,11,13,15,-1,17,19,-1,21,23,25,27,-1,-1,29,31,33,35,37,39,41,43,-1,45,47,-1,-1,-1,49,51,53,-1,55,-1,-1,-1,57,-1,59,61,-1,-1,-1,-1,-1,-1,-1,-1,-1,-1,-1,-1,-1,-1,-1,-1,-1,-1,-1],"loss_changes":[8.55238E0,7.20757E-1,3.2141356E0,1.7615128E-1,7.946545E-1,1.1068143E0,2.7511692E0,1.500125E-1,0E0,8.8382685E-1,5.2158844E-1,0E0,5.77335E-1,1.4803557E0,1.373949E0,6.638861E-2,0E0,0E0,9.983974E-2,9.4327176E-1,4.1011202E-1,2.1420404E-1,5.3030342E-2,8.909839E-1,1.7779164E0,9.325342E-1,0E0,4.3103218E-2,1.063492E-1,0E0,0E0,0E0,1.0315788E0,2.2932851E-1,6.528059E-1,0E0,3.2711112E-1,0E0,0E0,0E0,9.2828584E-1,0E0,4.8533344E-1,2.7296162E-1,0E0,0E0,0E0,0E0,0E0,0E0,0E0,0E0,0E0,0E0,0E0,0E0,0E0,0E0,0E0,0E0,0E0,0E0,0E0],"parents":[2147483647,0,0,1,1,2,2,3,3,4,4,5,5,6,6,7,7,9,9,10,10,12,12,13,13,14,14,15,15,18,18,19,19,20,20,21,21,22,22,23,23,24,24,25,25,27,27,28,28,32,32,33,33,34,34,36,36,40,40,42,42,43,43],"right_children":[2,4,6,8,10,12,14,16,-1,18,20,-1,22,24,26,28,-1,-1,30,32,34,36,38,40,42,44,-1,46,48,-1,-1,-1,50,52,54,-1,56,-1,-1,-1,58,-1,60,62,-1,-1,-1,-1,-1,-1,-1,-1,-1,-1,-1,-1,-1,-1,-1,-1,-1,-1,-1],"split_conditions":[3.2142856E2,2.314E2,9E-1,1.4465936E2,2.095E2,2.718E2,9.3E-1,3.6E2,3.0041963E-1,2.398E2,-7.4E1,1.526294E0,8.1E1,1.0276464E2,2E0,3.02E2,4.3670656E-3,6.048233E-1,7E0,9E-1,1E0,4.46E2,9E0,3.78E2,8.3E-1,1.164016E2,1.5419754E0,4.94E1,3.04E2,-4.8923416E0,1.9602967E-2,-1.0039476E0,2.03E1,2.662857E2,2.3585715E2,-5.35846E-1,2.23E2,6.3649446E-1,1.1251938E0,-3.300079E-1,5.81E1,8.8549167E-1,2.62E2,4.96E2,2.3044038E0,-2.384906E0,-2.0101929E0,7.495423E-2,-3.043602E0,3.1330414E0,8.165273E-1,-8.4614736E-1,-2.4801658E-1,1.2519013E0,-8.4573895E-2,-2.9320222E-1,2.1910355E0,-5.3547688E-2,4.723979E0,1.5382065E0,5.384815E0,3.087076E0,3.818129E0],"split_indices":[38,40,33,41,39,40,25,36,0,40,42,0,42,41,43,3,0,0,1,33,7,35,1,35,25,41,0,14,3,0,0,0,44,38,39,0,3,0,0,0,14,0,35,36,0,0,0,0,0,0,0,0,0,0,0,0,0,0,0,0,0,0,0],"split_type":[0,0,0,0,0,0,0,0,0,0,0,0,0,0,0,0,0,0,0,0,0,0,0,0,0,0,0,0,0,0,0,0,0,0,0,0,0,0,0,0,0,0,0,0,0,0,0,0,0,0,0,0,0,0,0,0,0,0,0,0,0,0,0],"sum_hessian":[1.345E3,1.161E3,1.84E2,7.09E2,4.52E2,7.7E1,1.07E2,7.04E2,5E0,1.9E1,4.33E2,5E0,7.2E1,7.3E1,3.4E1,6.98E2,6E0,7E0,1.2E1,3.6E1,3.97E2,6.2E1,1E1,5E1,2.3E1,2.8E1,6E0,6.85E2,1.3E1,7E0,5E0,1.8E1,1.8E1,3.37E2,6E1,4.8E1,1.4E1,5E0,5E0,2.1E1,2.9E1,9E0,1.4E1,2.2E1,6E0,1.9E1,6.66E2,5E0,8E0,8E0,1E1,1.67E2,1.7E2,1.2E1,4.8E1,8E0,6E0,9E0,2E1,5E0,9E0,1.5E1,7E0],"tree_param":{"num_deleted":"0","num_feature":"45","num_nodes":"63","size_leaf_vector":"1"}},{"base_weights":[-4.4285737E-2,-6.201615E-2,1.9780217E-1,-8.155342E-2,-4.140151E-3,5.2916664E-1,7.794115E-2,-9.482473E-2,-5.714288E-2,-8.3846174E-2,5.1891867E-2,2.7272725E-1,6.9285715E-1,8.928548E-3,3.6923075E-1,-9.8106734E-2,1.0526293E-2,1.6842103E-1,-7.0739575E-2,9.999999E-3,-4.9596787E-3,-4.95868E-2,2.3999998E-1,2.0833334E-2,4.166666E-3,2.0833334E-2,4E-2,-3.541669E-2,1.2222222E-2,2.857142E-3,3.142857E-2,-4.9909432E-3,-6.3333355E-2,1.2499999E-2,-4.6428586E-3,3.6363634E-1,-4.444446E-3,9.999999E-3,-7.672133E-2,3.4782585E-2,-6.8686895E-2,1.4716978E-1,5.9999996E-1,8.124999E-3,-7.317075E-2,4.166666E-3,-4.800001E-3,4.166666E-3,2.9166667E-2,-4.746545E-3,-1.5730349E-3,-1.9444457E-3,1.2499999E-2,-4.3604667E-3,2.499999E-3,1.8918908E-3,1.8823529E-2,3.9375E-2,1.2499999E-2,4.166666E-3,-4.861112E-3],"categories":[],"categories_nodes":[],"categories_segments":[],"categories_sizes":[],"default_left":[0,0,0,0,0,0,0,0,0,0,0,0,0,0,0,0,0,0,0,0,0,0,0,0,0,0,0,0,0,0,0,0,0,0,0,0,0,0,0,0,0,0,0,0,0,0,0,0,0,0,0,0,0,0,0,0,0,0,0,0,0],"id":21,"left_children":[1,3,5,7,9,11,13,15,17,19,21,23,25,27,29,31,33,35,37,-1,-1,39,41,-1,-1,-1,-1,43,-1,-1,-1,-1,45,-1,-1,47,-1,-1,49,51,53,55,57,-1,59,-1,-1,-1,-1,-1,-1,-1,-1,-1,-1,-1,-1,-1,-1,-1,-1],"loss_changes":[5.7210517E0,1.4017787E0,3.5730658E0,2.948923E-1,1.4067031E0,8.1847906E-1,1.3636838E0,2.0814419E-1,1.0209317E0,5.861576E-1,3.5433583E0,2.651515E-1,8.095217E-2,5.9352183E-1,1.0162638E0,2.8268814E-2,4.9360904E-1,9.8670924E-1,5.190085E-1,0E0,0E0,1.9737613E-1,2.0839245E0,0E0,0E0,0E0,0E0,3.7055388E-1,0E0,0E0,0E0,0E0,1.5173332E-1,0E0,0E0,6.28788E-1,0E0,0E0,2.4838698E-1,3.7439618E-1,2.2199908E-1,1.31446E0,6.5625E-1,0E0,1.6243227E-1,0E0,0E0,0E0,0E0,0E0,0E0,0E0,0E0,0E0,0E0,0E0,0E0,0E0,0E0,0E0,0E0],"parents":[2147483647,0,0,1,1,2,2,3,3,4,4,5,5,6,6,7,7,8,8,9,9,10,10,11,11,12,12,13,13,14,14,15,15,16,16,17,17,18,18,21,21,22,22,27,27,32,32,35,35,38,38,39,39,40,40,41,41,42,42,44,44],"right_children":[2,4,6,8,10,12,14,16,18,20,22,24,26,28,30,32,34,36,38,-1,-1,40,42,-1,-1,-1,-1,44,-1,-1,-1,-1,46,-1,-1,48,-1,-1,50,52,54,56,58,-1,60,-1,-1,-1,-1,-1,-1,-1,-1,-1,-1,-1,-1,-1,-1,-1,-1],"split_conditions":[4.19E2,2.97E2,5.1E0,2.18E2,1E0,3.13E1,4.2316666E2,2.3314285E2,2.095E2,3E2,6.96E1,9E0,1.5E1,4.808E1,1.53E1,2.77E2,7.97E1,5E0,5.3E1,1.0485153E0,-4.8318836E-1,2.574E2,3.1785715E2,3.0229478E0,8.797318E-1,2.822638E0,2.4054291E0,5.96E1,5.115575E0,8.486939E-3,4.71877E0,-2.3183067E0,4.2E0,1.7306458E0,-1.055642E0,2.4E1,-3.6064422E0,2.8539887E-1,2.8542856E2,2.702857E2,3.86E2,2.28E1,3.7873334E2,2.8725724E0,2.78E1,1.16220094E-1,-1.5703782E0,5.745819E-1,1.6157547E0,-1.791733E0,-2.1839212E-1,1.3946429E-1,1.1146377E0,-1.3454227E-1,4.4867826E-1,2.4534392E-1,1.287679E0,4.761023E0,1.4110978E0,9.994324E-1,-5.052008E-1],"split_indices":[35,36,44,40,33,13,40,38,39,36,14,2,2,15,44,36,14,0,37,0,0,40,38,0,0,0,0,14,0,0,0,0,44,0,0,2,0,0,38,38,35,44,40,0,13,0,0,0,0,0,0,0,0,0,0,0,0,0,0,0,0],"split_type":[0,0,0,0,0,0,0,0,0,0,0,0,0,0,0,0,0,0,0,0,0,0,0,0,0,0,0,0,0,0,0,0,0,0,0,0,0,0,0,0,0,0,0,0,0,0,0,0,0,0,0,0,0,0,0,0,0,0,0,0,0],"sum_hessian":[1.329E3,1.239E3,9E1,9.26E2,3.13E2,2.3E1,6.7E1,5.98E2,3.28E2,1.29E2,1.84E2,1E1,1.3E1,5.5E1,1.2E1,5.8E2,1.8E1,1.8E1,3.1E2,6E0,1.23E2,1.2E2,6.4E1,5E0,5E0,5E0,8E0,4.7E1,8E0,6E0,6E0,5.51E2,2.9E1,5E0,1.3E1,1E1,8E0,6E0,3.04E2,2.2E1,9.8E1,5.2E1,1.2E1,7E0,4E1,5E0,2.4E1,5E0,5E0,2.16E2,8.8E1,1.7E1,5E0,8.5E1,1.3E1,3.6E1,1.6E1,7E0,5E0,5E0,3.5E1],"tree_param":{"num_deleted":"0","num_feature":"45","num_nodes":"61","size_leaf_vector":"1"}},{"base_weights":[-4.817354E-2,-7.392476E-2,9.648239E-2,-8.8430725E-2,-2.1721335E-2,1.7342655E-1,-4.912282E-3,-9.1404386E-2,-3.541669E-2,-8.817206E-2,1.9078923E-2,9.326921E-2,3.7749997E-1,-6.1320778E-2,-9.570044E-2,-4.8571443E-3,1.2142855E-1,-4.937501E-3,-2.1428594E-2,9.358972E-2,-5.866669E-2,3.333333E-1,3.2142833E-2,4.4571427E-1,-4.166668E-3,-4.93671E-3,4.642855E-2,-6.865674E-2,-9.832063E-2,-4.375001E-3,1.7142856E-2,-4.444446E-3,4.166666E-3,3.3571425E-1,3.9999977E-2,-8.4057994E-2,9.999999E-3,-8.333355E-3,3.55E-2,-4.038464E-2,1.4545453E-1,2.588235E-1,5.8947366E-1,-4.7222236E-3,1.3636363E-2,-4.901962E-3,1.1764695E-3,-3.8775522E-3,-4.9917637E-3,2.9166667E-2,6.6666654E-3,-2.375001E-3,8.653845E-3,-4.9206363E-3,2.857142E-3,-4.285715E-3,4.166666E-3,-3.8297884E-3,1.2499999E-2,-1.3333345E-3,1.36842085E-2,2.6874999E-2,4.999989E-4,1.2499999E-2,3.4642857E-2],"categories":[],"categories_nodes":[],"categories_segments":[],"categories_sizes":[],"default_left":[0,0,0,0,0,0,0,0,0,0,0,0,0,0,0,0,0,0,0,0,0,0,0,0,0,0,0,0,0,0,0,0,0,0,0,0,0,0,0,0,0,0,0,0,0,0,0,0,0,0,0,0,0,0,0,0,0,0,0,0,0,0,0,0,0],"id":22,"left_children":[1,3,5,7,9,11,-1,13,15,17,19,21,23,25,27,-1,29,-1,31,33,35,37,39,41,-1,-1,43,45,47,-1,-1,-1,-1,49,51,53,-1,55,-1,57,59,61,63,-1,-1,-1,-1,-1,-1,-1,-1,-1,-1,-1,-1,-1,-1,-1,-1,-1,-1,-1,-1,-1,-1],"loss_changes":[4.901869E0,8.4318256E-1,2.9986925E0,1.3438702E-1,6.632167E-1,2.3039827E0,0E0,1.00884914E-1,4.7650596E-1,6.354284E-2,8.860095E-1,1.5154076E0,1.294559E0,4.3189886E-1,4.433918E-2,0E0,6.776786E-1,0E0,1.063492E-1,9.98652E-1,5.094029E-1,2.7085E0,6.962038E-1,7.87786E-1,0E0,0E0,9.1838026E-1,1.8378696E-1,1.2863159E-2,0E0,0E0,0E0,0E0,6.2380946E-1,7.650961E-1,1.4547968E-1,0E0,9.22619E-2,0E0,5.65937E-1,7.356428E-1,1.1734263E0,4.9360943E-1,0E0,0E0,0E0,0E0,0E0,0E0,0E0,0E0,0E0,0E0,0E0,0E0,0E0,0E0,0E0,0E0,0E0,0E0,0E0,0E0,0E0,0E0],"parents":[2147483647,0,0,1,1,2,2,3,3,4,4,5,5,7,7,8,8,9,9,10,10,11,11,12,12,13,13,14,14,16,16,18,18,19,19,20,20,21,21,22,22,23,23,26,26,27,27,28,28,33,33,34,34,35,35,37,37,39,39,40,40,41,41,42,42],"right_children":[2,4,6,8,10,12,-1,14,16,18,20,22,24,26,28,-1,30,-1,32,34,36,38,40,42,-1,-1,44,46,48,-1,-1,-1,-1,50,52,54,-1,56,-1,58,60,62,64,-1,-1,-1,-1,-1,-1,-1,-1,-1,-1,-1,-1,-1,-1,-1,-1,-1,-1,-1,-1,-1,-1],"split_conditions":[3.2142856E2,3E2,5E0,3.19E2,1E0,9.3E-1,-2.6846322E-1,-3.9E1,2.57E2,9.3E-1,3.53E2,3.617143E2,1.311633E2,8.7E-1,5.4E1,-2.7702203E-1,2.85E1,-1.1815237E0,1.72E2,4E0,4.07E1,9.2922905E1,9E-1,3.16E1,-4.7856447E-1,-2.4441583E0,2.3E2,2.49E2,4.0991287E1,-2.9172212E-1,2.7112886E-1,-8.303162E-1,2.9629517E-2,2.642857E2,3E0,2.96E2,2.193103E0,3E0,4.360235E0,1E0,9E-1,1E0,9E1,-1.1458467E0,2.0280237E0,-3.543258E0,1.6960254E-1,-3.1590083E0,-1.8417574E0,3.719696E-1,8.0766296E-1,-8.2399026E-2,6.662786E-1,-8.12102E-2,2.964122E0,-1.0861329E0,3.255182E0,-1.5072803E-1,2.752533E-2,1.7527512E-1,4.5205274E0,2.8718002E0,2.3206995E0,2.6815064E0,4.1364503E0],"split_indices":[38,36,0,35,33,25,0,42,3,25,36,39,41,25,14,0,13,0,3,29,44,41,25,13,0,0,37,35,41,0,0,0,0,38,0,3,0,0,0,26,33,16,3,0,0,0,0,0,0,0,0,0,0,0,0,0,0,0,0,0,0,0,0,0,0],"split_type":[0,0,0,0,0,0,0,0,0,0,0,0,0,0,0,0,0,0,0,0,0,0,0,0,0,0,0,0,0,0,0,0,0,0,0,0,0,0,0,0,0,0,0,0,0,0,0,0,0,0,0,0,0,0,0,0,0,0,0,0,0,0,0,0,0],"sum_hessian":[1.313E3,1.115E3,1.98E2,8.72E2,2.43E2,1.42E2,5.6E1,8.25E2,4.7E1,9.2E1,1.51E2,1.03E2,3.9E1,1.05E2,7.2E2,3.4E1,1.3E1,7.9E1,1.3E1,7.7E1,7.4E1,2E1,8.3E1,3.4E1,5E0,7.8E1,2.7E1,6.6E1,6.54E2,7E0,6E0,8E0,5E0,1.3E1,6.4E1,6.8E1,6E0,1.1E1,9E0,5.1E1,3.2E1,1.6E1,1.8E1,1.7E1,1E1,5E1,1.6E1,4.8E1,6.06E2,5E0,8E0,3.9E1,2.5E1,6.2E1,6E0,6E0,5E0,4.6E1,5E0,1.4E1,1.8E1,7E0,9E0,5E0,1.3E1],"tree_param":{"num_deleted":"0","num_feature":"45","num_nodes":"65","size_leaf_vector":"1"}},{"base_weights":[-4.246271E-2,-6.701301E-2,1.1021503E-1,-8.851066E-2,-3.3259448E-2,1.9847326E-1,-4.9107154E-3,-9.2365295E-2,-1.8421076E-2,2.8124997E-1,-4.4724796E-2,1.0760867E-1,4.0249997E-1,-9.514869E-2,-3.0000024E-2,-4.8076934E-3,1.3846152E-1,3.142857E-2,4.999989E-4,-2.2258088E-2,-4.9606315E-3,2.8571427E-1,5.4166645E-2,5.16129E-1,4.999989E-4,-4.2105287E-2,-9.6618384E-2,1.2499999E-2,-4.800001E-3,2.0833334E-2,-4.375001E-3,1.6463391E-2,-6.530615E-2,-4.444446E-3,5.230769E-1,5.1723905E-3,2.3999998E-1,6.2399995E-1,2.857142E-3,-4.6428586E-3,4.166666E-3,-3.3333346E-3,-4.9066227E-3,-1.4782621E-3,6.099999E-3,8.124999E-3,-3.8928583E-3,4.166666E-3,3.9375E-2,3.970587E-3,-4.800001E-3,-4.166668E-3,2.0499999E-2,3.525E-2,1.2499999E-2],"categories":[],"categories_nodes":[],"categories_segments":[],"categories_sizes":[],"default_left":[0,0,0,0,0,0,0,0,0,0,0,0,0,0,0,0,0,0,0,0,0,0,0,0,0,0,0,0,0,0,0,0,0,0,0,0,0,0,0,0,0,0,0,0,0,0,0,0,0,0,0,0,0,0,0],"id":23,"left_children":[1,3,5,7,9,11,-1,13,15,17,19,21,23,25,27,-1,29,-1,-1,31,-1,33,35,37,-1,39,41,-1,-1,-1,-1,43,45,-1,47,49,51,53,-1,-1,-1,-1,-1,-1,-1,-1,-1,-1,-1,-1,-1,-1,-1,-1,-1],"loss_changes":[5.0300865E0,8.351507E-1,3.4410753E0,1.8876743E-1,1.6388667E0,2.3852706E0,0E0,1.1310196E-1,4.7672066E-1,1.5010893E0,5.315264E-1,8.602097E-1,1.7788157E0,4.5746803E-2,5.784E-1,0E0,8.5368603E-1,0E0,0E0,5.178094E-1,0E0,1.9137486E0,6.5430164E-1,1.4991922E0,0E0,1.2869674E-1,2.161932E-2,0E0,0E0,0E0,0E0,8.0027056E-1,4.3295413E-1,0E0,1.4459934E0,4.4326E-1,8.586667E-1,5.810995E-1,0E0,0E0,0E0,0E0,0E0,0E0,0E0,0E0,0E0,0E0,0E0,0E0,0E0,0E0,0E0,0E0,0E0],"parents":[2147483647,0,0,1,1,2,2,3,3,4,4,5,5,7,7,8,8,9,9,10,10,11,11,12,12,13,13,14,14,16,16,19,19,21,21,22,22,23,23,25,25,26,26,31,31,32,32,34,34,35,35,36,36,37,37],"right_children":[2,4,6,8,10,12,-1,14,16,18,20,22,24,26,28,-1,30,-1,-1,32,-1,34,36,38,-1,40,42,-1,-1,-1,-1,44,46,-1,48,50,52,54,-1,-1,-1,-1,-1,-1,-1,-1,-1,-1,-1,-1,-1,-1,-1,-1,-1],"split_conditions":[3.2142856E2,2.314E2,1E0,1.2740337E2,2.095E2,9.3E-1,-6.623745E-1,2.3428572E2,2.54E2,2.398E2,1E0,3.617143E2,8.48E1,4E1,2.0442857E2,-1.3125118E0,2.4057143E2,1.4335663E0,2.992384E-2,1.1E1,-4.5413733E0,6.94E1,4.9E2,1.311633E2,8.800535E-1,3.7E1,4.2E0,1.7362015E0,-9.531199E-1,2.5757295E-1,-2.1014558E-1,3.56E1,1.8E2,-1.0318269E0,3.157E2,4.41E2,4.037143E2,4.2392856E2,2.0928407E0,-1.1027002E0,7.3654175E-2,-7.724857E-1,-2.0783598E0,-7.768023E-2,3.5337064E-1,2.8159165E0,-2.6907846E-1,1.2428864E0,4.1422243E0,8.180857E-1,-1.3813707E-1,-8.691422E-1,4.6337695E0,2.5853546E0,2.7282104E0],"split_indices":[38,40,5,41,39,25,0,38,3,40,5,39,14,3,39,0,38,0,0,29,0,14,37,41,0,3,44,0,0,0,0,13,35,0,40,36,39,39,0,0,0,0,0,0,0,0,0,0,0,0,0,0,0,0,0],"split_type":[0,0,0,0,0,0,0,0,0,0,0,0,0,0,0,0,0,0,0,0,0,0,0,0,0,0,0,0,0,0,0,0,0,0,0,0,0,0,0,0,0,0,0,0,0,0,0,0,0,0,0,0,0,0,0],"sum_hessian":[1.339E3,1.154E3,1.85E2,7.04E2,4.5E2,1.3E2,5.5E1,6.67E2,3.7E1,1.5E1,4.35E2,9.1E1,3.9E1,6.38E2,2.9E1,2.5E1,1.2E1,6E0,9E0,3.09E2,1.26E2,2E1,7.1E1,3E1,9E0,1.8E1,6.2E2,5E0,2.4E1,5E0,7E0,1.63E2,1.46E2,8E0,1.2E1,5.7E1,1.4E1,2.4E1,6E0,1.3E1,5E0,3.2E1,5.88E2,1.14E2,4.9E1,7E0,1.39E2,5E0,7E0,3.3E1,2.4E1,5E0,9E0,1.9E1,5E0],"tree_param":{"num_deleted":"0","num_feature":"45","num_nodes":"55","size_leaf_vector":"1"}},{"base_weights":[-5.1840745E-2,-7.456296E-2,8.67021E-2,-8.576089E-2,-2.8444469E-2,1.6999997E-1,-4.9152556E-3,-9.1057956E-2,-5.1968526E-2,-5.5248644E-2,7.9999976E-2,8.586954E-2,3.6410254E-1,1.874999E-3,-9.224907E-2,-7.35043E-2,1.8181816E-1,-6.5340936E-2,1.2499999E-2,-4.761906E-3,2.2399998E-1,2.681818E-1,2.8168991E-2,4.999998E-2,5.192307E-1,-9.341088E-2,-2.1428594E-2,-8.952383E-2,6.153844E-2,2.0833334E-2,-4.166668E-3,4.999998E-2,-7.484665E-2,2.6874999E-2,7.22222E-2,-8.333355E-3,5.454545E-1,-4.6875235E-3,1.4374998E-2,-4.444446E-3,1.2499999E-2,2.9230767E-1,6.9285715E-1,-2.6086967E-3,-4.727395E-3,4.166666E-3,-4.444446E-3,-4.9489806E-3,1.874999E-3,1.2499999E-2,-4.375001E-3,-4.444446E-3,1.2499999E-2,-4.01274E-3,2.857142E-3,-4.444446E-3,1.0499999E-2,-4.285715E-3,4.166666E-3,1.2499999E-2,3.75E-2,-4.800001E-3,2.6249988E-3,1.874999E-3,2.9166667E-2,2.0833334E-2,4E-2],"categories":[],"categories_nodes":[],"categories_segments":[],"categories_sizes":[],"default_left":[0,0,0,0,0,0,0,0,0,0,0,0,0,0,0,0,0,0,0,0,0,0,0,0,0,0,0,0,0,0,0,0,0,0,0,0,0,0,0,0,0,0,0,0,0,0,0,0,0,0,0,0,0,0,0,0,0,0,0,0,0,0,0,0,0,0,0],"id":24,"left_children":[1,3,5,7,9,11,-1,13,15,17,19,21,23,-1,25,27,29,31,-1,-1,33,35,37,39,41,43,45,47,49,-1,-1,51,53,-1,55,57,59,61,-1,-1,-1,63,65,-1,-1,-1,-1,-1,-1,-1,-1,-1,-1,-1,-1,-1,-1,-1,-1,-1,-1,-1,-1,-1,-1,-1,-1],"loss_changes":[4.1964536E0,5.883579E-1,2.9139247E0,1.5994835E-1,6.584418E-1,2.091626E0,0E0,1.2504196E-1,6.52781E-1,5.739343E-1,1.1568762E0,9.602412E-1,1.8743591E0,0E0,6.275225E-2,2.5861788E-1,7.19697E-1,1.9670838E-1,0E0,0E0,1.1507387E0,1.6912879E0,6.063182E-1,4.1111115E-1,8.2186794E-1,3.1357765E-2,1.063492E-1,1.2982821E-1,3.8701928E-1,0E0,0E0,4.1111115E-1,1.2093848E-1,0E0,4.1822225E-1,9.22619E-2,4.7727275E-1,3.3924374E-1,0E0,0E0,0E0,9.421475E-1,8.095217E-2,0E0,0E0,0E0,0E0,0E0,0E0,0E0,0E0,0E0,0E0,0E0,0E0,0E0,0E0,0E0,0E0,0E0,0E0,0E0,0E0,0E0,0E0,0E0,0E0],"parents":[2147483647,0,0,1,1,2,2,3,3,4,4,5,5,7,7,8,8,9,9,10,10,11,11,12,12,14,14,15,15,16,16,17,17,20,20,21,21,22,22,23,23,24,24,25,25,26,26,27,27,28,28,31,31,32,32,34,34,35,35,36,36,37,37,41,41,42,42],"right_children":[2,4,6,8,10,12,-1,14,16,18,20,22,24,-1,26,28,30,32,-1,-1,34,36,38,40,42,44,46,48,50,-1,-1,52,54,-1,56,58,60,62,-1,-1,-1,64,66,-1,-1,-1,-1,-1,-1,-1,-1,-1,-1,-1,-1,-1,-1,-1,-1,-1,-1,-1,-1,-1,-1,-1,-1],"split_conditions":[3.2142856E2,3.03E2,5E0,1E0,9.3E-1,9.3E-1,-8.166068E-1,-1.75E2,2.85E2,4.16E2,4.028E1,3.617143E2,9E-1,5.669861E-2,5.86E1,4.1E1,3E0,5.22E1,3.8085938E-2,-4.8125375E-2,2.3585715E2,9.2922905E1,4.35E2,9E0,3E0,4E1,8.5E1,5.026E1,3E2,1.8406113E0,-3.899559E0,5.4E1,5.434E1,1.4832535E0,6.51E1,2E0,3.4E1,2E0,1.0784607E0,-4.9082946E-2,8.3605045E-1,2.9E1,3.816E1,-2.018994E0,-1.7760658E0,3.2809447E-2,-3.2300675E0,-2.115451E0,6.3240665E-1,2.4469452E-1,-1.8282654E0,-1.0411942E0,7.172958E-1,-1.8605524E-1,1.7802124E-1,-2.2101593E-1,1.1956481E0,-9.802353E-1,2.8853118E0,1.1807419E0,3.9351137E0,-2.04332E-1,9.160932E-1,2.4560869E0,2.1881623E0,2.5918E0,4.1868834E0],"split_indices":[38,36,0,26,25,25,0,42,38,37,15,39,33,0,44,2,0,14,0,0,39,41,39,1,0,3,14,15,3,0,0,3,15,0,14,0,2,0,0,0,0,2,15,0,0,0,0,0,0,0,0,0,0,0,0,0,0,0,0,0,0,0,0,0,0,0,0],"split_type":[0,0,0,0,0,0,0,0,0,0,0,0,0,0,0,0,0,0,0,0,0,0,0,0,0,0,0,0,0,0,0,0,0,0,0,0,0,0,0,0,0,0,0,0,0,0,0,0,0,0,0,0,0,0,0,0,0,0,0,0,0,0,0,0,0,0,0],"sum_hessian":[1.33E3,1.143E3,1.87E2,9.19E2,2.24E2,1.29E2,5.8E1,7.93E2,1.26E2,1.8E2,4.4E1,9.1E1,3.8E1,7E0,7.86E2,1.16E2,1E1,1.75E2,5E0,2E1,2.4E1,2.1E1,7E1,1.3E1,2.5E1,7.73E2,1.3E1,1.04E2,1.2E1,5E0,5E0,1.3E1,1.62E2,7E0,1.7E1,1.1E1,1E1,6.3E1,7E0,8E0,5E0,1.2E1,1.3E1,2.2E1,7.51E2,5E0,8E0,9.7E1,7E0,5E0,7E0,8E0,5E0,1.56E2,6E0,8E0,9E0,6E0,5E0,5E0,5E0,2.4E1,3.9E1,7E0,5E0,5E0,8E0],"tree_param":{"num_deleted":"0","num_feature":"45","num_nodes":"67","size_leaf_vector":"1"}},{"base_weights":[-4.457567E-2,-6.6495314E-2,9.1005266E-2,-8.260371E-2,-1.966669E-2,1.5971221E-1,-4.901962E-3,-9.457095E-2,-5.9396E-2,2.0833334E-2,-2.84746E-2,9.230746E-3,2.88E-1,4.999989E-4,-9.626337E-2,-9.276318E-2,-2.448982E-2,-4.524911E-3,-4.9333344E-3,1.9999997E-1,-5.714288E-2,4.742857E-1,1.2195119E-1,-9.800727E-2,-2.1674417E-8,-5.2173935E-2,-4.96154E-3,-5.1587325E-2,1.3181816E-1,4.8695628E-2,-6.1682265E-2,2.9166667E-2,-8.333355E-3,7.499998E-2,-4.868422E-3,5.7E-1,-4.166668E-3,-4.615386E-3,2.1379308E-1,-4.989981E-3,-3.9814827E-3,-4.166668E-3,4.166666E-3,-4.7222236E-3,4.166666E-3,-4.93671E-3,1.3541655E-3,-4.500001E-3,1.4615384E-2,-3.3823543E-3,4.817072E-3,1.999999E-3,-3.870969E-3,4.166666E-3,-4.285715E-3,-4.285715E-3,1.2499999E-2,3.32E-2,4.166666E-3,1.8947368E-2,-4.545456E-3],"categories":[],"categories_nodes":[],"categories_segments":[],"categories_sizes":[],"default_left":[0,0,0,0,0,0,0,0,0,0,0,0,0,0,0,0,0,0,0,0,0,0,0,0,0,0,0,0,0,0,0,0,0,0,0,0,0,0,0,0,0,0,0,0,0,0,0,0,0,0,0,0,0,0,0,0,0,0,0,0,0],"id":25,"left_children":[1,3,5,7,9,11,-1,13,15,-1,17,19,21,-1,23,25,27,29,-1,31,33,35,37,39,41,43,-1,45,47,49,51,-1,53,55,-1,57,-1,-1,59,-1,-1,-1,-1,-1,-1,-1,-1,-1,-1,-1,-1,-1,-1,-1,-1,-1,-1,-1,-1,-1,-1],"loss_changes":[4.0329566E0,8.7868357E-1,2.4705164E0,2.3545408E-1,1.1648198E0,2.680727E0,0E0,1.02016926E-1,3.4481502E-1,0E0,4.9547175E-1,8.3446157E-1,2.2620988E0,0E0,9.434509E-2,3.472507E-2,6.294269E-1,6.7527354E-1,0E0,1.3625E0,2.6776314E-1,1.915524E0,8.2653034E-1,1.0235786E-2,8.333333E-2,1.3961352E-1,0E0,4.7001752E-1,8.094965E-1,6.4399016E-1,1.7431656E-1,0E0,9.22619E-2,3.589286E-1,0E0,1.3170671E0,0E0,0E0,1.493813E0,0E0,0E0,0E0,0E0,0E0,0E0,0E0,0E0,0E0,0E0,0E0,0E0,0E0,0E0,0E0,0E0,0E0,0E0,0E0,0E0,0E0,0E0],"parents":[2147483647,0,0,1,1,2,2,3,3,4,4,5,5,7,7,8,8,10,10,11,11,12,12,14,14,15,15,16,16,17,17,19,19,20,20,21,21,22,22,23,23,24,24,25,25,27,27,28,28,29,29,30,30,32,32,33,33,35,35,38,38],"right_children":[2,4,6,8,10,12,-1,14,16,-1,18,20,22,-1,24,26,28,30,-1,32,34,36,38,40,42,44,-1,46,48,50,52,-1,54,56,-1,58,-1,-1,60,-1,-1,-1,-1,-1,-1,-1,-1,-1,-1,-1,-1,-1,-1,-1,-1,-1,-1,-1,-1,-1,-1],"split_conditions":[3.2116666E2,2.5542857E2,5E0,8.7E-1,2.2271428E2,9E-1,-3.6940816E-1,-1.75E2,1E0,1.7485809E0,5E0,3.58E2,6E0,5.3863507E-2,3.58E2,1E0,3.2E1,1.1E1,-3.6582382E0,6.858259E1,3.617143E2,4.2823334E2,-7E1,2.78E2,4E0,9.2E-1,-1.9962822E0,2.53E2,4E0,1E0,5.2E0,6.560349E-1,2E0,2.997143E2,-1.6448155E-1,1.2561506E2,-1.0354706E0,-1.0306553E-1,5.8E1,-2.1507673E0,-1.3386143E0,-6.0538787E-1,1.0662842E-2,-9.886514E-1,1.4506912E0,-2.4207914E0,5.5454906E-2,-1.8472334E-2,1.384116E0,-6.3585156E-1,4.70506E-1,1.0323633E-1,-2.8827524E-1,7.9424745E-1,-8.8220215E-1,-8.683594E-1,1.4848648E0,2.7725425E0,1.7788544E0,4.017009E0,-2.2905667E-1],"split_indices":[40,38,0,25,39,33,0,42,33,0,0,36,29,0,37,0,42,29,0,41,39,40,42,3,0,25,0,36,29,33,44,0,0,38,0,41,0,0,42,0,0,0,0,0,0,0,0,0,0,0,0,0,0,0,0,0,0,0,0,0,0],"split_type":[0,0,0,0,0,0,0,0,0,0,0,0,0,0,0,0,0,0,0,0,0,0,0,0,0,0,0,0,0,0,0,0,0,0,0,0,0,0,0,0,0,0,0,0,0,0,0,0,0,0,0,0,0,0,0,0,0,0,0,0,0],"sum_hessian":[1.354E3,1.166E3,1.88E2,8.67E2,2.99E2,1.38E2,5E1,5.7E2,2.97E2,5E0,2.94E2,6.4E1,7.4E1,9E0,5.61E2,1.51E2,1.46E2,2.2E2,7.4E1,1.6E1,4.8E1,3.4E1,4E1,5.51E2,1E1,2.2E1,1.29E2,1.25E2,2.1E1,1.14E2,1.06E2,5E0,1.1E1,1.1E1,3.7E1,2.9E1,5E0,1.2E1,2.8E1,4.98E2,5.3E1,5E0,5E0,1.7E1,5E0,7.8E1,4.7E1,9E0,1.2E1,3.3E1,8.1E1,1.4E1,9.2E1,5E0,6E0,6E0,5E0,2.4E1,5E0,1.8E1,1E1],"tree_param":{"num_deleted":"0","num_feature":"45","num_nodes":"61","size_leaf_vector":"1"}},{"base_weights":[-5.255923E-2,-7.337605E-2,5.253454E-2,-8.821246E-2,-3.7577663E-2,1.12179466E-1,-4.919356E-3,-6.792455E-2,-9.33225E-2,-1.48305325E-2,-4.9425303E-3,3.09375E-1,6.0799975E-2,-8.5314706E-2,8.235292E-2,-5.0000023E-2,-9.6335106E-2,3.4821406E-2,-5.9200022E-2,-2.1428594E-2,5.368421E-1,1.634613E-2,2.681818E-1,-4.958679E-3,-8.695675E-3,2.0833334E-2,-4.5833346E-3,-4.8529427E-3,6.6666654E-3,-4.989713E-3,-7.613639E-2,2.0833334E-2,1.3084088E-2,-8.090912E-2,9.374998E-2,4.166666E-3,-4.444446E-3,3.6363635E-2,1.2222222E-2,5.1249977E-2,-4.800001E-3,-8.333355E-3,2.7272725E-2,-4.687501E-3,8.124999E-3,8.333322E-4,-4.929579E-3,-1.9402998E-3,4.8780474E-3,-4.9504964E-3,5.499999E-3,1.7142856E-2,-4.500001E-3,1.340909E-2,-1.5254249E-3,4.166666E-3,-4.285715E-3],"categories":[],"categories_nodes":[],"categories_segments":[],"categories_sizes":[],"default_left":[0,0,0,0,0,0,0,0,0,0,0,0,0,0,0,0,0,0,0,0,0,0,0,0,0,0,0,0,0,0,0,0,0,0,0,0,0,0,0,0,0,0,0,0,0,0,0,0,0,0,0,0,0,0,0,0,0],"id":26,"left_children":[1,3,5,7,9,11,-1,13,15,17,-1,19,21,23,25,27,29,31,33,35,37,39,41,-1,43,-1,-1,-1,-1,-1,45,-1,47,49,51,-1,-1,-1,-1,53,-1,55,-1,-1,-1,-1,-1,-1,-1,-1,-1,-1,-1,-1,-1,-1,-1],"loss_changes":[2.8675783E0,5.771985E-1,1.9644084E0,7.369614E-2,4.473323E-1,1.5617516E0,0E0,4.2254847E-1,7.531834E-2,5.2197677E-1,0E0,2.4194057E0,1.1479812E0,1.5098262E-1,1.027206E0,3.7529412E-1,3.24378E-2,9.241809E-1,4.2263594E-1,1.063492E-1,8.8016987E-1,4.1273654E-1,1.6912879E0,0E0,3.5013586E-1,0E0,0E0,0E0,0E0,0E0,1.8502718E-1,0E0,4.7282165E-1,3.9100814E-1,7.632321E-1,0E0,0E0,0E0,0E0,1.4270629E0,0E0,9.22619E-2,0E0,0E0,0E0,0E0,0E0,0E0,0E0,0E0,0E0,0E0,0E0,0E0,0E0,0E0,0E0],"parents":[2147483647,0,0,1,1,2,2,3,3,4,4,5,5,7,7,8,8,9,9,11,11,12,12,13,13,14,14,15,15,16,16,17,17,18,18,19,19,20,20,21,21,22,22,24,24,30,30,32,32,33,33,34,34,39,39,41,41],"right_children":[2,4,6,8,10,12,-1,14,16,18,-1,20,22,24,26,28,30,32,34,36,38,40,42,-1,44,-1,-1,-1,-1,-1,46,-1,48,50,52,-1,-1,-1,-1,54,-1,56,-1,-1,-1,-1,-1,-1,-1,-1,-1,-1,-1,-1,-1,-1,-1],"split_conditions":[9.2E-1,2.54E2,1E0,5.4783558E1,1E0,8.574741E1,-1.5845542E0,5.1384174E1,5.4E1,3.39E2,-3.0932777E0,1E0,4.858E1,1E0,4.093E1,8.7E-1,2.73E2,1E0,4.2316666E2,3.58E2,1E0,3.7492856E2,2.715E2,-2.238105E0,4.701E1,1.6689881E0,-2.634864E0,-2.1035755E0,4.8872834E-1,-1.9866825E0,2.78E2,1.1534973E0,4.184E1,2.78E2,4.3266666E2,2.7055359E-2,-8.567535E-1,3.6329727E0,3.838913E0,1.2846844E2,-1.16334595E-1,5E0,2.1100485E0,-3.0075567E0,7.6260376E-1,1.6749871E-1,-7.675552E-1,-1.4013077E-1,6.589097E-1,-3.428783E-1,3.5375068E0,2.395224E0,-1.7624977E-1,7.216958E-1,-2.6607377E-2,4.783554E-1,-2.3349153E-1],"split_indices":[25,38,5,41,5,41,0,41,14,36,0,12,15,7,15,25,36,29,40,36,16,39,39,0,15,0,0,0,0,0,36,0,15,3,40,0,0,0,0,41,0,1,0,0,0,0,0,0,0,0,0,0,0,0,0,0,0],"split_type":[0,0,0,0,0,0,0,0,0,0,0,0,0,0,0,0,0,0,0,0,0,0,0,0,0,0,0,0,0,0,0,0,0,0,0,0,0,0,0,0,0,0,0,0,0,0,0,0,0,0,0,0,0,0,0,0,0],"sum_hessian":[1.308E3,1.092E3,2.16E2,7.71E2,3.21E2,1.55E2,6.1E1,1.58E2,6.13E2,2.35E2,8.6E1,3.1E1,1.24E2,1.42E2,1.6E1,4.1E1,5.72E2,1.11E2,1.24E2,1.3E1,1.8E1,1.03E2,2.1E1,1.2E2,2.2E1,5E0,1.1E1,3.3E1,8E0,4.85E2,8.7E1,5E0,1.06E2,1.09E2,1.5E1,5E0,8E0,1E1,8E0,7.9E1,2.4E1,1.1E1,1E1,1.5E1,7E0,1.7E1,7E1,6.6E1,4E1,1E2,9E0,6E0,9E0,2.1E1,5.8E1,5E0,6E0],"tree_param":{"num_deleted":"0","num_feature":"45","num_nodes":"57","size_leaf_vector":"1"}},{"base_weights":[-4.4738803E-2,-6.9345005E-2,8.6511604E-2,-7.921409E-2,-1.564248E-2,2.1829265E-1,5.223857E-3,-9.115944E-2,-4.92806E-2,1.3461536E-1,-4.0909115E-2,-1.6000023E-2,3.1551722E-1,1.4374998E-2,-1.2598448E-2,-9.512581E-2,-4.3636385E-2,-5.8736082E-2,1.0499999E-2,3.25E-1,-2.666669E-2,-7.9000026E-2,2.9090885E-2,-4.7058836E-3,6.6666654E-3,-4.375001E-3,3.72549E-1,-5.444447E-2,8.684208E-2,-2.1428594E-2,-9.662924E-2,9.999999E-3,-7.7551045E-2,8.636361E-2,-7.137099E-2,2.857142E-3,2.9166667E-2,4.166666E-3,-4.500001E-3,-4.935899E-3,-8.695675E-3,2.0833334E-2,-1.8000023E-2,1.2777776E-1,4.9117646E-1,5.1851828E-2,-4.9218764E-3,6.896529E-3,1.5499999E-2,-4.444446E-3,4.166666E-3,-3.3333346E-3,-4.906939E-3,-4.886365E-3,4.166666E-3,-4.615386E-3,1.5499999E-2,-3.928573E-3,4.5454535E-3,1.2499999E-2,-4.7222236E-3,2.8846143E-3,-4.800001E-3,2.0624999E-2,-4.545456E-3,2.980769E-2,6.6666654E-3,-4.687501E-3,1.2083332E-2,-4.761906E-3,1.2222222E-2],"categories":[],"categories_nodes":[],"categories_segments":[],"categories_sizes":[],"default_left":[0,0,0,0,0,0,0,0,0,0,0,0,0,0,0,0,0,0,0,0,0,0,0,0,0,0,0,0,0,0,0,0,0,0,0,0,0,0,0,0,0,0,0,0,0,0,0,0,0,0,0,0,0,0,0,0,0,0,0,0,0,0,0,0,0,0,0,0,0,0,0],"id":27,"left_children":[1,3,5,7,9,11,13,15,17,19,21,23,25,-1,27,29,31,33,-1,35,37,39,41,-1,-1,-1,43,45,47,49,51,-1,53,55,57,-1,-1,-1,-1,-1,59,-1,61,63,65,67,-1,69,-1,-1,-1,-1,-1,-1,-1,-1,-1,-1,-1,-1,-1,-1,-1,-1,-1,-1,-1,-1,-1,-1,-1],"loss_changes":[4.39499E0,6.056051E-1,2.3019795E0,3.4127426E-1,6.850822E-1,1.8729267E0,6.7775077E-1,1.259098E-1,6.938858E-1,8.070128E-1,4.129182E-1,3.0418822E-1,1.365716E0,0E0,5.3319925E-1,6.8397045E-2,4.6996665E-1,4.9932742E-1,0E0,7.970239E-1,1.12E-1,1.3776731E-1,1.0113213E0,0E0,0E0,0E0,1.4181046E0,4.25971E-1,6.758003E-1,1.063492E-1,2.163601E-2,0E0,1.6720009E-1,9.076783E-1,2.9692864E-1,0E0,0E0,0E0,0E0,0E0,5.3381646E-1,0E0,3.0073845E-1,1.1582701E0,1.1977377E0,7.688658E-1,0E0,7.2687465E-1,0E0,0E0,0E0,0E0,0E0,0E0,0E0,0E0,0E0,0E0,0E0,0E0,0E0,0E0,0E0,0E0,0E0,0E0,0E0,0E0,0E0,0E0,0E0],"parents":[2147483647,0,0,1,1,2,2,3,3,4,4,5,5,6,6,7,7,8,8,9,9,10,10,11,11,12,12,14,14,15,15,16,16,17,17,19,19,20,20,21,21,22,22,26,26,27,27,28,28,29,29,30,30,32,32,33,33,34,34,40,40,42,42,43,43,44,44,45,45,47,47],"right_children":[2,4,6,8,10,12,14,16,18,20,22,24,26,-1,28,30,32,34,-1,36,38,40,42,-1,-1,-1,44,46,48,50,52,-1,54,56,58,-1,-1,-1,-1,-1,60,-1,62,64,66,68,-1,70,-1,-1,-1,-1,-1,-1,-1,-1,-1,-1,-1,-1,-1,-1,-1,-1,-1,-1,-1,-1,-1,-1,-1],"split_conditions":[3.1785715E2,3.19E2,6E0,2.314E2,3.31E2,1E0,2.9973334E2,2.2842857E2,4.3E1,4.146E1,2.7435715E2,8.1E1,1E0,8.639054E-1,4.57E2,4E1,2.0442857E2,2.18E2,2.6829817E0,2E1,2.2E1,4.605E1,2.6273334E2,-2.7028677E-1,7.184494E-1,-5.472687E-1,7.2E1,3.512857E2,4.9E2,2.12E1,4.2E0,1.5855392E0,3.38E2,1E0,6.8E1,1.8763734E-2,2.625885E-1,1.6273804E-1,-6.99326E-2,-2.4691045E-1,4.724E1,8.136048E-1,2.9903333E2,4.2392856E2,1.1969962E2,3.66E2,-2.3358901E-1,2.33E2,4.161243E0,-1.6037827E0,1.4371033E-1,-5.3650534E-1,-1.7864968E0,-1.1315101E0,4.83551E-3,-3.5320363E0,1.1862121E0,-9.8400193E-1,6.160285E-1,2.6380464E-1,-5.902946E-1,2.748516E-1,-1.0435182E-1,2.2754624E0,-1.718651E-1,2.3821054E0,1.5844086E0,-1.143608E0,3.9777118E-1,-3.5126656E-1,1.3745362E0],"split_indices":[38,35,29,40,35,19,40,38,2,15,39,42,12,0,35,3,39,39,0,2,2,15,40,0,0,0,3,38,37,13,44,0,36,12,42,0,0,0,0,0,15,0,40,39,41,37,0,3,0,0,0,0,0,0,0,0,0,0,0,0,0,0,0,0,0,0,0,0,0,0,0],"split_type":[0,0,0,0,0,0,0,0,0,0,0,0,0,0,0,0,0,0,0,0,0,0,0,0,0,0,0,0,0,0,0,0,0,0,0,0,0,0,0,0,0,0,0,0,0,0,0,0,0,0,0,0,0,0,0,0,0,0,0,0,0,0,0,0,0,0,0,0,0,0,0],"sum_hessian":[1.358E3,1.144E3,2.14E2,9.66E2,1.78E2,8.1E1,1.33E2,6.89E2,2.77E2,2.5E1,1.53E2,2.4E1,5.7E1,7E0,1.26E2,6.35E2,5.4E1,2.68E2,9E0,1.1E1,1.4E1,9.9E1,5.4E1,1.6E1,8E0,7E0,5E1,8.9E1,3.7E1,1.3E1,6.22E2,6E0,4.8E1,2.1E1,2.47E2,6E0,5E0,5E0,9E0,7.7E1,2.2E1,5E0,4.9E1,1.7E1,3.3E1,2.6E1,6.3E1,2.8E1,9E0,8E0,5E0,3.2E1,5.9E2,4.3E1,5E0,1.2E1,9E0,2.37E2,1E1,5E0,1.7E1,2.5E1,2.4E1,7E0,1E1,2.5E1,8E0,1.5E1,1.1E1,2E1,8E0],"tree_param":{"num_deleted":"0","num_feature":"45","num_nodes":"71","size_leaf_vector":"1"}},{"base_weights":[-4.969561E-2,-7.246114E-2,6.2612586E-2,-8.8796705E-2,-4.043129E-2,1.3594769E-1,-4.9285726E-3,-5.3076945E-2,-9.646467E-2,-4.9659875E-3,-1.7778015E-3,2.531622E-3,2.7466664E-1,-6.6393465E-2,6.6666654E-3,-5.3333357E-2,-4.9909106E-3,-4.5180745E-2,1.1833331E-1,1.3461536E-1,-6.1111134E-2,9.189187E-2,4.410256E-1,-4.9425303E-3,1.3888866E-2,-4.8717964E-3,9.999999E-3,-6.0389634E-2,1.3846152E-1,-2.3809758E-3,3.7894735E-1,3.6923075E-1,-4.6428586E-3,-7.7551045E-2,4.166666E-3,3.3333104E-3,2.0624999E-2,5.7E-1,4.999989E-4,-3.166668E-3,1.7142856E-2,-4.4500013E-3,-3.6363755E-4,1.7142856E-2,-4.285715E-3,3.9130426E-3,-4.7500012E-3,9.090908E-3,2.8888887E-2,4.166666E-3,2.6874999E-2,4.166666E-3,-4.886365E-3,-2.7083345E-3,9.999999E-3,8.124999E-3,3.434783E-2],"categories":[],"categories_nodes":[],"categories_segments":[],"categories_sizes":[],"default_left":[0,0,0,0,0,0,0,0,0,0,0,0,0,0,0,0,0,0,0,0,0,0,0,0,0,0,0,0,0,0,0,0,0,0,0,0,0,0,0,0,0,0,0,0,0,0,0,0,0,0,0,0,0,0,0,0,0],"id":28,"left_children":[1,3,5,7,9,11,-1,13,15,-1,17,19,21,23,-1,25,-1,27,29,31,33,35,37,-1,39,-1,-1,41,43,45,47,49,-1,51,-1,53,-1,55,-1,-1,-1,-1,-1,-1,-1,-1,-1,-1,-1,-1,-1,-1,-1,-1,-1,-1,-1],"loss_changes":[3.3641136E0,5.682955E-1,2.63754E0,1.9290781E-1,8.443101E-1,2.8309274E0,0E0,3.3155614E-1,8.059454E-2,0E0,1.178311E0,6.7231417E-1,2.2399397E0,3.1927252E-1,0E0,5.222564E-1,0E0,4.7199872E-1,1.8884926E0,1.4218681E0,1.346939E-1,1.0491508E0,2.1623592E0,0E0,9.3624604E-1,0E0,0E0,2.3338574E-1,6.2505496E-1,3.211315E-1,6.3965964E-1,5.8060896E-1,0E0,1.6720009E-1,0E0,3.5008332E-1,0E0,1.3181639E0,0E0,0E0,0E0,0E0,0E0,0E0,0E0,0E0,0E0,0E0,0E0,0E0,0E0,0E0,0E0,0E0,0E0,0E0,0E0],"parents":[2147483647,0,0,1,1,2,2,3,3,4,4,5,5,7,7,8,8,10,10,11,11,12,12,13,13,15,15,17,17,18,18,19,19,20,20,21,21,22,22,24,24,27,27,28,28,29,29,30,30,31,31,33,33,35,35,37,37],"right_children":[2,4,6,8,10,12,-1,14,16,-1,18,20,22,24,-1,26,-1,28,30,32,34,36,38,-1,40,-1,-1,42,44,46,48,50,-1,52,-1,54,-1,56,-1,-1,-1,-1,-1,-1,-1,-1,-1,-1,-1,-1,-1,-1,-1,-1,-1,-1,-1],"split_conditions":[9.2E-1,2.69E2,5E0,5.4783558E1,1E0,1E0,-1.3890016E0,2.77E2,5.4E1,-1.0702881E0,1.92E2,1.07E2,9E-1,1E0,3.3894348E-1,8.7E-1,-1.6947163E0,4.72E2,2E0,3.58E2,3.89E1,9.04E1,4.2392856E2,-2.0623574E0,9E-1,-1.8480955E0,5.5361634E-1,3.68E1,5.92E1,4.1E1,2.58E2,3.38E2,-5.2211314E-2,2.68E2,9.930954E-1,1E0,1.1269013E0,9.3E-1,6.030249E-3,-2.9613848E0,1.5062622E0,-3.775422E-1,-1.4549321E-3,2.1616898E0,-1.3355713E-1,3.7338927E-1,-5.015153E-1,5.412949E-1,6.4826506E-1,1.7825319E-2,1.4568497E0,6.2031556E-2,-7.667697E-2,-2.0859568E-1,7.336426E-3,3.95318E0,2.5111606E0],"split_indices":[25,36,0,41,33,31,0,3,14,0,3,3,33,28,0,25,0,35,43,35,13,14,39,0,33,0,0,13,14,2,35,36,0,35,0,9,0,25,0,0,0,0,0,0,0,0,0,0,0,0,0,0,0,0,0,0,0],"split_type":[0,0,0,0,0,0,0,0,0,0,0,0,0,0,0,0,0,0,0,0,0,0,0,0,0,0,0,0,0,0,0,0,0,0,0,0,0,0,0,0,0,0,0,0,0,0,0,0,0,0,0,0,0,0,0,0,0],"sum_hessian":[1.313E3,1.092E3,2.21E2,7.22E2,3.7E2,1.52E2,6.9E1,1.29E2,5.93E2,1.46E2,2.24E2,7.8E1,7.4E1,1.21E2,8E0,4.4E1,5.49E2,1.65E2,5.9E1,2.5E1,5.3E1,3.6E1,3.8E1,8.6E1,3.5E1,3.8E1,6E0,1.53E2,1.2E1,4.1E1,1.8E1,1.2E1,1.3E1,4.8E1,5E0,2.9E1,7E0,2.9E1,9E0,2.9E1,6E0,9.9E1,5.4E1,6E0,6E0,2.2E1,1.9E1,1E1,8E0,5E0,7E0,5E0,4.3E1,2.3E1,6E0,7E0,2.2E1],"tree_param":{"num_deleted":"0","num_feature":"45","num_nodes":"57","size_leaf_vector":"1"}},{"base_weights":[-4.566694E-2,-6.496418E-2,5.6132052E-2,-8.319447E-2,-3.1738058E-2,1.6184947E-2,2.2749998E-1,-8.694407E-2,2.9166644E-2,-4.968751E-3,1.3865522E-2,1.04687475E-1,-3.5454568E-2,1.15151495E-1,3.3125E-2,-6.5536745E-2,-9.404993E-2,1.2222222E-2,-4.687501E-3,-4.1279092E-2,1.5522386E-1,3.1764704E-1,2.708331E-2,-7.613639E-2,1.21739104E-1,2.3333332E-2,-1.6000023E-2,-7.530123E-2,7.499998E-2,1.1111101E-3,-9.590646E-2,-4.9285726E-3,-1.9417711E-3,2.55E-2,9.1379285E-2,2.55E-2,1.874999E-3,9.062497E-2,-4.7058836E-3,-8.6419776E-2,1.874999E-3,-4.5833346E-3,3.25E-1,6.6666654E-3,-4.7058836E-3,-4.958335E-3,-6.3829904E-4,1.2499999E-2,-4.285715E-3,-2.500001E-3,-4.888213E-3,-2.2666678E-3,5.51724E-3,1.0689654E-2,-1.5000012E-3,1.1999999E-2,-1.9444457E-3,-4.932434E-3,1.874999E-3,4.166666E-3,2.4285713E-2],"categories":[],"categories_nodes":[],"categories_segments":[],"categories_sizes":[],"default_left":[0,0,0,0,0,0,0,0,0,0,0,0,0,0,0,0,0,0,0,0,0,0,0,0,0,0,0,0,0,0,0,0,0,0,0,0,0,0,0,0,0,0,0,0,0,0,0,0,0,0,0,0,0,0,0,0,0,0,0,0,0],"id":29,"left_children":[1,3,5,7,9,11,13,15,17,-1,19,21,23,25,-1,27,29,-1,-1,31,33,35,37,39,41,-1,43,45,47,-1,49,-1,51,-1,53,-1,-1,55,-1,57,-1,-1,59,-1,-1,-1,-1,-1,-1,-1,-1,-1,-1,-1,-1,-1,-1,-1,-1,-1,-1],"loss_changes":[2.6104581E0,6.733446E-1,1.4475963E0,3.0587912E-1,1.2259195E0,7.943611E-1,1.8785758E0,9.98621E-2,6.579861E-1,0E0,1.8616534E0,1.0490961E0,7.127105E-1,1.5288241E0,0E0,2.4853897E-1,1.1459589E-1,0E0,0E0,3.8744983E-1,1.4709822E0,8.9695597E-1,3.781924E-1,1.0607463E-1,1.0274638E0,0E0,3.0418822E-1,2.4647784E-1,3.589286E-1,0E0,3.8862705E-2,0E0,5.0684845E-1,0E0,8.682069E-1,0E0,0E0,6.284097E-1,0E0,1.2644678E-1,0E0,0E0,4.2559528E-1,0E0,0E0,0E0,0E0,0E0,0E0,0E0,0E0,0E0,0E0,0E0,0E0,0E0,0E0,0E0,0E0,0E0,0E0],"parents":[2147483647,0,0,1,1,2,2,3,3,4,4,5,5,6,6,7,7,8,8,10,10,11,11,12,12,13,13,15,15,16,16,19,19,20,20,21,21,22,22,23,23,24,24,26,26,27,27,28,28,30,30,32,32,34,34,37,37,39,39,42,42],"right_children":[2,4,6,8,10,12,14,16,18,-1,20,22,24,26,-1,28,30,-1,-1,32,34,36,38,40,42,-1,44,46,48,-1,50,-1,52,-1,54,-1,-1,56,-1,58,-1,-1,60,-1,-1,-1,-1,-1,-1,-1,-1,-1,-1,-1,-1,-1,-1,-1,-1,-1,-1],"split_conditions":[9.2E-1,2.61E2,3.8813333E2,3.72E2,1E0,-1.3E1,3.82E1,6.2186356E1,4E0,-1.0469455E0,1.77E2,2.61E2,6.8E1,8.574741E1,3.7555206E0,2.78E2,1E0,1.7621415E0,-2.8057761E0,2.5553334E2,2.74E2,1.2846844E2,8.21E1,3.89E1,7.78E1,3.191089E0,4.196E2,1E0,5E0,1.1446351E0,4.94E1,-3.938843E-1,4E0,2.1704713E-1,1.1E1,3.4023037E0,7.000824E-1,3.95E2,-5.203874E-2,5.3E1,9.4344026E-1,-1.7837866E-1,2.32E2,2.6337616E0,-2.0954719E-1,-2.0120714E0,-6.986944E-1,3.2199708E-1,-5.0708957E0,-1.6720814E-1,-1.9060595E0,-1.0671394E-1,1.555983E-1,6.297196E-1,-3.691941E-1,1.86759E0,2.7006838E-1,-1.4316109E-1,4.3421935E-2,2.60408E-1,6.2618256E-1],"split_indices":[25,36,40,37,33,42,13,41,0,0,3,37,42,41,0,3,29,0,0,40,36,41,14,13,14,0,40,28,0,0,14,0,1,0,29,0,0,36,0,42,0,0,36,0,0,0,0,0,0,0,0,0,0,0,0,0,0,0,0,0,0],"split_type":[0,0,0,0,0,0,0,0,0,0,0,0,0,0,0,0,0,0,0,0,0,0,0,0,0,0,0,0,0,0,0,0,0,0,0,0,0,0,0,0,0,0,0,0,0,0,0,0,0,0,0,0,0,0,0,0,0,0,0,0,0],"sum_hessian":[1.326E3,1.115E3,2.11E2,7.19E2,3.96E2,1.72E2,3.9E1,6.96E2,2.3E1,1.59E2,2.37E2,6.3E1,1.09E2,3.2E1,7E0,