{"learner":{"attributes":{"scikit_learn":"{\"_estimator_type\": \"regressor\"}"},"feature_names":["day_of_week","month","week_of_year","day_of_year","quarter","is_weekend","is_monday","is_friday","is_holiday","is_exam_period","is_semester_break","is_waterlogging","is_normal_day","temperature_c","humidity_pct","heat_index","is_rainy","high_humidity","extreme_heat","weather_discount","is_monsoon","is_winter","is_pre_monsoon","is_post_monsoon","heaviness_num","base_demand_score","consecutive_weeks","sentiment_decay","meal_num","menu_item_encoded","heavy_x_humidity","is_university","capacity","kai_value","academic_stress_factor","lag_7_count","lag_14_count","lag_30_count","rolling_7d_mean","rolling_14d_mean","rolling_30d_mean","rolling_7d_std","wow_change","prev_day_waste_bucket","prev_day_waste_kg"],"feature_types":["int","int","int","int","int","int","int","int","int","int","int","int","int","float","float","float","int","int","int","float","int","int","int","int","int","float","int","float","int","int","int","int","int","float","float","float","float","float","float","float","float","float","float","float","float"],"gradient_booster":{"model":{"cats":{"enc":[],"feature_segments":[],"sorted_idx":[]},"gbtree_model_param":{"num_parallel_tree":"1","num_trees":"400"},"iteration_indptr":[0,1,2,3,4,5,6,7,8,9,10,11,12,13,14,15,16,17,18,19,20,21,22,23,24,25,26,27,28,29,30,31,32,33,34,35,36,37,38,39,40,41,42,43,44,45,46,47,48,49,50,51,52,53,54,55,56,57,58,59,60,61,62,63,64,65,66,67,68,69,70,71,72,73,74,75,76,77,78,79,80,81,82,83,84,85,86,87,88,89,90,91,92,93,94,95,96,97,98,99,100,101,102,103,104,105,106,107,108,109,110,111,112,113,114,115,116,117,118,119,120,121,122,123,124,125,126,127,128,129,130,131,132,133,134,135,136,137,138,139,140,141,142,143,144,145,146,147,148,149,150,151,152,153,154,155,156,157,158,159,160,161,162,163,164,165,166,167,168,169,170,171,172,173,174,175,176,177,178,179,180,181,182,183,184,185,186,187,188,189,190,191,192,193,194,195,196,197,198,199,200,201,202,203,204,205,206,207,208,209,210,211,212,213,214,215,216,217,218,219,220,221,222,223,224,225,226,227,228,229,230,231,232,233,234,235,236,237,238,239,240,241,242,243,244,245,246,247,248,249,250,251,252,253,254,255,256,257,258,259,260,261,262,263,264,265,266,267,268,269,270,271,272,273,274,275,276,277,278,279,280,281,282,283,284,285,286,287,288,289,290,291,292,293,294,295,296,297,298,299,300,301,302,303,304,305,306,307,308,309,310,311,312,313,314,315,316,317,318,319,320,321,322,323,324,325,326,327,328,329,330,331,332,333,334,335,336,337,338,339,340,341,342,343,344,345,346,347,348,349,350,351,352,353,354,355,356,357,358,359,360,361,362,363,364,365,366,367,368,369,370,371,372,373,374,375,376,377,378,379,380,381,382,383,384,385,386,387,388,389,390,391,392,393,394,395,396,397,398,399,400],"tree_info":[0,0,0,0,0,0,0,0,0,0,0,0,0,0,0,0,0,0,0,0,0,0,0,0,0,0,0,0,0,0,0,0,0,0,0,0,0,0,0,0,0,0,0,0,0,0,0,0,0,0,0,0,0,0,0,0,0,0,0,0,0,0,0,0,0,0,0,0,0,0,0,0,0,0,0,0,0,0,0,0,0,0,0,0,0,0,0,0,0,0,0,0,0,0,0,0,0,0,0,0,0,0,0,0,0,0,0,0,0,0,0,0,0,0,0,0,0,0,0,0,0,0,0,0,0,0,0,0,0,0,0,0,0,0,0,0,0,0,0,0,0,0,0,0,0,0,0,0,0,0,0,0,0,0,0,0,0,0,0,0,0,0,0,0,0,0,0,0,0,0,0,0,0,0,0,0,0,0,0,0,0,0,0,0,0,0,0,0,0,0,0,0,0,0,0,0,0,0,0,0,0,0,0,0,0,0,0,0,0,0,0,0,0,0,0,0,0,0,0,0,0,0,0,0,0,0,0,0,0,0,0,0,0,0,0,0,0,0,0,0,0,0,0,0,0,0,0,0,0,0,0,0,0,0,0,0,0,0,0,0,0,0,0,0,0,0,0,0,0,0,0,0,0,0,0,0,0,0,0,0,0,0,0,0,0,0,0,0,0,0,0,0,0,0,0,0,0,0,0,0,0,0,0,0,0,0,0,0,0,0,0,0,0,0,0,0,0,0,0,0,0,0,0,0,0,0,0,0,0,0,0,0,0,0,0,0,0,0,0,0,0,0,0,0,0,0,0,0,0,0,0,0,0,0,0,0,0,0,0,0,0,0,0,0,0,0,0,0,0,0,0,0,0,0,0,0,0,0,0,0,0,0,0,0,0,0,0,0,0,0,0,0,0,0,0,0,0,0,0,0],"trees":[{"base_weights":[-7.558579E-4,-3.1811488E-1,3.3333334E-1,-3.9768684E-1,6.355932E-2,-4.1666666E-1,4.0118244E-1,-4.4354838E-1,-2.4031007E-1,-4.2647058E-1,2.5882354E-1,-2.4418605E-2,-1.25E-1,-4.1666668E-2,4.290844E-1,-3.7575758E-1,-4.8333332E-1,-4.262295E-1,-7.2463766E-2,-4.166667E-3,-2.4137931E-2,1.3392857E-1,2.4166666E-2,-2.1428572E-2,1.25E-2,-3.75E-1,3.529412E-1,3.1746033E-1,4.8509485E-1,-4.379085E-1,1.923077E-2,-4.90458E-1,-1.1111111E-2,-2.4375001E-2,-2.9545453E-1,2.6666668E-1,-1.6363636E-1,1.9E-1,-1.4285715E-2,-2.3333333E-2,-4.166667E-3,2.2916667E-2,4.166667E-3,-1.7857143E-1,3.5511363E-1,7.1428576E-3,4.903581E-1,-8.653847E-3,-2.4414062E-2,-2.4708172E-2,-1.25E-2,-2.0000001E-2,-3.125E-3,2.2222223E-2,-0E0,-1.15E-2,2.0833334E-2,1.8269232E-2,-0E0,-0E0,-2.0833334E-2,-1.25E-2,1.871345E-2,1.4285715E-2,2.464986E-2],"categories":[],"categories_nodes":[],"categories_segments":[],"categories_sizes":[],"default_left":[0,0,0,0,0,0,0,0,0,0,0,0,0,0,0,0,0,0,0,0,0,0,0,0,0,0,0,0,0,0,0,0,0,0,0,0,0,0,0,0,0,0,0,0,0,0,0,0,0,0,0,0,0,0,0,0,0,0,0,0,0,0,0,0,0],"id":0,"left_children":[1,3,5,7,9,11,13,15,17,19,21,-1,23,25,27,29,31,33,35,-1,-1,37,-1,-1,-1,39,41,43,45,47,-1,49,-1,-1,51,53,55,57,-1,-1,-1,-1,-1,59,61,-1,63,-1,-1,-1,-1,-1,-1,-1,-1,-1,-1,-1,-1,-1,-1,-1,-1,-1,-1],"loss_changes":[1.4037872E2,2.0646889E1,3.2989166E1,3.949669E0,1.1401246E1,1.0683136E0,7.33284E0,9.8890686E-1,3.9946737E0,6.1646366E-1,2.3186798E0,0E0,1.4732143E0,4.867647E0,3.3284225E0,7.965975E0,3.932953E-1,3.4473705E-1,2.1770751E0,0E0,0E0,1.3719643E0,0E0,0E0,0E0,4.958334E-1,4.4485283E-1,3.5934124E0,5.946274E-1,1.9565563E0,0E0,1.0990143E-1,0E0,0E0,5.107956E-1,7.1111107E-1,2.2139392E0,1.6661538E0,0E0,0E0,0E0,0E0,0E0,5.952381E-1,2.1336136E0,0E0,5.519104E-2,0E0,0E0,0E0,0E0,0E0,0E0,0E0,0E0,0E0,0E0,0E0,0E0,0E0,0E0,0E0,0E0,0E0,0E0],"parents":[2147483647,0,0,1,1,2,2,3,3,4,4,5,5,6,6,7,7,8,8,9,9,10,10,12,12,13,13,14,14,15,15,16,16,17,17,18,18,21,21,25,25,26,26,27,27,28,28,29,29,31,31,34,34,35,35,36,36,37,37,43,43,44,44,46,46],"right_children":[2,4,6,8,10,12,14,16,18,20,22,-1,24,26,28,30,32,34,36,-1,-1,38,-1,-1,-1,40,42,44,46,48,-1,50,-1,-1,52,54,56,58,-1,-1,-1,-1,-1,60,62,-1,64,-1,-1,-1,-1,-1,-1,-1,-1,-1,-1,-1,-1,-1,-1,-1,-1,-1,-1],"split_conditions":[2.41E2,2.43E2,6.8E-1,2.04E2,8.5E-1,1E0,7.8E-1,5E0,1.6663333E2,5E0,2.94E2,-5.5E0,2.77E2,2.5014285E2,2.73E2,1.9971428E2,2.7683334E2,2.08E2,1.7714285E2,-1.525E0,-4.425E0,5E0,5.725E0,-2.6000001E0,4.25E-1,3.41E1,8.29E1,7.65E-1,2.46E2,1.25E2,2.2250001E0,2.06E2,-5.225E0,-2.175E0,2.1E1,3.26E1,3.2142856E2,8.45E1,-7.25E-1,-8.25E-1,-2.75E-1,3.125E0,7.5E-2,1E0,1.6964285E2,2.05E0,1.892E2,-9.25E-1,-2.4750001E0,-9.725E0,-3.325E0,-1.275E0,-5.75E-1,1.75E0,-7.5E-2,-1.025E0,5.775E0,1.375E0,0E0,1.25E-1,-1.1750001E0,-7.5E-2,1.775E0,1.4E0,5.375E0],"split_indices":[35,36,33,35,33,11,25,0,40,1,36,0,36,38,36,38,40,36,39,0,0,0,0,0,0,13,14,33,35,35,0,36,0,0,2,13,38,14,0,0,0,0,0,0,39,0,40,0,0,0,0,0,0,0,0,0,0,0,0,0,0,0,0,0,0],"split_type":[0,0,0,0,0,0,0,0,0,0,0,0,0,0,0,0,0,0,0,0,0,0,0,0,0,0,0,0,0,0,0,0,0,0,0,0,0,0,0,0,0,0,0,0,0,0,0,0,0,0,0,0,0,0,0,0,0,0,0,0,0,0,0,0,0],"sum_hessian":[1.322E3,6.78E2,6.44E2,5.61E2,1.17E2,5.3E1,5.91E2,4.33E2,1.28E2,3.3E1,8.4E1,4.2E1,1.1E1,3.5E1,5.56E2,1.64E2,2.69E2,6E1,6.8E1,5E0,2.8E1,5.5E1,2.9E1,6E0,5E0,1.9E1,1.6E1,1.88E2,3.68E2,1.52E2,1.2E1,2.61E2,8E0,3.9E1,2.1E1,1.4E1,5.4E1,4.9E1,6E0,1.4E1,5E0,1.1E1,5E0,1.3E1,1.75E2,6E0,3.62E2,2.5E1,1.27E2,2.56E2,5E0,1.4E1,7E0,8E0,6E0,4.9E1,5E0,2.5E1,2.4E1,8E0,5E0,5E0,1.7E2,6E0,3.56E2],"tree_param":{"num_deleted":"0","num_feature":"45","num_nodes":"65","size_leaf_vector":"1"}},{"base_weights":[-1.37509545E-2,-2.901662E-1,3.256803E-1,-4.6153846E-1,-1.6863208E-1,-4.375E-1,4.052533E-1,-4.801762E-1,-3.9726028E-1,7.9896905E-2,-3.7662336E-1,-2.4489796E-2,-3.125E-3,1.590909E-1,4.3910256E-1,-2.4617348E-2,-3.90625E-1,-4.166667E-3,-4.1911766E-1,-4.021739E-1,2.2818792E-1,-4.2009133E-1,1.923077E-2,-1.9444445E-1,2.857143E-1,1.3235295E-1,4.6206897E-1,-5.5555557E-3,-2.3958333E-2,-7.1428576E-3,-4.4354838E-1,-2.4166666E-2,-2.3529412E-1,6.0240965E-2,4.3283582E-1,-4.5967743E-1,-1.9117647E-1,-1.875E-2,7.1428576E-3,3.690476E-1,-9.375E-3,-1.5789473E-1,2.34375E-2,9.375E-2,4.75E-1,-2.2807017E-2,-1.25E-2,3.125E-3,-2.2499999E-2,-1.9642858E-2,7.5000003E-3,1.1764706E-2,2.4509804E-2,-2.372159E-2,-9.09091E-3,4.545455E-3,-1.5625E-2,2.1527778E-2,-0E0,7.5000003E-3,-2.2499999E-2,-2.0833334E-2,1.818182E-2,2.025E-2,2.4766356E-2],"categories":[],"categories_nodes":[],"categories_segments":[],"categories_sizes":[],"default_left":[0,0,0,0,0,0,0,0,0,0,0,0,0,0,0,0,0,0,0,0,0,0,0,0,0,0,0,0,0,0,0,0,0,0,0,0,0,0,0,0,0,0,0,0,0,0,0,0,0,0,0,0,0,0,0,0,0,0,0,0,0,0,0,0,0],"id":1,"left_children":[1,3,5,7,9,11,13,15,17,19,21,-1,-1,23,25,-1,27,-1,29,31,33,35,-1,37,39,41,43,-1,-1,-1,45,-1,47,49,51,53,55,-1,-1,57,-1,59,-1,61,63,-1,-1,-1,-1,-1,-1,-1,-1,-1,-1,-1,-1,-1,-1,-1,-1,-1,-1,-1,-1],"loss_changes":[1.2291007E2,1.4959675E1,3.5885685E1,1.6744995E-1,2.1947445E1,1.0676022E0,4.3713303E0,5.508423E-2,4.6597195E-1,1.3960204E1,7.8052444E0,0E0,0E0,3.0101008E0,3.2358704E0,0E0,7.387152E-1,0E0,3.9558506E-1,5.092921E-1,5.0950537E0,1.8966599E0,0E0,1.1498016E0,2.0014882E0,3.393721E0,2.0272598E0,0E0,0E0,0E0,3.7068367E-2,0E0,1.1150737E0,3.4345095E0,6.4383984E-1,6.7627335E-1,1.192012E0,0E0,0E0,9.5337296E-1,0E0,1.7763158E0,0E0,2.355587E0,3.9701843E-1,0E0,0E0,0E0,0E0,0E0,0E0,0E0,0E0,0E0,0E0,0E0,0E0,0E0,0E0,0E0,0E0,0E0,0E0,0E0,0E0],"parents":[2147483647,0,0,1,1,2,2,3,3,4,4,5,5,6,6,7,7,8,8,9,9,10,10,13,13,14,14,16,16,18,18,19,19,20,20,21,21,23,23,24,24,25,25,26,26,30,30,32,32,33,33,34,34,35,35,36,36,39,39,41,41,43,43,44,44],"right_children":[2,4,6,8,10,12,14,16,18,20,22,-1,-1,24,26,-1,28,-1,30,32,34,36,-1,38,40,42,44,-1,-1,-1,46,-1,48,50,52,54,56,-1,-1,58,-1,60,-1,62,64,-1,-1,-1,-1,-1,-1,-1,-1,-1,-1,-1,-1,-1,-1,-1,-1,-1,-1,-1,-1],"split_conditions":[2.55E2,1.7271428E2,6.8E-1,8.8E-1,5E0,1E0,1.9978572E2,1.6514285E2,6.1E1,7.5E-1,3.382857E2,-4.8E0,-4.9625015E-1,9E-1,7.65E-1,-3.5012498E0,9.362311E1,-5.6624985E-1,4E-1,8.7E-1,2.1914285E2,2.7683334E2,3.1362503E0,2E0,1.9642857E2,8.7E-1,7.8E-1,-1.3587497E0,-9.2387495E0,-4.8374978E-1,9.55E1,-3.6612504E0,1.37E2,7.8E-1,2.1913333E2,2.05E2,3.16E2,-2.0337503E0,2.7687493E-1,1.9771428E2,-9.375E-2,2.62E1,5.3562503E0,2.4607143E2,2.93E2,-2.3262498E0,-3.2012498E0,1.7874984E-1,-4.9500003E0,-7.837502E-1,5.362503E-1,7.5625E-1,5.1E0,-8.53875E0,-1.6362499E0,1.3125001E-1,-1.1637497E0,1.55625E0,3.456253E-1,1.50625E0,-6.9375E-1,-1.0612503E0,1.96875E0,1.8862504E0,5.50625E0],"split_indices":[36,38,33,25,0,11,39,38,3,33,38,0,0,33,33,0,41,0,34,25,38,40,0,30,39,25,25,0,0,0,14,0,3,25,40,36,37,0,0,38,0,44,0,39,36,0,0,0,0,0,0,0,0,0,0,0,0,0,0,0,0,0,0,0,0],"split_type":[0,0,0,0,0,0,0,0,0,0,0,0,0,0,0,0,0,0,0,0,0,0,0,0,0,0,0,0,0,0,0,0,0,0,0,0,0,0,0,0,0,0,0,0,0,0,0,0,0,0,0,0,0,0,0,0,0,0,0,0,0,0,0,0,0],"sum_hessian":[1.308E3,7.21E2,5.87E2,2.98E2,4.23E2,5.5E1,5.32E2,2.26E2,7.2E1,1.93E2,2.3E2,4.8E1,7E0,6.5E1,4.67E2,1.95E2,3.1E1,5E0,6.7E1,4.5E1,1.48E2,2.18E2,1.2E1,1.7E1,4.8E1,3.3E1,4.34E2,8E0,2.3E1,6E0,6.1E1,2.9E1,1.6E1,8.2E1,6.6E1,1.85E2,3.3E1,1.1E1,6E0,4.1E1,7E0,1.8E1,1.5E1,1.5E1,4.19E2,5.6E1,5E0,7E0,9E0,1.3E1,6.9E1,1.6E1,5E1,1.75E2,1E1,1E1,2.3E1,3.5E1,6E0,9E0,9E0,5E0,1E1,9.9E1,3.2E2],"tree_param":{"num_deleted":"0","num_feature":"45","num_nodes":"65","size_leaf_vector":"1"}},{"base_weights":[4.6260604E-3,-2.882263E-1,3.0201864E-1,-3.5408923E-1,1.7094018E-2,-1.5625E-1,3.977486E-1,-4.3218085E-1,-1.7177914E-1,-3.28125E-1,1.4534883E-1,-3.2786885E-1,4.8076924E-2,-9.615385E-2,4.222441E-1,-4.4204852E-1,1.25E-2,-3.7903225E-1,-4.411765E-2,-4.318182E-1,-9.090909E-2,2.1153846E-1,-2.2222223E-2,-5.263158E-2,-4.4186047E-1,1.627907E-1,-2.2499999E-2,-3.4375E-1,2.7272728E-1,2.5943395E-1,4.6401986E-1,-4.770318E-1,-3.258427E-1,-4.4444445E-1,-1.9444445E-1,-2.3076924E-2,1.6666668E-2,-2.3529412E-2,-1.25E-2,-2.0833334E-2,1.25E-2,3.3620688E-1,-1.4285715E-1,2.7272728E-1,-2.2222223E-2,-2.4264706E-2,-1.25E-2,2.7027026E-1,-2.1428572E-2,-4.166667E-3,-2.2727273E-2,2.0833334E-2,4.166667E-3,3.2386363E-1,-5.263158E-2,4.8174158E-1,3.2291666E-1,-2.4898374E-2,-1.6447369E-2,-3.7037039E-3,-2.1428572E-2,-2.3125E-2,-1.25E-2,-0E0,-2.1875E-2,-3.7313432E-3,1.3541668E-2,7.2916667E-3,2.2857143E-2,-1.9642858E-2,1.5625E-2,2.0833334E-2,4.166667E-3,-4.545455E-3,2.037037E-2,1.835443E-2,-2.5000002E-3,1.25E-2,-1.75E-2,2.4357144E-2,7.1428576E-3,-3.846154E-3,2.2916667E-2],"categories":[],"categories_nodes":[],"categories_segments":[],"categories_sizes":[],"default_left":[0,0,0,0,0,0,0,0,0,0,0,0,0,0,0,0,0,0,0,0,0,0,0,0,0,0,0,0,0,0,0,0,0,0,0,0,0,0,0,0,0,0,0,0,0,0,0,0,0,0,0,0,0,0,0,0,0,0,0,0,0,0,0,0,0,0,0,0,0,0,0,0,0,0,0,0,0,0,0,0,0,0,0],"id":2,"left_children":[1,3,5,7,9,11,13,15,17,19,21,23,25,27,29,31,-1,33,35,37,39,41,-1,43,45,47,-1,49,51,53,55,57,59,61,63,-1,65,-1,-1,-1,-1,67,69,71,-1,-1,-1,73,-1,-1,-1,-1,-1,75,77,79,81,-1,-1,-1,-1,-1,-1,-1,-1,-1,-1,-1,-1,-1,-1,-1,-1,-1,-1,-1,-1,-1,-1,-1,-1,-1,-1],"loss_changes":[1.13045525E2,1.3157524E1,2.8314453E1,7.585205E0,5.2279844E0,3.9431944E0,6.489044E0,2.641571E0,4.2959714E0,7.47869E-1,3.4513018E0,1.8906031E0,3.0443428E0,2.4684222E0,3.3347855E0,1.3527756E0,0E0,6.621866E-1,2.5957015E0,3.7433147E-2,1.3257575E0,3.4942212E0,0E0,2.543328E0,2.3700428E-1,2.8488822E0,0E0,4.23769E-1,2.6515144E-1,2.1483116E0,8.521805E-1,7.13562E-1,2.2701387E0,4.2360306E-2,8.506944E-1,0E0,2.1085508E0,0E0,0E0,0E0,0E0,1.2686677E0,2.513393E0,2.6515144E-1,0E0,0E0,0E0,1.8696878E0,0E0,0E0,0E0,0E0,0E0,1.4404554E0,1.7973684E0,5.8203125E-1,2.6342144E0,0E0,0E0,0E0,0E0,0E0,0E0,0E0,0E0,0E0,0E0,0E0,0E0,0E0,0E0,0E0,0E0,0E0,0E0,0E0,0E0,0E0,0E0,0E0,0E0,0E0,0E0],"parents":[2147483647,0,0,1,1,2,2,3,3,4,4,5,5,6,6,7,7,8,8,9,9,10,10,11,11,12,12,13,13,14,14,15,15,17,17,18,18,19,19,20,20,21,21,23,23,24,24,25,25,27,27,28,28,29,29,30,30,31,31,32,32,33,33,34,34,36,36,41,41,42,42,43,43,47,47,53,53,54,54,55,55,56,56],"right_children":[2,4,6,8,10,12,14,16,18,20,22,24,26,28,30,32,-1,34,36,38,40,42,-1,44,46,48,-1,50,52,54,56,58,60,62,64,-1,66,-1,-1,-1,-1,68,70,72,-1,-1,-1,74,-1,-1,-1,-1,-1,76,78,80,82,-1,-1,-1,-1,-1,-1,-1,-1,-1,-1,-1,-1,-1,-1,-1,-1,-1,-1,-1,-1,-1,-1,-1,-1,-1,-1],"split_conditions":[2.42E2,4.7E1,1E0,2.02E2,1.9228572E2,2.5642856E2,7.8E-1,2.8985715E2,1.6385715E2,8.8E-1,1E0,6E2,1E0,2.5257143E2,2.1603334E2,6E2,5.079438E0,8.7E-1,7.8E-1,2.06E2,2E0,5E0,-5.8169374E0,1E0,3.72E1,6.1E1,-4.5099998E0,6.51E1,3E0,8.94E1,5E0,1.86E2,5E0,9.33E1,2.26E2,-1.9344376E0,1.6E1,-3.2336872E0,-1.980629E-1,-5.3793716E-1,1.7856216E-1,2.3557143E2,2.8357144E2,1.5E2,-8.915343E0,-4.46375E0,-2.1970627E0,3.41E2,-2.56E0,-1.4456253E-1,-8.694378E-1,2.3703125E0,1.4703125E0,1E0,1.98E2,1E0,3.49E2,-9.011812E0,-1.8761872E0,-1.4618748E0,-2.811812E0,-2.4761872E0,-2.5261872E0,-1.3493729E-1,-1.0299377E0,-3.399372E-1,7.5943756E-1,4.484375E-1,3.30625E0,-1.5968125E0,6.796875E-1,1.2284378E0,4.284378E-1,-1.1453094E-1,4.1846876E0,1.0876874E0,-8.9062504E-2,4.1490632E-1,-7.349373E-1,4.8309374E0,1.7285622E0,-4.260624E-1,2.6309373E0],"split_indices":[36,42,34,36,38,38,25,38,38,25,8,32,8,38,40,32,0,25,25,36,29,0,0,8,13,42,0,14,0,14,0,36,0,14,36,0,29,0,0,0,0,38,39,3,0,0,0,36,0,0,0,0,0,26,37,11,37,0,0,0,0,0,0,0,0,0,0,0,0,0,0,0,0,0,0,0,0,0,0,0,0,0,0],"split_type":[0,0,0,0,0,0,0,0,0,0,0,0,0,0,0,0,0,0,0,0,0,0,0,0,0,0,0,0,0,0,0,0,0,0,0,0,0,0,0,0,0,0,0,0,0,0,0,0,0,0,0,0,0,0,0,0,0,0,0,0,0,0,0,0,0,0,0,0,0,0,0,0,0,0,0,0,0,0,0,0,0,0,0],"sum_hessian":[1.296E3,6.53E2,6.43E2,5.37E2,1.16E2,1.11E2,5.32E2,3.75E2,1.62E2,3.1E1,8.5E1,6E1,5.1E1,2.5E1,5.07E2,3.7E2,5E0,6.1E1,1.01E2,2.1E1,1E1,7.7E1,8E0,1.8E1,4.2E1,4.2E1,9E0,1.5E1,1E1,1.05E2,4.02E2,2.82E2,8.8E1,4.4E1,1.7E1,1.2E1,8.9E1,1.6E1,5E0,5E0,5E0,5.7E1,2E1,1E1,8E0,3.3E1,9E0,3.6E1,6E0,5E0,1E1,5E0,5E0,8.7E1,1.8E1,3.55E2,4.7E1,2.45E2,3.7E1,2.6E1,6.2E1,3.9E1,5E0,1E1,7E0,6.6E1,2.3E1,2.3E1,3.4E1,1.3E1,7E0,5E0,5E0,1E1,2.6E1,7.8E1,9E0,9E0,9E0,3.49E2,6E0,1.2E1,3.5E1],"tree_param":{"num_deleted":"0","num_feature":"45","num_nodes":"83","size_leaf_vector":"1"}},{"base_weights":[3.773585E-3,-2.493421E-1,3.4363958E-1,-3.4634975E-1,8.430233E-2,-4.2857143E-1,4.1602316E-1,-4.1103604E-1,-1.4726028E-1,-4.2647058E-1,2.086331E-1,-2.4418605E-2,-0E0,-1.923077E-2,4.3813387E-1,-2.4876848E-2,-3.3677685E-1,-3.529412E-1,-3.6458332E-2,-4.166667E-3,-2.4137931E-2,-3.3333334E-1,2.72E-1,-2.5E-1,2.2222223E-2,1.4583333E-1,4.5212767E-1,-4.074074E-1,-8.3333336E-2,4.166667E-3,-4.021739E-1,-2.0192307E-1,1.5555556E-1,-4.166667E-3,-2.2499999E-2,3.5326087E-1,4.411765E-2,3.125E-3,-2.2727273E-2,2.631579E-1,-1.25E-2,2.5000002E-3,4.5986986E-1,9.375E-3,-2.1565935E-2,2.5641026E-3,-2.0312501E-2,-6.25E-3,-2.4285715E-2,-3.4482758E-3,-1.7708333E-2,-1.3333335E-2,1.7741935E-2,-7.1428576E-3,1.9476745E-2,-1.6666668E-2,1.625E-2,2.2916667E-2,-3.125E-3,2.3190789E-2,4.166667E-3],"categories":[],"categories_nodes":[],"categories_segments":[],"categories_sizes":[],"default_left":[0,0,0,0,0,0,0,0,0,0,0,0,0,0,0,0,0,0,0,0,0,0,0,0,0,0,0,0,0,0,0,0,0,0,0,0,0,0,0,0,0,0,0,0,0,0,0,0,0,0,0,0,0,0,0,0,0,0,0,0,0],"id":3,"left_children":[1,3,5,7,9,11,13,15,17,19,21,-1,-1,23,25,-1,27,29,31,-1,-1,33,35,37,-1,39,41,43,45,-1,47,49,51,-1,-1,53,55,-1,-1,57,-1,-1,59,-1,-1,-1,-1,-1,-1,-1,-1,-1,-1,-1,-1,-1,-1,-1,-1,-1,-1],"loss_changes":[1.1406936E2,2.4627403E1,3.1815094E1,7.524826E0,1.10118E1,1.2558136E0,4.993538E0,2.6844711E0,3.314449E0,6.1646366E-1,4.8643074E0,0E0,0E0,2.8931623E0,1.9506226E0,0E0,4.2980576E0,1.128943E0,3.081477E0,0E0,0E0,4.000002E-1,2.2991543E0,1.1789773E0,0E0,1.1803727E0,1.4402847E0,2.7693958E0,2.368189E0,0E0,1.0044255E0,1.0281556E0,3.8810036E0,0E0,0E0,1.711298E0,3.7129903E0,0E0,0E0,1.2362938E0,0E0,0E0,6.4629364E-1,0E0,0E0,0E0,0E0,0E0,0E0,0E0,0E0,0E0,0E0,0E0,0E0,0E0,0E0,0E0,0E0,0E0,0E0],"parents":[2147483647,0,0,1,1,2,2,3,3,4,4,5,5,6,6,7,7,8,8,9,9,10,10,13,13,14,14,16,16,17,17,18,18,21,21,22,22,23,23,25,25,26,26,27,27,28,28,30,30,31,31,32,32,35,35,36,36,39,39,42,42],"right_children":[2,4,6,8,10,12,14,16,18,20,22,-1,-1,24,26,-1,28,30,32,-1,-1,34,36,38,-1,40,42,44,46,-1,48,50,52,-1,-1,54,56,-1,-1,58,-1,-1,60,-1,-1,-1,-1,-1,-1,-1,-1,-1,-1,-1,-1,-1,-1,-1,-1,-1,-1],"split_conditions":[2.57E2,2.43E2,6.8E-1,2.05E2,7.5E-1,4.36E2,7.8E-1,9E1,1.601E2,1.21E2,7.8E-1,-4.3345003E0,5.0670626E-3,3.27E2,1.9385715E2,-8.726222E0,1E0,5.2E1,1E0,-5.542092E-1,-3.4440312E0,2.35E2,1E0,1.71E2,2.983711E0,5.9E1,4.0991287E1,1.11E2,2.11E2,3.2380906E-1,1.63E1,2.1628572E2,1.3E1,-8.973343E-1,-9.104843E-1,2.27E1,1.9814285E2,3.1812516E-1,-5.2609104E-1,4.184E1,-7.6298445E-1,7.039108E-2,1E0,7.194061E-1,-2.434347E0,2.944191E-1,-1.7099411E0,-1.3923157E0,-1.4384403E0,-2.6953432E-1,-2.2298157E0,-8.260498E-1,1.9297799E0,-1.3910905E-1,1.8740532E0,-1.319331E0,5.8493423E-1,6.2605286E-1,-4.5946505E-2,4.239391E0,8.984375E-1],"split_indices":[35,36,33,35,33,35,25,36,40,3,25,0,0,35,38,0,28,3,33,0,0,35,30,3,0,42,41,36,36,0,44,38,2,0,0,13,38,0,0,15,0,0,11,0,0,0,0,0,0,0,0,0,0,0,0,0,0,0,0,0,0],"split_type":[0,0,0,0,0,0,0,0,0,0,0,0,0,0,0,0,0,0,0,0,0,0,0,0,0,0,0,0,0,0,0,0,0,0,0,0,0,0,0,0,0,0,0,0,0,0,0,0,0,0,0,0,0,0,0,0,0,0,0,0,0],"sum_hessian":[1.324E3,7.59E2,5.65E2,5.88E2,1.71E2,4.8E1,5.17E2,4.43E2,1.45E2,3.3E1,1.38E2,4.2E1,6E0,2.5E1,4.92E2,2.02E2,2.41E2,5E1,9.5E1,5E0,2.8E1,1.4E1,1.24E2,1.7E1,8E0,2.3E1,4.69E2,1.88E2,5.3E1,5E0,4.5E1,5.1E1,4.4E1,5E0,9E0,9.1E1,3.3E1,7E0,1E1,1.8E1,5E0,9E0,4.6E2,7E0,1.81E2,3.8E1,1.5E1,1.1E1,3.4E1,2.8E1,2.3E1,1.4E1,3E1,6E0,8.5E1,1.4E1,1.9E1,1.1E1,7E0,4.55E2,5E0],"tree_param":{"num_deleted":"0","num_feature":"45","num_nodes":"61","size_leaf_vector":"1"}},{"base_weights":[1.1380881E-3,-2.8244838E-1,3.0109206E-1,-3.8173077E-1,4.4025157E-2,-1.6455697E-1,3.6589697E-1,-2.486911E-2,-3.1363636E-1,-2.3913044E-2,1.3138686E-1,1.7105263E-1,-4.642857E-1,2.3854962E-1,4.7516558E-1,-3.9102563E-1,-1.2371134E-1,1.6538462E-1,-2.1875E-2,3.7931034E-1,-2.2499999E-2,-2.4324326E-2,-1.25E-2,-2.6086956E-1,2.8541666E-1,3.7254903E-1,2.4702381E-2,-3.125E-3,-4.0088105E-1,-4.4444445E-1,-0E0,3.4722224E-2,3.220339E-1,-4.166667E-3,2.3958333E-2,2.5000002E-3,-2.3214286E-2,-1.6666668E-2,3.270142E-1,1.3333334E-1,4.5945945E-1,-1.3513513E-2,-2.1204188E-2,-1.25E-2,-2.3863636E-2,2.2499999E-2,-3.6290323E-3,5.5555557E-3,-2.2499999E-2,4.166667E-3,2.0833334E-2,-2.2222223E-2,7.954545E-3,7.8125E-3,1.875E-2,1.75E-2,-1.25E-2,1.25E-2,2.4218751E-2],"categories":[],"categories_nodes":[],"categories_segments":[],"categories_sizes":[],"default_left":[0,0,0,0,0,0,0,0,0,0,0,0,0,0,0,0,0,0,0,0,0,0,0,0,0,0,0,0,0,0,0,0,0,0,0,0,0,0,0,0,0,0,0,0,0,0,0,0,0,0,0,0,0,0,0,0,0,0,0],"id":4,"left_children":[1,3,5,7,9,11,13,-1,15,-1,17,19,21,23,25,27,29,31,-1,33,-1,-1,-1,35,37,39,-1,-1,41,43,45,47,49,-1,-1,-1,-1,51,53,55,57,-1,-1,-1,-1,-1,-1,-1,-1,-1,-1,-1,-1,-1,-1,-1,-1,-1,-1],"loss_changes":[1.1219792E2,2.199287E1,1.940326E1,3.9391174E0,7.317657E0,8.026174E0,7.720833E0,0E0,4.802017E0,0E0,2.7220554E0,5.085572E0,7.818508E-2,6.206909E0,4.011078E-1,7.325783E-1,3.8487973E0,2.6496804E0,0E0,1.3796692E0,0E0,0E0,0E0,1.4776398E0,3.0212708E0,9.9904585E-1,0E0,0E0,5.7331085E-1,5.3030014E-2,2.351613E0,2.7159722E0,1.2980223E0,0E0,0E0,0E0,0E0,2.3262625E0,1.6703949E0,1.3333334E0,7.200146E-2,0E0,0E0,0E0,0E0,0E0,0E0,0E0,0E0,0E0,0E0,0E0,0E0,0E0,0E0,0E0,0E0,0E0,0E0],"parents":[2147483647,0,0,1,1,2,2,3,3,4,4,5,5,6,6,8,8,10,10,11,11,12,12,13,13,14,14,15,15,16,16,17,17,19,19,23,23,24,24,25,25,28,28,29,29,30,30,31,31,32,32,37,37,38,38,39,39,40,40],"right_children":[2,4,6,8,10,12,14,-1,16,-1,18,20,22,24,26,28,30,32,-1,34,-1,-1,-1,36,38,40,-1,-1,42,44,46,48,50,-1,-1,-1,-1,52,54,56,58,-1,-1,-1,-1,-1,-1,-1,-1,-1,-1,-1,-1,-1,-1,-1,-1,-1,-1],"split_conditions":[2.42E2,2.29E2,7.2E-1,7.6E1,1.7271428E2,1E0,3.07E2,-8.28241E0,1E0,-1.7006272E0,1E0,1E0,4.674E1,7.8E-1,3.27E2,1.08E2,1E0,8.5E-1,-5.5146E0,2.58E2,-7.745781E0,-3.916525E0,-1.5322533E0,1.77E2,1E0,8.2E-1,5.2274218E0,-3.6926118E-1,1.22E1,2E0,2E0,5E0,1.9857143E2,-2.956871E-1,4.707968E0,5.522591E-1,-6.416916E-1,1E0,1.9871428E2,3.44E1,2.36E2,-1.5961335E0,-2.0672703E0,-4.966881E0,-4.194719E0,6.167122E0,-1.8781738E-1,3.592163E-1,-1.405481E0,1.0177078E-1,2.5539682E0,-1.9322602E0,1.788208E-1,4.6012804E-1,1.5884217E0,9.653496E-1,-5.2649844E-1,2.1281877E0,2.7274215E0],"split_indices":[36,35,34,36,38,31,36,0,28,0,8,8,15,25,36,36,12,25,0,35,0,0,0,3,12,25,0,0,44,0,28,0,38,0,0,0,0,28,39,13,35,0,0,0,0,0,0,0,0,0,0,0,0,0,0,0,0,0,0],"split_type":[0,0,0,0,0,0,0,0,0,0,0,0,0,0,0,0,0,0,0,0,0,0,0,0,0,0,0,0,0,0,0,0,0,0,0,0,0,0,0,0,0,0,0,0,0,0,0,0,0,0,0,0,0,0,0,0,0,0,0],"sum_hessian":[1.317E3,6.77E2,6.4E2,5.19E2,1.58E2,7.8E1,5.62E2,1.9E2,3.29E2,2.2E1,1.36E2,3.7E1,4.1E1,2.61E2,3.01E2,2.33E2,9.6E1,1.29E2,7E0,2.8E1,9E0,3.6E1,5E0,2.2E1,2.39E2,5E1,2.51E2,7E0,2.26E2,2.6E1,7E1,7.1E1,5.8E1,5E0,2.3E1,9E0,1.3E1,2.9E1,2.1E2,1.4E1,3.6E1,3.6E1,1.9E2,5E0,2.1E1,9E0,6.1E1,6.2E1,9E0,1.7E1,4.1E1,8E0,2.1E1,4.7E1,1.63E2,9E0,5E0,5E0,3.1E1],"tree_param":{"num_deleted":"0","num_feature":"45","num_nodes":"59","size_leaf_vector":"1"}},{"base_weights":[-2.6119403E-3,-3.0044842E-1,2.9389882E-1,-3.6827958E-1,4.017857E-2,-4.2372882E-1,3.6237785E-1,-4.2087156E-1,-1.7886178E-1,-2.5454545E-1,3.1896552E-1,-4.537037E-1,-4.166667E-3,2E-1,4.4875E-1,-3.256579E-1,-4.7017545E-1,-2.9213482E-1,1.14285715E-1,-2.4E-2,-6.451613E-2,4.431818E-1,-6.666667E-2,-2.4390245E-2,-3.2142857E-1,-3.0555555E-1,2.4494949E-1,-3.5714287E-2,4.651163E-1,1.5625E-2,-3.586207E-1,-4.8664123E-1,-2.7083334E-1,-1.5384616E-1,-3.9215687E-1,-1.923077E-2,2.2499999E-2,-1.818182E-2,9.52381E-2,3.0769232E-1,2.4218751E-2,-1.25E-2,1.25E-2,-2.2222223E-2,-4.166667E-3,-3.125E-3,-2.2727273E-2,-2.7272728E-1,2.7393618E-1,1.1111111E-2,-2.0833334E-2,2.8333333E-1,4.7905028E-1,-1.9107144E-2,1.25E-2,-2.4509804E-2,-1.5625E-2,-2.2727273E-2,-5.357143E-3,-1.2121213E-2,1.4285715E-2,-2.1195652E-2,-4.166667E-3,1.0000001E-2,-1.4583333E-2,-3.3333336E-3,2.1428572E-2,4.166667E-3,2.1875E-2,-4.166667E-3,-2.0833334E-2,1.637324E-2,5.3191492E-3,-0E0,2.3611112E-2,1.5384616E-2,2.4205202E-2],"categories":[],"categories_nodes":[],"categories_segments":[],"categories_sizes":[],"default_left":[0,0,0,0,0,0,0,0,0,0,0,0,0,0,0,0,0,0,0,0,0,0,0,0,0,0,0,0,0,0,0,0,0,0,0,0,0,0,0,0,0,0,0,0,0,0,0,0,0,0,0,0,0,0,0,0,0,0,0,0,0,0,0,0,0,0,0,0,0,0,0,0,0,0,0,0,0],"id":5,"left_children":[1,3,5,7,9,11,13,15,17,19,21,23,-1,25,27,29,31,33,35,-1,37,39,41,-1,43,45,47,49,51,-1,53,55,57,59,61,63,-1,-1,65,67,-1,-1,-1,-1,-1,-1,-1,69,71,-1,-1,73,75,-1,-1,-1,-1,-1,-1,-1,-1,-1,-1,-1,-1,-1,-1,-1,-1,-1,-1,-1,-1,-1,-1,-1,-1],"loss_changes":[1.1842601E2,1.5472118E1,3.3177284E1,5.483444E0,9.283695E0,5.6418705E-1,8.521553E0,1.8936386E0,4.117689E0,2.325396E0,2.8078494E0,8.678532E-2,0E0,4.9606056E0,3.1881638E0,3.3094597E0,8.0366516E-1,1.1707087E0,1.5774727E0,0E0,1.5159894E0,9.653664E-2,9.3333334E-1,0E0,3.7301588E-1,6.2342167E-1,3.045844E0,1.4682539E0,8.4452057E-1,0E0,2.1713676E0,9.002686E-3,6.73025E-1,1.5877457E0,4.6483374E-1,1.611218E0,0E0,0E0,1.1619048E0,3.4214735E-1,0E0,0E0,0E0,0E0,0E0,0E0,0E0,2.6515144E-1,1.6513147E0,0E0,0E0,1.6055555E0,1.6107178E-1,0E0,0E0,0E0,0E0,0E0,0E0,0E0,0E0,0E0,0E0,0E0,0E0,0E0,0E0,0E0,0E0,0E0,0E0,0E0,0E0,0E0,0E0,0E0,0E0],"parents":[2147483647,0,0,1,1,2,2,3,3,4,4,5,5,6,6,7,7,8,8,9,9,10,10,11,11,13,13,14,14,15,15,16,16,17,17,18,18,20,20,21,21,22,22,24,24,25,25,26,26,27,27,28,28,30,30,31,31,32,32,33,33,34,34,35,35,38,38,39,39,47,47,48,48,51,51,52,52],"right_children":[2,4,6,8,10,12,14,16,18,20,22,24,-1,26,28,30,32,34,36,-1,38,40,42,-1,44,46,48,50,52,-1,54,56,58,60,62,64,-1,-1,66,68,-1,-1,-1,-1,-1,-1,-1,70,72,-1,-1,74,76,-1,-1,-1,-1,-1,-1,-1,-1,-1,-1,-1,-1,-1,-1,-1,-1,-1,-1,-1,-1,-1,-1,-1,-1],"split_conditions":[2.4E2,2.43E2,6.8E-1,2.03E2,9E-1,4.57E2,2.86E2,5E0,9.22587E1,7.2E-1,-4.5E1,9E-1,-7.71949E-1,7.8E-1,2.0342857E2,1.11E2,1.82E2,7.0698555E1,4E0,-4.0600586E0,1.9271428E2,3.358E1,6.51E1,-4.356836E0,6.89E1,7E0,8.5E-1,3.02E2,7.65E-1,7.01899E-1,1.9285715E2,2.04E2,8.5E-1,4.99E1,9.086568E1,4.186E1,1.563234E0,-1.2763706E0,6.446926E1,2.86E2,2.8268158E0,-1.8457413E-1,7.083435E-1,-2.8179798E0,-1.2066834E0,-1.1942368E-1,-6.990692E-1,2E0,8.68E1,1.7721596E-1,-3.038376E-1,2E0,1E0,-1.9772972E0,1.9851112E0,-7.7607894E0,-3.185328E0,-1.9113457E0,-1.7196976E0,-8.0256575E-1,3.7966576E-1,-2.0434601E0,-2.5265503E-1,7.9944193E-1,-5.3928757E-1,-1.4698029E-2,1.5637535E0,8.344292E-1,3.598767E0,-1.8873139E-1,-6.1108935E-1,1.1570847E0,2.777504E-1,3.0455515E-1,4.4058623E0,4.6583137E-1,4.6160507E0],"split_indices":[35,36,33,35,33,36,35,0,41,34,42,25,0,25,39,36,35,41,0,0,39,15,14,0,14,1,33,35,33,0,39,36,25,15,41,15,0,0,41,36,0,0,0,0,0,0,0,0,14,0,0,24,28,0,0,0,0,0,0,0,0,0,0,0,0,0,0,0,0,0,0,0,0,0,0,0,0],"split_type":[0,0,0,0,0,0,0,0,0,0,0,0,0,0,0,0,0,0,0,0,0,0,0,0,0,0,0,0,0,0,0,0,0,0,0,0,0,0,0,0,0,0,0,0,0,0,0,0,0,0,0,0,0,0,0,0,0,0,0,0,0,0,0,0,0,0,0,0,0,0,0,0,0,0,0,0,0],"sum_hessian":[1.339E3,6.68E2,6.71E2,5.57E2,1.11E2,5.8E1,6.13E2,4.35E2,1.22E2,5.4E1,5.7E1,5.3E1,5E0,2.14E2,3.99E2,1.51E2,2.84E2,8.8E1,3.4E1,2.4E1,3E1,4.3E1,1.4E1,4E1,1.3E1,1.7E1,1.97E2,1.3E1,3.86E2,7E0,1.44E2,2.61E2,2.3E1,3.8E1,5E1,2.5E1,9E0,1E1,2E1,1.2E1,3.1E1,9E0,5E0,8E0,5E0,7E0,1E1,1E1,1.87E2,8E0,5E0,2.9E1,3.57E2,1.39E2,5E0,2.54E2,7E0,1E1,1.3E1,3.2E1,6E0,4.5E1,5E0,1.4E1,1.1E1,1.4E1,6E0,5E0,7E0,5E0,5E0,1.41E2,4.6E1,1.2E1,1.7E1,1.2E1,3.45E2],"tree_param":{"num_deleted":"0","num_feature":"45","num_nodes":"77","size_leaf_vector":"1"}},{"base_weights":[-1.8968134E-3,-2.4898511E-1,3.1293103E-1,-3.864679E-1,-5.098684E-2,-4.375E-1,3.6783734E-1,-4.9238577E-1,-2.9791668E-1,-2.2972973E-2,5.597015E-3,-2.4264706E-2,-7.1428576E-3,1.9745223E-1,4.3636364E-1,-2.4869792E-2,-1.25E-2,-3.6141303E-1,-8.77193E-2,-1.1647727E-1,2.3655914E-1,-2.9411766E-1,2.5531915E-1,4.4562334E-1,-0E0,-4.728261E-1,-2.4731183E-1,1.40625E-1,-3.653846E-1,-2.720588E-1,-1.8348623E-2,-0E0,3.7288135E-1,-2.2222223E-2,-5.5555557E-3,-2E-1,3.0708662E-1,3.125E-3,4.527027E-1,-1.6666668E-2,-2.4679488E-2,-1.7692309E-2,-0E0,2.0588236E-2,-7.8125E-3,-4.166667E-3,-2.1428572E-2,1.25E-2,-1.5873017E-2,5.7971017E-3,-1.2195122E-2,2.2727273E-2,-1.0000001E-2,2.175926E-2,-1.25E-2,-2.0833334E-2,-2.5000002E-3,1.0060976E-2,2.4456521E-2,2.3172515E-2,1.5517241E-2],"categories":[],"categories_nodes":[],"categories_segments":[],"categories_sizes":[],"default_left":[0,0,0,0,0,0,0,0,0,0,0,0,0,0,0,0,0,0,0,0,0,0,0,0,0,0,0,0,0,0,0,0,0,0,0,0,0,0,0,0,0,0,0,0,0,0,0,0,0,0,0,0,0,0,0,0,0,0,0,0,0],"id":6,"left_children":[1,3,5,7,9,11,13,15,17,-1,19,-1,-1,21,23,-1,-1,25,27,29,31,33,35,37,-1,39,41,43,45,47,49,51,53,-1,-1,55,57,-1,59,-1,-1,-1,-1,-1,-1,-1,-1,-1,-1,-1,-1,-1,-1,-1,-1,-1,-1,-1,-1,-1,-1],"loss_changes":[1.026055E2,2.0096878E1,2.4058899E1,3.9426193E0,7.0289106E0,4.9396038E-1,6.2304764E0,1.1487961E-1,3.1715221E0,0E0,7.583689E0,0E0,0E0,4.541058E0,1.5556335E0,0E0,0E0,2.2221375E0,3.6653697E0,2.6820016E0,2.9990892E0,4.1830075E-1,3.3848886E0,9.942322E-1,0E0,1.0193634E-1,2.4502892E0,2.6401653E0,4.2765594E-1,1.6911182E0,3.3298635E0,3.2727273E0,2.3984613E0,0E0,0E0,4.6666658E-1,2.3491793E0,0E0,4.2227173E-1,0E0,0E0,0E0,0E0,0E0,0E0,0E0,0E0,0E0,0E0,0E0,0E0,0E0,0E0,0E0,0E0,0E0,0E0,0E0,0E0,0E0,0E0],"parents":[2147483647,0,0,1,1,2,2,3,3,4,4,5,5,6,6,7,7,8,8,10,10,13,13,14,14,17,17,18,18,19,19,20,20,21,21,22,22,23,23,25,25,26,26,27,27,28,28,29,29,30,30,31,31,32,32,35,35,36,36,38,38],"right_children":[2,4,6,8,10,12,14,16,18,-1,20,-1,-1,22,24,-1,-1,26,28,30,32,34,36,38,-1,40,42,44,46,48,50,52,54,-1,-1,56,58,-1,60,-1,-1,-1,-1,-1,-1,-1,-1,-1,-1,-1,-1,-1,-1,-1,-1,-1,-1,-1,-1,-1,-1],"split_conditions":[2.55E2,2.03E2,6.375E-1,6.8E1,6.8E-1,5.8E1,2.68E2,6.8E1,1E0,-4.8047237E0,2.6E2,-4.4002633E0,-1.4671849E0,7.9E-1,1E0,-7.57275E0,-6.434998E-1,1E0,2.66E1,1.7271428E2,2.1914285E2,2.3071428E2,8.5E-1,1.9107143E2,-6.5662386E-3,1.2521429E2,2.8E1,1.9E2,2.86E1,6.8E0,5E0,2.72E2,6E0,-1.1013275E0,-7.835415E-1,1E0,8.8E-1,2.754898E-1,5E0,-2.1387918E0,-2.908432E0,-1.179876E0,8.301926E-3,1.8392361E0,-4.9916077E-1,-7.991371E-1,-2.9898279E0,4.50605E-1,-1.1866795E0,3.5480806E-1,-1.024387E0,1.3941952E0,-1.343628E-1,2.3954666E0,-2.2704469E-1,-1.7593254E0,-1.20672606E-1,8.4423983E-1,2.685475E0,4.210248E0,2.0987222E0],"split_indices":[36,35,33,36,33,42,35,35,28,0,35,0,0,25,11,0,0,33,44,38,38,38,33,39,0,39,2,36,13,44,0,35,0,0,0,28,25,0,0,0,0,0,0,0,0,0,0,0,0,0,0,0,0,0,0,0,0,0,0,0,0],"split_type":[0,0,0,0,0,0,0,0,0,0,0,0,0,0,0,0,0,0,0,0,0,0,0,0,0,0,0,0,0,0,0,0,0,0,0,0,0,0,0,0,0,0,0,0,0,0,0,0,0,0,0,0,0,0,0,0,0,0,0,0,0],"sum_hessian":[1.317E3,7.38E2,5.79E2,4.35E2,3.03E2,3.9E1,5.4E2,1.96E2,2.39E2,3.6E1,2.67E2,3.3E1,6E0,1.56E2,3.84E2,1.91E2,5E0,1.83E2,5.6E1,1.75E2,9.2E1,1.6E1,1.4E2,3.76E2,8E0,9.1E1,9.2E1,3.1E1,2.5E1,6.7E1,1.08E2,3.4E1,5.8E1,8E0,8E0,1.4E1,1.26E2,7E0,3.69E2,1.4E1,7.7E1,6.4E1,2.8E1,1.6E1,1.5E1,5E0,2E1,5E0,6.2E1,6.8E1,4E1,1E1,2.4E1,5.3E1,5E0,5E0,9E0,8.1E1,4.5E1,3.41E2,2.8E1],"tree_param":{"num_deleted":"0","num_feature":"45","num_nodes":"61","size_leaf_vector":"1"}},{"base_weights":[-3.018868E-3,-2.443662E-1,2.7516234E-1,-1.0594315E-1,-4.0895063E-1,-4.2222223E-1,3.2954547E-1,-2.7572018E-1,1.7931035E-1,-4.4299674E-1,1.9444445E-1,-2.4342105E-2,-3.125E-3,1.9557196E-1,4.4867548E-1,-3.1578946E-1,-2.8571429E-2,-6.153846E-2,3.7037036E-1,-2.4870466E-2,-3.478261E-1,-1.4285715E-2,2.2916667E-2,9.946237E-2,4.011628E-1,2.173913E-1,4.6607143E-1,-3.4031415E-1,-5.263158E-2,-3.3333334E-1,1.904762E-1,-2.7941176E-1,1.71875E-1,2.0833333E-1,2.4456521E-2,-2.3770493E-2,-2E-1,-1.12676054E-1,2.2844827E-1,4.8026314E-1,-1.8181819E-1,-1.25E-2,3.611111E-1,2.4634147E-2,3.881579E-1,-1.2025317E-2,-2.0353982E-2,-1.5625E-2,6.25E-3,-4.166667E-3,-2.2499999E-2,2.2727273E-2,-4.545455E-3,-2.0833334E-3,-1.9565217E-2,-2.1875E-2,1.8000001E-2,-2.9411765E-3,2.125E-2,-1.7741935E-2,-0E0,1.6666668E-2,-8.730159E-3,-5.357143E-3,1.3592233E-2,1.25E-2,2.4647888E-2,-2.0833334E-2,4.166667E-3,2.3076924E-2,4.166667E-3,2.1691177E-2,-0E0],"categories":[],"categories_nodes":[],"categories_segments":[],"categories_sizes":[],"default_left":[0,0,0,0,0,0,0,0,0,0,0,0,0,0,0,0,0,0,0,0,0,0,0,0,0,0,0,0,0,0,0,0,0,0,0,0,0,0,0,0,0,0,0,0,0,0,0,0,0,0,0,0,0,0,0,0,0,0,0,0,0,0,0,0,0,0,0,0,0,0,0,0,0],"id":7,"left_children":[1,3,5,7,9,11,13,15,17,19,21,-1,-1,23,25,27,29,31,33,-1,35,-1,-1,37,39,41,43,45,47,49,51,53,55,57,-1,-1,59,61,63,65,67,-1,69,-1,71,-1,-1,-1,-1,-1,-1,-1,-1,-1,-1,-1,-1,-1,-1,-1,-1,-1,-1,-1,-1,-1,-1,-1,-1,-1,-1,-1,-1],"loss_changes":[8.9025475E1,1.6132092E1,2.3501526E1,1.879165E1,6.742161E0,1.0156069E0,9.041523E0,2.3974266E0,6.6951957E0,1.4167824E0,2.4117062E0,0E0,0E0,5.3148565E0,1.1137505E0,1.3309441E0,2.4E0,3.3535705E0,1.4568243E0,0E0,2.073842E0,0E0,0E0,5.1152344E0,4.0531254E0,1.6352658E0,3.8930893E-1,1.1748657E0,9.1611844E-1,4.000002E-1,1.6017315E0,8.881607E-1,3.8259373E0,2.1088235E0,0E0,0E0,1.7032259E0,2.0192263E0,1.7184854E0,9.89151E-2,7.196969E-1,0E0,4.6367526E-1,0E0,1.3471365E0,0E0,0E0,0E0,0E0,0E0,0E0,0E0,0E0,0E0,0E0,0E0,0E0,0E0,0E0,0E0,0E0,0E0,0E0,0E0,0E0,0E0,0E0,0E0,0E0,0E0,0E0,0E0,0E0],"parents":[2147483647,0,0,1,1,2,2,3,3,4,4,5,5,6,6,7,7,8,8,9,9,10,10,13,13,14,14,15,15,16,16,17,17,18,18,20,20,23,23,24,24,25,25,26,26,27,27,28,28,29,29,30,30,31,31,32,32,33,33,36,36,37,37,38,38,39,39,40,40,42,42,44,44],"right_children":[2,4,6,8,10,12,14,16,18,20,22,-1,-1,24,26,28,30,32,34,-1,36,-1,-1,38,40,42,44,46,48,50,52,54,56,58,-1,-1,60,62,64,66,68,-1,70,-1,72,-1,-1,-1,-1,-1,-1,-1,-1,-1,-1,-1,-1,-1,-1,-1,-1,-1,-1,-1,-1,-1,-1,-1,-1,-1,-1,-1,-1],"split_conditions":[2.5E2,5E0,6.375E-1,1.8842857E2,3.1085715E2,9.3E-1,8.7E-1,2.33E2,9E-1,6.8E1,8.8E-1,-3.4495187E0,-4.9518585E-2,2.785E2,1.9385715E2,5.003E1,1E0,1E0,2.1871428E2,-7.1441126E0,1E0,-1.069183E0,2.5483155E0,1E0,5E0,1E0,2E0,3.11E1,8.2E-1,2.34E1,8.86E1,1.63E1,6.8E-1,3.16E1,3.1658294E0,-2.2058933E0,9E-1,3.759E1,7.8E-1,1E0,6.64E1,-7.032761E-1,8.14E1,4.9997363E0,4.72E1,-9.0794945E-1,-1.592604E0,-2.0061104E0,1.5734254E-1,-2.556376E0,-2.4757264E0,1.3731927E0,-3.2253304E-1,-2.3905182E-2,-1.6746536E0,-3.3930986E0,1.3699986E0,-8.812523E-2,1.2777649E0,-2.1247005E0,6.825638E-3,1.0273899E0,-2.7317545E-1,-5.0102997E-1,9.824974E-1,1.6726211E0,4.015435E0,-1.6390854E0,6.6932677E-3,1.9616436E0,1.2133866E-1,2.9066865E0,5.9621125E-1],"split_indices":[36,0,33,38,38,25,25,37,33,36,25,0,0,39,38,15,34,28,38,0,28,0,0,33,0,34,30,13,25,44,14,44,33,13,0,0,33,15,25,12,14,0,14,0,44,0,0,0,0,0,0,0,0,0,0,0,0,0,0,0,0,0,0,0,0,0,0,0,0,0,0,0,0],"split_type":[0,0,0,0,0,0,0,0,0,0,0,0,0,0,0,0,0,0,0,0,0,0,0,0,0,0,0,0,0,0,0,0,0,0,0,0,0,0,0,0,0,0,0,0,0,0,0,0,0,0,0,0,0,0,0,0,0,0,0,0,0,0,0,0,0,0,0,0,0,0,0,0,0],"sum_hessian":[1.324E3,7.09E2,6.15E2,3.86E2,3.23E2,4.4E1,5.71E2,2.42E2,1.44E2,3.06E2,1.7E1,3.7E1,7E0,2.7E2,3.01E2,2.08E2,3.4E1,6.4E1,8E1,1.92E2,1.14E2,6E0,1.1E1,1.85E2,8.5E1,2.2E1,2.79E2,1.9E2,1.8E1,1.4E1,2E1,3.3E1,3.1E1,3.5E1,4.5E1,6E1,5.4E1,7E1,1.15E2,7.5E1,1E1,5E0,1.7E1,2.04E2,7.5E1,7.8E1,1.12E2,7E0,1.1E1,5E0,9E0,1E1,1E1,1.1E1,2.2E1,7E0,2.4E1,1.6E1,1.9E1,3E1,2.4E1,8E0,6.2E1,1.3E1,1.02E2,5E0,7E1,5E0,5E0,1.2E1,5E0,6.7E1,8E0],"tree_param":{"num_deleted":"0","num_feature":"45","num_nodes":"73","size_leaf_vector":"1"}},{"base_weights":[-3.028009E-3,-2.530395E-1,2.4472892E-1,-1.18309855E-1,-4.0953946E-1,-4.051724E-1,3.0642503E-1,-2.5192308E-1,2.4479167E-1,-4.4522968E-1,6.818182E-2,-4.528302E-1,4.166667E-3,1.3842975E-1,4.1666666E-1,-3.273196E-1,-2.9850746E-2,-1.764706E-1,3.3125E-1,-2.4867726E-2,-3.3684212E-1,-1.4285715E-2,2.1875E-1,-2.4418605E-2,-2.7272728E-1,-3.809524E-1,1.8693693E-1,4.599359E-1,1.6363636E-1,-9.615385E-2,-3.6094674E-1,-2.4242425E-1,1.7142858E-1,-1.75E-2,3.125E-3,1.7142858E-1,4.456522E-1,7.1428576E-3,-3.7078652E-1,-3.125E-3,2.2222223E-2,-4.166667E-3,-2.0833334E-2,-2.34375E-2,-4.166667E-3,-3.2142857E-1,2.200957E-1,4.6579805E-1,4.166667E-3,-3.2142857E-1,3.2142857E-1,-2.2499999E-2,5.882353E-3,-1.9572368E-2,-4.166667E-3,-2.2727273E-2,-6.521739E-3,-8.928572E-3,1.9318182E-2,1.4E-2,-4.545455E-3,1.1111111E-2,2.4342105E-2,-2.2727273E-2,-1.1428571E-2,-4.166667E-3,-2.2222223E-2,8.181818E-3,2.1111112E-2,2.4131274E-2,1.8367348E-2,-2.2222223E-2,-4.166667E-3,1.7857144E-3,2.2413794E-2],"categories":[],"categories_nodes":[],"categories_segments":[],"categories_sizes":[],"default_left":[0,0,0,0,0,0,0,0,0,0,0,0,0,0,0,0,0,0,0,0,0,0,0,0,0,0,0,0,0,0,0,0,0,0,0,0,0,0,0,0,0,0,0,0,0,0,0,0,0,0,0,0,0,0,0,0,0,0,0,0,0,0,0,0,0,0,0,0,0,0,0,0,0,0,0],"id":8,"left_children":[1,3,5,7,9,11,13,15,17,19,21,23,-1,25,27,29,31,33,35,-1,37,-1,39,-1,41,43,45,47,49,51,53,55,57,-1,-1,59,61,-1,63,-1,-1,-1,-1,-1,-1,65,67,69,-1,71,73,-1,-1,-1,-1,-1,-1,-1,-1,-1,-1,-1,-1,-1,-1,-1,-1,-1,-1,-1,-1,-1,-1,-1,-1],"loss_changes":[8.188741E1,1.3825596E1,2.6748161E1,1.728455E1,5.2135506E0,1.3880396E0,1.1184006E1,4.3435345E0,3.554933E0,1.4313316E0,1.2347808E0,2.060709E-1,0E0,6.168105E0,3.931858E0,1.4733429E0,2.9082642E0,7.2683823E-1,1.3863163E0,0E0,1.599865E0,0E0,1.0434028E0,0E0,2.6515144E-1,5.0967264E-1,3.8129473E0,6.4998627E-1,4.312987E0,2.0199096E0,1.3983669E0,7.246375E-1,2.7019482E0,0E0,0E0,1.0223376E0,3.1515408E-1,0E0,9.562521E-1,0E0,0E0,0E0,0E0,0E0,0E0,3.7301588E-1,2.3160028E0,3.3130646E-1,0E0,3.7301588E-1,1.5061574E0,0E0,0E0,0E0,0E0,0E0,0E0,0E0,0E0,0E0,0E0,0E0,0E0,0E0,0E0,0E0,0E0,0E0,0E0,0E0,0E0,0E0,0E0,0E0,0E0],"parents":[2147483647,0,0,1,1,2,2,3,3,4,4,5,5,6,6,7,7,8,8,9,9,10,10,11,11,13,13,14,14,15,15,16,16,17,17,18,18,20,20,22,22,24,24,25,25,26,26,27,27,28,28,29,29,30,30,31,31,32,32,35,35,36,36,38,38,45,45,46,46,47,47,49,49,50,50],"right_children":[2,4,6,8,10,12,14,16,18,20,22,24,-1,26,28,30,32,34,36,-1,38,-1,40,-1,42,44,46,48,50,52,54,56,58,-1,-1,60,62,-1,64,-1,-1,-1,-1,-1,-1,66,68,70,-1,72,74,-1,-1,-1,-1,-1,-1,-1,-1,-1,-1,-1,-1,-1,-1,-1,-1,-1,-1,-1,-1,-1,-1,-1,-1],"split_conditions":[2.4E2,5E0,6.8E-1,1.8628572E2,2.9053333E2,3.855E2,2.5014285E2,9.086568E1,1E0,8.6E1,8E-1,4.53E1,3.5803985E-2,7.8E-1,5E0,1.33E2,1E0,2.3583333E2,1E0,-6.8369064E0,1.13E2,-2.036244E0,3.27E1,-3.874251E0,3.9E1,3.43E1,4.620194E1,5.71E1,8.3E-1,1E0,5.031E1,8.64E1,1E0,-3.5305436E0,1.8477632E-2,8.68E1,1.9585715E2,4.9612236E-1,2.38E2,-8.3940126E-2,3.4920081E-1,-1.1544007E0,-3.2234437E0,-5.1819533E-1,-1.1337875E0,2E0,9E-1,8.84E1,3.7250717E0,3.35E1,9E-1,-5.2770424E0,5.01883E-1,-1.6814126E0,-7.423523E-1,-1.5363129E0,-3.3819887E-1,-6.103851E-1,1.5482148E0,7.6536256E-1,-1.0041504E-1,6.463341E-1,5.2652283E0,-2.4555442E0,-1.2271675E0,-1.7536927E-2,-6.7489016E-1,4.8150024E-1,2.8211613E0,4.2263756E0,3.637654E0,-7.286339E-1,-1.2679558E0,4.096344E-1,2.1547487E0],"split_indices":[35,0,33,38,40,39,38,41,34,35,25,15,0,25,0,35,33,40,28,0,35,0,13,0,13,13,41,44,25,12,15,14,28,0,0,14,38,0,38,0,0,0,0,0,0,0,25,14,0,13,33,0,0,0,0,0,0,0,0,0,0,0,0,0,0,0,0,0,0,0,0,0,0,0,0],"split_type":[0,0,0,0,0,0,0,0,0,0,0,0,0,0,0,0,0,0,0,0,0,0,0,0,0,0,0,0,0,0,0,0,0,0,0,0,0,0,0,0,0,0,0,0,0,0,0,0,0,0,0,0,0,0,0,0,0,0,0,0,0,0,0,0,0,0,0,0,0,0,0,0,0,0,0],"sum_hessian":[1.32E3,6.57E2,6.63E2,3.54E2,3.03E2,5.7E1,6.06E2,2.59E2,9.5E1,2.82E2,2.1E1,5.2E1,5E0,2.41E2,3.65E2,1.93E2,6.6E1,1.6E1,7.9E1,1.88E2,9.4E1,6E0,1.5E1,4.2E1,1E1,2E1,2.21E2,3.11E2,5.4E1,2.5E1,1.68E2,3.2E1,3.4E1,9E0,7E0,3.4E1,4.5E1,6E0,8.8E1,7E0,8E0,5E0,5E0,1.5E1,5E0,1.3E1,2.08E2,3.06E2,5E0,1.3E1,4.1E1,9E0,1.6E1,1.51E2,1.7E1,1E1,2.2E1,1.3E1,2.1E1,2.4E1,1E1,8E0,3.7E1,5.4E1,3.4E1,5E0,8E0,1.64E2,4.4E1,2.58E2,4.8E1,8E0,5E0,1.3E1,2.8E1],"tree_param":{"num_deleted":"0","num_feature":"45","num_nodes":"75","size_leaf_vector":"1"}},{"base_weights":[-1.5278839E-2,-2.784E-1,2.2481751E-1,-1.2933753E-1,-4.3042073E-1,2.8571429E-2,3.3333334E-1,-2.7014217E-1,1.495327E-1,-4.4243422E-1,1.25E-2,-1.0074627E-1,1.8303572E-1,3.5864487E-1,-2.3214286E-2,1.818182E-2,-3.034826E-1,-2.8846154E-1,2.8658536E-1,-2.486702E-2,-3.5042736E-1,2.9069768E-2,-3.265306E-1,-8.3333336E-2,2.7710843E-1,4E-1,1.171875E-1,-3.9285713E-1,-2.1634616E-1,-1.3333334E-1,-2.2916667E-2,4.017857E-1,3.7037037E-2,-3.7727273E-1,3.125E-3,-5.7971016E-2,3.611111E-1,-2.3809524E-2,-2.0689656E-1,-1.6E-1,1.25E-2,-6.666667E-2,3.478261E-1,2.5974026E-1,4.3598616E-1,-3.25E-1,3.1111112E-1,-2.2666669E-2,-9.375E-3,-5.6338026E-3,-2.132353E-2,-1.5625E-2,3.125E-3,1.25E-2,2.3076924E-2,1.6666668E-2,-5.263158E-3,-2.0000001E-2,4.166667E-3,-1.4285715E-2,2.0408162E-3,2.3076924E-2,4.166667E-3,-2.0000001E-2,-0E0,1.25E-2,-1.3750001E-2,-1.5625E-2,9.375E-3,1.8359376E-2,4.166667E-3,2.5641026E-3,2.3076924E-2,1.5873017E-2,2.3348017E-2,-2.3333333E-2,4.166667E-3,2.0967742E-2,3.3333336E-3],"categories":[],"categories_nodes":[],"categories_segments":[],"categories_sizes":[],"default_left":[0,0,0,0,0,0,0,0,0,0,0,0,0,0,0,0,0,0,0,0,0,0,0,0,0,0,0,0,0,0,0,0,0,0,0,0,0,0,0,0,0,0,0,0,0,0,0,0,0,0,0,0,0,0,0,0,0,0,0,0,0,0,0,0,0,0,0,0,0,0,0,0,0,0,0,0,0,0,0],"id":9,"left_children":[1,3,5,7,9,11,13,15,17,19,-1,21,23,25,-1,-1,27,29,31,-1,33,35,37,39,41,43,45,47,49,51,-1,53,55,57,-1,59,61,-1,63,65,-1,67,69,71,73,75,77,-1,-1,-1,-1,-1,-1,-1,-1,-1,-1,-1,-1,-1,-1,-1,-1,-1,-1,-1,-1,-1,-1,-1,-1,-1,-1,-1,-1,-1,-1,-1,-1],"loss_changes":[8.275792E1,1.4107197E1,1.4578102E1,1.2487789E1,2.636444E0,4.912307E0,9.069843E0,4.568879E0,6.505694E0,1.3614502E0,0E0,3.9370894E0,2.8295956E0,4.226921E0,0E0,0E0,1.4803505E0,6.2403846E-1,2.3424592E0,0E0,1.3205471E0,2.5064318E0,7.787943E-1,8.066667E-1,2.0409985E0,1.7290611E0,5.5891495E0,1.1320839E0,2.2174435E0,5.4583335E-1,0E0,3.9251423E-1,1.1734893E0,1.1848469E0,0E0,1.5640342E0,4.6367526E-1,0E0,1.1586208E0,1.2475001E0,0E0,9.9583334E-1,3.2274723E-1,3.2154512E0,9.127464E-1,1.1958334E0,1.162724E0,0E0,0E0,0E0,0E0,0E0,0E0,0E0,0E0,0E0,0E0,0E0,0E0,0E0,0E0,0E0,0E0,0E0,0E0,0E0,0E0,0E0,0E0,0E0,0E0,0E0,0E0,0E0,0E0,0E0,0E0,0E0,0E0],"parents":[2147483647,0,0,1,1,2,2,3,3,4,4,5,5,6,6,7,7,8,8,9,9,11,11,12,12,13,13,16,16,17,17,18,18,20,20,21,21,22,22,23,23,24,24,25,25,26,26,27,27,28,28,29,29,31,31,32,32,33,33,35,35,36,36,38,38,39,39,41,41,42,42,43,43,44,44,45,45,46,46],"right_children":[2,4,6,8,10,12,14,16,18,20,-1,22,24,26,-1,-1,28,30,32,-1,34,36,38,40,42,44,46,48,50,52,-1,54,56,58,-1,60,62,-1,64,66,-1,68,70,72,74,76,78,-1,-1,-1,-1,-1,-1,-1,-1,-1,-1,-1,-1,-1,-1,-1,-1,-1,-1,-1,-1,-1,-1,-1,-1,-1,-1,-1,-1,-1,-1,-1,-1],"split_conditions":[2.34E2,5E0,2.3914285E2,1.6985715E2,3.24E2,1.08727486E2,1E0,9.6E1,1E0,6.8E1,7.2613066E-1,3.3E1,8E-1,5E0,-3.0977523E0,3.4695092E-1,8.3E-1,6.59E1,8.68E1,-6.4450607E0,3.75E2,2.67E2,1E0,2.91E2,1.9542857E2,8.2E-1,2E0,1.657E2,8.53E1,8.5E-1,-1.4120255E0,8.2E-1,1.91E2,4.04E1,6.846291E-1,1E0,2E0,-3.3726788E0,1.9771428E2,1.6985715E2,5.518463E-1,1.1E1,1E0,2.9053333E2,2.595E2,3.8914285E2,8.53E1,-1.8956429E0,-1.0927368E0,-3.5690308E-1,-2.1056345E0,-1.5736297E0,5.70282E-2,5.8676E-1,3.286708E0,1.4740651E0,-2.342701E-1,-1.867178E0,1.2254562E-1,-3.4844476E-1,1.5355682E-1,1.1137489E0,6.2520754E-1,-4.442688E-1,-8.322525E-3,5.98584E-1,-4.3568116E-1,-1.0966805E0,2.7812272E-1,1.5133438E0,7.6697844E-1,6.6609424E-1,3.387645E0,1.6532555E0,4.767573E0,-9.554772E-1,3.721222E-1,2.0640619E0,4.7692224E-1],"split_indices":[35,0,38,38,38,41,8,35,34,35,0,42,25,0,0,0,25,14,14,0,37,37,12,37,38,25,24,40,14,25,0,25,35,13,0,24,24,0,38,38,0,29,26,40,39,39,14,0,0,0,0,0,0,0,0,0,0,0,0,0,0,0,0,0,0,0,0,0,0,0,0,0,0,0,0,0,0,0,0],"split_type":[0,0,0,0,0,0,0,0,0,0,0,0,0,0,0,0,0,0,0,0,0,0,0,0,0,0,0,0,0,0,0,0,0,0,0,0,0,0,0,0,0,0,0,0,0,0,0,0,0,0,0,0,0,0,0,0,0,0,0,0,0,0,0,0,0,0,0,0,0,0,0,0,0,0,0,0,0,0,0],"sum_hessian":[1.308E3,6.24E2,6.84E2,3.16E2,3.08E2,2.44E2,4.4E2,2.1E2,1.06E2,3.03E2,5E0,1.33E2,1.11E2,4.27E2,1.3E1,1E1,2E2,2.5E1,8.1E1,1.87E2,1.16E2,8.5E1,4.8E1,2.9E1,8.2E1,3.64E2,6.3E1,9.7E1,1.03E2,1.4E1,1.1E1,5.5E1,2.6E1,1.09E2,7E0,6.8E1,1.7E1,2E1,2.8E1,2.4E1,5E0,1.4E1,6.8E1,7.6E1,2.88E2,1.9E1,4.4E1,7.4E1,2.3E1,7E1,3.3E1,7E0,7E0,1.7E1,3.8E1,8E0,1.8E1,1.04E2,5E0,2E1,4.8E1,1.2E1,5E0,1.4E1,1.4E1,5E0,1.9E1,7E0,7E0,6.3E1,5E0,3.8E1,3.8E1,6.2E1,2.26E2,1.4E1,5E0,3E1,1.4E1],"tree_param":{"num_deleted":"0","num_feature":"45","num_nodes":"79","size_leaf_vector":"1"}},{"base_weights":[-1.4862805E-2,-2.3266667E-1,2.7531084E-1,-1.0159817E-1,-4.1533548E-1,-3.846154E-1,3.2380953E-1,-3.1400967E-1,8.836207E-2,-4.3585527E-1,1.25E-2,-4.5588234E-1,4.166667E-3,1.2080537E-1,4.03183E-1,2.0833333E-1,-3.4438777E-1,-1.2053572E-1,2.8099173E-1,-2.487245E-2,-3.2110092E-1,-2.4137931E-2,-1.25E-2,9.52381E-3,3.7777779E-1,4.3323442E-1,1.4634146E-1,4.166667E-3,1.4285715E-2,-4.2105263E-1,-2.6960784E-1,-2.4615385E-1,5.2083332E-2,-8E-2,3.71134E-1,-4.4444445E-1,-1.4893617E-1,-1.923077E-2,6.451613E-2,4.5833334E-1,2.5000002E-3,7.692308E-2,4.4615385E-1,-1.764706E-1,3.6E-1,-2.2413794E-2,-5.5555557E-3,1.25E-2,-1.6129032E-2,-1.5454546E-2,4.545455E-3,-1.4705883E-2,1.171875E-2,-1.4705883E-2,1.6666668E-2,-4.166667E-3,1.9836957E-2,-2.4528302E-2,-9.09091E-3,-1.5178571E-2,3.7500001E-3,6E-3,-7.894737E-3,2.4193548E-2,1.25E-2,1.5625E-2,-1.25E-2,1.775E-2,2.4225665E-2,-2.2222223E-2,5.5555557E-3,2.3529412E-2,5.5555557E-3],"categories":[],"categories_nodes":[],"categories_segments":[],"categories_sizes":[],"default_left":[0,0,0,0,0,0,0,0,0,0,0,0,0,0,0,0,0,0,0,0,0,0,0,0,0,0,0,0,0,0,0,0,0,0,0,0,0,0,0,0,0,0,0,0,0,0,0,0,0,0,0,0,0,0,0,0,0,0,0,0,0,0,0,0,0,0,0,0,0,0,0,0,0],"id":10,"left_children":[1,3,5,7,9,11,13,15,17,19,-1,21,-1,23,25,27,29,31,33,-1,35,-1,-1,37,39,41,43,-1,-1,45,47,49,51,53,55,57,59,-1,61,63,-1,65,67,69,71,-1,-1,-1,-1,-1,-1,-1,-1,-1,-1,-1,-1,-1,-1,-1,-1,-1,-1,-1,-1,-1,-1,-1,-1,-1,-1,-1,-1],"loss_changes":[8.298369E1,1.7914394E1,1.814367E1,1.7700932E1,4.3822136E0,1.3386121E0,8.410698E0,3.3563805E0,9.369529E0,1.9889832E0,0E0,6.7444324E-2,0E0,4.2572494E0,2.8464508E0,9.226197E-2,1.0101471E0,2.4414377E0,3.9671059E0,0E0,2.2484655E0,0E0,0E0,2.3006496E0,1.165278E0,1.5170021E0,2.8913631E0,0E0,0E0,7.517643E-1,2.888204E0,1.4069932E0,3.0981925E0,2.3105881E0,1.1618204E0,6.7390823E-1,1.6503038E0,0E0,1.1665875E0,7.056475E-2,0E0,1.0793269E0,9.643936E-1,1.3594772E0,6.3581705E-1,0E0,0E0,0E0,0E0,0E0,0E0,0E0,0E0,0E0,0E0,0E0,0E0,0E0,0E0,0E0,0E0,0E0,0E0,0E0,0E0,0E0,0E0,0E0,0E0,0E0,0E0,0E0,0E0],"parents":[2147483647,0,0,1,1,2,2,3,3,4,4,5,5,6,6,7,7,8,8,9,9,11,11,13,13,14,14,15,15,16,16,17,17,18,18,20,20,23,23,24,24,25,25,26,26,29,29,30,30,31,31,32,32,33,33,34,34,35,35,36,36,38,38,39,39,41,41,42,42,43,43,44,44],"right_children":[2,4,6,8,10,12,14,16,18,20,-1,22,-1,24,26,28,30,32,34,-1,36,-1,-1,38,40,42,44,-1,-1,46,48,50,52,54,56,58,60,-1,62,64,-1,66,68,70,72,-1,-1,-1,-1,-1,-1,-1,-1,-1,-1,-1,-1,-1,-1,-1,-1,-1,-1,-1,-1,-1,-1,-1,-1,-1,-1,-1,-1],"split_conditions":[2.57E2,5E0,6.8E-1,1.6385715E2,3.382857E2,4.72E2,2.4114285E2,9.6E1,1E0,6.8E1,1.270462E0,1E0,3.5639953E-2,8.8E-1,5E0,2E0,1E0,2.1028572E2,1E0,-6.1228075E0,1E0,-2.9033272E0,-2.2130172E0,7.8E-1,8.93E1,7.5E-1,4.23E2,5.30204E-1,8.535004E-2,9.086568E1,7.608861E1,2.64E2,8E-1,2.1871428E2,1.533E2,6.9879486E1,7.91E1,-4.0497133E-1,8.81E1,3.43E2,1.4226105E0,8.1E1,2.6673334E2,9E-1,4.9E2,-2.8412766E0,-7.940659E-1,1.3888855E-1,-9.1775244E-1,-7.536408E-1,3.2807924E-2,-4.804081E-1,5.939469E-1,-4.1814384E-1,1.5141716E0,-3.2907638E-1,1.4414657E0,-2.646489E0,-3.3844273E0,-6.340958E-1,4.078934E-1,3.9174768E-1,-1.1580811E-1,2.6377404E0,2.8080246E0,1.844986E0,-2.4414825E-1,2.123001E0,4.60914E0,-1.072923E0,1.0997841E0,2.2109742E0,7.860405E-1],"split_indices":[35,0,33,38,38,35,38,35,33,35,0,26,0,25,0,0,33,38,24,0,33,0,0,25,14,25,37,0,0,41,41,37,25,38,40,41,14,0,14,37,0,14,40,25,37,0,0,0,0,0,0,0,0,0,0,0,0,0,0,0,0,0,0,0,0,0,0,0,0,0,0,0,0],"split_type":[0,0,0,0,0,0,0,0,0,0,0,0,0,0,0,0,0,0,0,0,0,0,0,0,0,0,0,0,0,0,0,0,0,0,0,0,0,0,0,0,0,0,0,0,0,0,0,0,0,0,0,0,0,0,0,0,0,0,0,0,0,0,0,0,0,0,0,0,0,0,0,0,0],"sum_hessian":[1.311E3,7.49E2,5.62E2,4.37E2,3.12E2,3.8E1,5.24E2,2.06E2,2.31E2,3.03E2,9E0,3.3E1,5E0,1.48E2,3.76E2,1.1E1,1.95E2,1.11E2,1.2E2,1.95E2,1.08E2,2.8E1,5E0,1.04E2,4.4E1,3.36E2,4E1,5E0,6E0,9.4E1,1.01E2,6.4E1,4.7E1,2.4E1,9.6E1,6.2E1,4.6E1,1.2E1,9.2E1,3.5E1,9E0,1.2E1,3.24E2,1.6E1,2.4E1,8.6E1,8E0,9E0,9.2E1,5.4E1,1E1,1.6E1,3.1E1,1.6E1,8E0,5E0,9.1E1,5.2E1,1E1,2.7E1,1.9E1,7.4E1,1.8E1,3E1,5E0,7E0,5E0,9.9E1,2.25E2,8E0,8E0,1.6E1,8E0],"tree_param":{"num_deleted":"0","num_feature":"45","num_nodes":"73","size_leaf_vector":"1"}},{"base_weights":[-4.555809E-3,-2.2138965E-1,2.6797944E-1,-3.5103926E-1,-3.4768213E-2,-4.2045453E-1,3.2347503E-1,-4.863388E-1,-2.5099602E-1,-2.4242425E-2,2.037037E-2,-2.4137931E-2,-2.8125E-1,1.6901408E-1,4.224924E-1,-2.4859551E-2,-4.166667E-3,-3.731884E-1,-1.00877196E-1,-2.8806584E-2,4.4642857E-1,-0E0,-2.2499999E-2,-5.6818184E-3,2.8968254E-1,3.063063E-1,4.7945204E-1,-4.3367347E-1,-2.195122E-1,-2.4657534E-1,1.5476191E-1,-4.4827586E-1,2.7906977E-2,1.25E-2,2.3913044E-2,-4.0625E-1,8.219178E-2,1.7391305E-1,4.224138E-1,-2.5E-2,3.75E-1,4.166667E-3,4.8831776E-1,-4.545455E-3,-2.3579545E-2,-2.3684211E-2,-0E0,-1.734694E-2,-2E-3,2.3214286E-2,-0E0,-1.25E-2,-2.3958333E-2,-2.1428572E-2,3.846154E-3,-2.2727273E-2,-1.25E-2,-1.25E-2,9.375E-3,-5.263158E-3,1.3725491E-2,2.264151E-2,4.166667E-3,-1.5384616E-2,2.1875E-2,1.2790698E-2,2.3500001E-2,1.71875E-2,2.4874372E-2],"categories":[],"categories_nodes":[],"categories_segments":[],"categories_sizes":[],"default_left":[0,0,0,0,0,0,0,0,0,0,0,0,0,0,0,0,0,0,0,0,0,0,0,0,0,0,0,0,0,0,0,0,0,0,0,0,0,0,0,0,0,0,0,0,0,0,0,0,0,0,0,0,0,0,0,0,0,0,0,0,0,0,0,0,0,0,0,0,0],"id":11,"left_children":[1,3,5,7,9,11,13,15,17,-1,19,-1,21,23,25,-1,-1,27,29,31,33,-1,-1,35,37,39,41,43,45,47,49,51,53,-1,-1,55,57,59,61,63,65,-1,67,-1,-1,-1,-1,-1,-1,-1,-1,-1,-1,-1,-1,-1,-1,-1,-1,-1,-1,-1,-1,-1,-1,-1,-1,-1,-1],"loss_changes":[7.788727E1,1.7747215E1,2.2447758E1,5.7389336E0,7.504547E0,2.4583721E-1,8.20282E0,7.5891876E-1,4.5665407E0,0E0,5.669966E0,0E0,7.593751E-1,4.491747E0,2.0304337E0,0E0,0E0,1.1875286E0,4.284221E0,5.7933817E0,5.551243E-2,0E0,0E0,3.1309347E0,1.8626814E0,2.5355854E0,7.284088E-1,1.2308102E0,2.287548E0,1.4996028E0,2.0119047E0,5.7830334E-2,4.8435473E0,0E0,0E0,7.102251E-3,2.6005993E0,1.9667072E0,5.604534E-1,2.749519E0,9.214535E-1,0E0,1.1267471E-1,0E0,0E0,0E0,0E0,0E0,0E0,0E0,0E0,0E0,0E0,0E0,0E0,0E0,0E0,0E0,0E0,0E0,0E0,0E0,0E0,0E0,0E0,0E0,0E0,0E0,0E0],"parents":[2147483647,0,0,1,1,2,2,3,3,4,4,5,5,6,6,7,7,8,8,10,10,12,12,13,13,14,14,17,17,18,18,19,19,20,20,23,23,24,24,25,25,26,26,27,27,28,28,29,29,30,30,31,31,32,32,35,35,36,36,37,37,38,38,39,39,40,40,42,42],"right_children":[2,4,6,8,10,12,14,16,18,-1,20,-1,22,24,26,-1,-1,28,30,32,34,-1,-1,36,38,40,42,44,46,48,50,52,54,-1,-1,56,58,60,62,64,66,-1,68,-1,-1,-1,-1,-1,-1,-1,-1,-1,-1,-1,-1,-1,-1,-1,-1,-1,-1,-1,-1,-1,-1,-1,-1,-1,-1],"split_conditions":[2.55E2,2.03E2,6.375E-1,6.8E1,6.8E-1,3.0736667E2,3.07E2,2.4E1,1E0,-4.123385E0,3.15E2,-4.2617154E0,3.32E2,9E-1,9E-1,-5.816667E0,-2.1238153E0,1E0,2.01E2,7.8E-1,5.6E1,-3.0905685E-1,-1.8808907E0,7.9E-1,8.5E-1,8E-1,7.8E-1,1.23E2,1E0,1E0,1.36E2,2.74E1,1.4563333E2,2.479416E0,4.87641E0,4E0,2.39E2,-2.6E1,5.198E1,4.08E2,9E-1,8.594818E-1,5.293347E1,-3.326481E-1,-2.453933E0,-3.833606E0,2.5998307E-2,-1.0458688E0,-2.012596E-2,7.066399E-1,-4.6962737E-3,-4.0803605E-1,-1.8598137E0,-8.394303E-1,1.7947236E-1,-9.829475E-1,-1.3572266E0,-6.7253876E-1,6.8519825E-1,-1.9942208E-1,8.395573E-1,1.855243E0,1.82809E0,-3.9707795E-1,3.1422424E0,1.5523453E0,3.2369676E0,2.1155E0,4.2329555E0],"split_indices":[36,35,33,36,33,40,36,42,33,0,35,0,38,33,33,0,0,28,3,25,37,0,0,25,25,25,25,36,12,16,35,13,40,0,0,0,35,42,15,35,25,0,41,0,0,0,0,0,0,0,0,0,0,0,0,0,0,0,0,0,0,0,0,0,0,0,0,0,0],"split_type":[0,0,0,0,0,0,0,0,0,0,0,0,0,0,0,0,0,0,0,0,0,0,0,0,0,0,0,0,0,0,0,0,0,0,0,0,0,0,0,0,0,0,0,0,0,0,0,0,0,0,0,0,0,0,0,0,0,0,0,0,0,0,0,0,0,0,0,0,0],"sum_hessian":[1.316E3,7.33E2,5.83E2,4.32E2,3.01E2,4.3E1,5.4E2,1.82E2,2.5E2,3.2E1,2.69E2,2.8E1,1.5E1,2.12E2,3.28E2,1.77E2,5E0,1.37E2,1.13E2,2.42E2,2.7E1,6E0,9E0,8.7E1,1.25E2,1.1E2,2.18E2,9.7E1,4E1,7.2E1,4.1E1,2.8E1,2.14E2,5E0,2.2E1,1.5E1,7.2E1,6.8E1,5.7E1,1.9E1,9.1E1,5E0,2.13E2,1E1,8.7E1,1.8E1,2.2E1,4.8E1,2.4E1,1.3E1,2.8E1,5E0,2.3E1,2E1,1.94E2,1E1,5E0,1.7E1,5.5E1,1.8E1,5E1,5.2E1,5E0,1.2E1,7E0,4.2E1,4.9E1,1.5E1,1.98E2],"tree_param":{"num_deleted":"0","num_feature":"45","num_nodes":"69","size_leaf_vector":"1"}},{"base_weights":[-4.9392097E-3,-2.3236515E-1,2.718855E-1,-9.436274E-2,-4.0981013E-1,-2.7173913E-1,3.169399E-1,-2.4497992E-1,1.40625E-1,-4.4463086E-1,1.5789473E-1,-4.1666666E-1,-0E0,1.6869919E-1,4.3585527E-1,-3.207547E-1,-1.0989011E-1,-2.96875E-1,2.4806201E-1,-2.4865592E-2,-3.539823E-1,-1.5625E-2,2.2916667E-2,-2.3809524E-2,-1.25E-2,-2.0833334E-2,2.0833333E-1,1.953125E-2,3.277311E-1,2.1666667E-1,4.5818183E-1,-4.4444445E-1,-2.371134E-1,-2.3611112E-2,-2.027027E-2,-4.1666666E-1,-1.3333334E-1,1.6489361E-1,4.5833334E-1,-4.5535713E-1,-2.5E-1,2.1428572E-2,-4.166667E-3,2.236842E-1,-6.593407E-2,3.75E-1,-1.25E-1,-1.25E-2,3.2E-1,4.8101267E-1,3.0769232E-1,-7.5000003E-3,-2.4537038E-2,1.25E-2,-1.44886365E-2,4.0178574E-3,-1.5789473E-2,-1.25E-2,-2.3076924E-2,7.1428576E-3,-1.6666668E-2,-1.3636365E-2,1.1011905E-2,1.4285715E-2,2.4166666E-2,-2.4444444E-2,-1.4583333E-2,-1.9354839E-2,-4.464286E-3,-6.25E-3,1.8518519E-2,-1.6964285E-2,2.734375E-3,-4.166667E-3,1.9902913E-2,-2.0833334E-2,7.1428576E-3,2.3214286E-2,6.25E-3,1.607143E-2,2.4441965E-2,1.8382354E-2,-4.166667E-3],"categories":[],"categories_nodes":[],"categories_segments":[],"categories_sizes":[],"default_left":[0,0,0,0,0,0,0,0,0,0,0,0,0,0,0,0,0,0,0,0,0,0,0,0,0,0,0,0,0,0,0,0,0,0,0,0,0,0,0,0,0,0,0,0,0,0,0,0,0,0,0,0,0,0,0,0,0,0,0,0,0,0,0,0,0,0,0,0,0,0,0,0,0,0,0,0,0,0,0,0,0,0,0],"id":12,"left_children":[1,3,5,7,9,11,13,15,17,19,21,23,25,27,29,31,33,35,37,-1,39,-1,-1,-1,-1,-1,41,43,45,47,49,51,53,-1,55,57,59,61,63,65,67,-1,-1,69,71,73,75,-1,77,79,81,-1,-1,-1,-1,-1,-1,-1,-1,-1,-1,-1,-1,-1,-1,-1,-1,-1,-1,-1,-1,-1,-1,-1,-1,-1,-1,-1,-1,-1,-1,-1,-1],"loss_changes":[8.291475E1,1.766603E1,1.4634769E1,1.4474872E1,6.31686E0,1.8115942E0,9.604298E0,2.5136166E0,7.5942345E0,1.2470474E0,2.828399E0,1.7857122E-1,1.5625E0,5.8293242E0,1.3884163E0,1.5395622E0,2.945393E0,5.7135415E-1,2.1803665E0,0E0,1.0773153E0,0E0,0E0,0E0,0E0,0E0,8.065476E-1,2.2480922E0,2.5934877E0,1.5266666E0,7.9684067E-1,7.851858E-1,2.560596E0,0E0,2.2259386E0,1.9230843E-2,8.7619054E-1,2.3367357E0,1.7261982E-2,1.6478062E-1,1.2433753E0,0E0,0E0,1.9898878E0,3.0190163E0,1.1745548E0,9.970238E-1,0E0,6.4535713E-1,1.3888931E-1,9.44947E-1,0E0,0E0,0E0,0E0,0E0,0E0,0E0,0E0,0E0,0E0,0E0,0E0,0E0,0E0,0E0,0E0,0E0,0E0,0E0,0E0,0E0,0E0,0E0,0E0,0E0,0E0,0E0,0E0,0E0,0E0,0E0,0E0],"parents":[2147483647,0,0,1,1,2,2,3,3,4,4,5,5,6,6,7,7,8,8,9,9,10,10,11,11,12,12,13,13,14,14,15,15,16,16,17,17,18,18,20,20,26,26,27,27,28,28,29,29,30,30,31,31,32,32,34,34,35,35,36,36,37,37,38,38,39,39,40,40,43,43,44,44,45,45,46,46,48,48,49,49,50,50],"right_children":[2,4,6,8,10,12,14,16,18,20,22,24,26,28,30,32,34,36,38,-1,40,-1,-1,-1,-1,-1,42,44,46,48,50,52,54,-1,56,58,60,62,64,66,68,-1,-1,70,72,74,76,-1,78,80,82,-1,-1,-1,-1,-1,-1,-1,-1,-1,-1,-1,-1,-1,-1,-1,-1,-1,-1,-1,-1,-1,-1,-1,-1,-1,-1,-1,-1,-1,-1,-1,-1],"split_conditions":[2.55E2,5E0,6.8E-1,1.8842857E2,3.1085715E2,9E-1,8.7E-1,1.601E2,7.65E-1,1E0,8.8E-1,2.562857E2,3.14E2,2.5257143E2,2.18E2,1E0,6.8E-1,2.2693333E2,2.3164285E2,-5.525834E0,8.5E-1,-8.232277E-1,2.770279E0,-4.3008103E0,-1.7155327E0,-3.785466E0,3.686E1,3.697E1,5E0,2E0,8.93E1,1.2521429E2,2E0,-4.788606E0,1.8142857E2,3E0,2.2057143E2,7.8E-1,1E0,6.9879486E1,7.64E1,1.114254E-1,-5.593155E-1,8.2E-1,6.520408E1,7.65E-1,4.196E1,-4.948868E-1,2.81E2,2.66E2,5E0,-1.4457489E0,-2.3312364E0,7.831955E-2,-7.813355E-1,5.2978516E-2,-7.7925646E-1,-3.605967E0,-2.7451863E0,1.5387192E-1,-5.25869E-1,-1.5147248E-1,6.7130816E-1,7.444138E-1,3.9491425E0,-1.8535153E0,-1.7047424E0,-7.963406E-1,-4.4206545E-1,-1.138794E-1,7.810089E-1,-3.4116134E-1,2.6413728E-2,-6.4741975E-1,2.9102325E0,-1.0548897E0,3.08638E-1,8.6746216E-1,1.2420899E0,1.7975296E0,4.033069E0,2.4145906E0,-2.7565154E-1],"split_indices":[36,0,33,38,38,25,25,40,33,31,25,38,36,38,40,33,33,40,39,0,25,0,0,0,0,0,15,15,0,24,14,39,29,0,38,29,38,25,24,41,14,0,0,25,41,33,15,0,36,36,0,0,0,0,0,0,0,0,0,0,0,0,0,0,0,0,0,0,0,0,0,0,0,0,0,0,0,0,0,0,0,0,0],"split_type":[0,0,0,0,0,0,0,0,0,0,0,0,0,0,0,0,0,0,0,0,0,0,0,0,0,0,0,0,0,0,0,0,0,0,0,0,0,0,0,0,0,0,0,0,0,0,0,0,0,0,0,0,0,0,0,0,0,0,0,0,0,0,0,0,0,0,0,0,0,0,0,0,0,0,0,0,0,0,0,0,0,0,0],"sum_hessian":[1.315E3,7.22E2,5.93E2,4.07E2,3.15E2,4.5E1,5.48E2,2.48E2,1.59E2,2.97E2,1.8E1,2.9E1,1.6E1,2.45E2,3.03E2,1.58E2,9E1,3.1E1,1.28E2,1.85E2,1.12E2,7E0,1.1E1,2E1,9E0,5E0,1.1E1,1.27E2,1.18E2,2.9E1,2.74E2,6.2E1,9.6E1,1.7E1,7.3E1,1.7E1,1.4E1,9.3E1,3.5E1,5.5E1,5.7E1,6E0,5E0,3.7E1,9E1,1.07E2,1.1E1,5E0,2.4E1,2.36E2,3.8E1,9E0,5.3E1,9E0,8.7E1,5.5E1,1.8E1,5E0,1.2E1,6E0,8E0,1E1,8.3E1,6E0,2.9E1,4.4E1,1.1E1,3E1,2.7E1,1.1E1,2.6E1,2.7E1,6.3E1,5E0,1.02E2,5E0,6E0,1.3E1,1.1E1,1.3E1,2.23E2,3.3E1,5E0],"tree_param":{"num_deleted":"0","num_feature":"45","num_nodes":"83","size_leaf_vector":"1"}},{"base_weights":[-1.3584905E-2,-2.3228882E-1,2.5760135E-1,-1.00247525E-1,-3.9274925E-1,-2.8703704E-1,3.116883E-1,-2.5853658E-1,6.25E-2,-4.143302E-1,2.7272728E-1,-3.5555556E-1,2.5000002E-3,1.5848215E-1,4.193038E-1,1.5625E-2,-2.8030303E-1,-4.375E-1,1.299435E-1,-2.486702E-2,-2.947761E-1,4.166667E-3,2.0833334E-2,-3.125E-3,-4.0789473E-1,1.6806724E-2,3.1603774E-1,3.0120483E-1,4.594017E-1,-1.75E-1,-3.838384E-1,-2.3684211E-2,-1.25E-2,-2.7083334E-1,1.9155844E-1,-4.2142856E-1,-1.5384616E-1,-5.5555557E-3,-2.4166666E-2,-2.0238096E-1,1.3461539E-1,3.693182E-1,5.263158E-2,-3.5714287E-2,3.642857E-1,7.5000003E-3,4.7111112E-1,-1.6981132E-2,5.2083336E-4,-5.5555557E-3,-2.0329671E-2,-2.1052632E-2,1.25E-2,2.3026315E-3,1.6455697E-2,-2.3015874E-2,-3.125E-3,-1.3953489E-2,4.3478264E-3,9.375E-3,-1.4285715E-2,-3.7500001E-3,1.0169491E-2,-3.125E-3,2.037037E-2,1.6666668E-2,-9.09091E-3,-2.1428572E-2,1.5625E-2,2.3214286E-2,1.03448285E-2,1.4062501E-2,2.4166666E-2],"categories":[],"categories_nodes":[],"categories_segments":[],"categories_sizes":[],"default_left":[0,0,0,0,0,0,0,0,0,0,0,0,0,0,0,0,0,0,0,0,0,0,0,0,0,0,0,0,0,0,0,0,0,0,0,0,0,0,0,0,0,0,0,0,0,0,0,0,0,0,0,0,0,0,0,0,0,0,0,0,0,0,0,0,0,0,0,0,0,0,0,0,0],"id":13,"left_children":[1,3,5,7,9,11,13,15,17,19,21,23,-1,25,27,-1,29,31,33,-1,35,-1,-1,-1,37,39,41,43,45,47,49,-1,-1,51,53,55,57,-1,-1,59,61,63,65,67,69,-1,71,-1,-1,-1,-1,-1,-1,-1,-1,-1,-1,-1,-1,-1,-1,-1,-1,-1,-1,-1,-1,-1,-1,-1,-1,-1,-1],"loss_changes":[7.864492E1,1.5512184E1,1.7528503E1,1.0423664E1,4.8666954E0,1.2648149E0,8.820236E0,2.6356287E0,6.801201E0,3.0390701E0,2.6515144E-1,6.647296E-1,0E0,4.994761E0,1.3580513E0,0E0,2.0915394E0,4.4407845E-2,4.4226894E0,0E0,2.3269482E0,0E0,0E0,0E0,7.9707575E-1,3.1000862E0,1.4682083E0,1.7770228E0,7.77092E-1,3.0559158E0,5.6920815E-1,0E0,0E0,1.9830045E0,3.0671725E0,9.4831276E-1,1.9842886E0,0E0,0E0,1.4181548E0,1.1397163E0,1.4728537E0,1.3110048E0,2.049107E0,1.0056648E0,0E0,3.8618088E-1,0E0,0E0,0E0,0E0,0E0,0E0,0E0,0E0,0E0,0E0,0E0,0E0,0E0,0E0,0E0,0E0,0E0,0E0,0E0,0E0,0E0,0E0,0E0,0E0,0E0,0E0],"parents":[2147483647,0,0,1,1,2,2,3,3,4,4,5,5,6,6,7,7,8,8,9,9,10,10,11,11,13,13,14,14,16,16,17,17,18,18,20,20,24,24,25,25,26,26,27,27,28,28,29,29,30,30,33,33,34,34,35,35,36,36,39,39,40,40,41,41,42,42,43,43,44,44,46,46],"right_children":[2,4,6,8,10,12,14,16,18,20,22,24,-1,26,28,-1,30,32,34,-1,36,-1,-1,-1,38,40,42,44,46,48,50,-1,-1,52,54,56,58,-1,-1,60,62,64,66,68,70,-1,72,-1,-1,-1,-1,-1,-1,-1,-1,-1,-1,-1,-1,-1,-1,-1,-1,-1,-1,-1,-1,-1,-1,-1,-1,-1,-1],"split_conditions":[2.55E2,5E0,6.8E-1,1.7271428E2,3.382857E2,9.3E-1,3.11E2,9.6E1,6.8E-1,6.8E1,3.23E1,7.5E-1,4.373932E-2,8.5E-1,3.11E2,1.2879029E-1,1.2E1,2.89E2,7.8E-1,-5.2995424E0,1E0,3.2983476E-1,2.156122E0,-5.1039886E-2,-1.64E2,9E-1,8.86E1,8E-1,2.3585715E2,1E0,1.2521429E2,-3.4247525E0,-2.7796738E0,2.24E2,9E-1,7.709703E1,7.18E1,-1.0992867E0,-3.1156433E0,2.61E2,-2.6E1,4.801686E1,1.7E1,9E-1,3E0,1.682811E0,7.5E-1,-1.34869E0,3.038788E-3,-1.4412965E0,-1.5154858E0,-7.4574393E-1,9.403488E-1,1.4231949E-1,1.3195705E0,-2.163552E0,-1.0900986E0,-6.2590295E-1,5.630913E-2,5.28669E-1,-3.4655038E-1,-1.8745041E-1,5.865223E-1,-1.3783418E-1,1.5294167E0,1.4716781E0,-7.586689E-1,-4.2787132E-1,1.0227005E0,3.0900085E0,1.4802758E0,2.0035539E0,4.055649E0],"split_indices":[36,0,33,38,38,25,36,35,33,35,13,19,0,25,35,0,29,3,25,0,33,0,0,0,42,33,14,25,39,33,39,0,0,38,33,41,14,0,0,36,42,41,29,33,0,0,33,0,0,0,0,0,0,0,0,0,0,0,0,0,0,0,0,0,0,0,0,0,0,0,0,0,0],"split_type":[0,0,0,0,0,0,0,0,0,0,0,0,0,0,0,0,0,0,0,0,0,0,0,0,0,0,0,0,0,0,0,0,0,0,0,0,0,0,0,0,0,0,0,0,0,0,0,0,0,0,0,0,0,0,0,0,0,0,0,0,0,0,0,0,0,0,0,0,0,0,0,0,0],"sum_hessian":[1.324E3,7.33E2,5.91E2,4.03E2,3.3E2,5.3E1,5.38E2,2.04E2,1.99E2,3.2E2,1E1,4.4E1,9E0,2.23E2,3.15E2,7E0,1.97E2,2.3E1,1.76E2,1.87E2,1.33E2,5E0,5E0,7E0,3.7E1,1.18E2,1.05E2,8.2E1,2.33E2,9.9E1,9.8E1,1.8E1,5E0,2.3E1,1.53E2,6.9E1,6.4E1,8E0,2.9E1,4.1E1,7.7E1,8.7E1,1.8E1,1.3E1,6.9E1,9E0,2.24E2,5.2E1,4.7E1,8E0,9E1,1.8E1,5E0,7.5E1,7.8E1,6.2E1,7E0,4.2E1,2.2E1,7E0,3.4E1,1.9E1,5.8E1,7E0,8E1,8E0,1E1,6E0,7E0,4.1E1,2.8E1,1.5E1,2.09E2],"tree_param":{"num_deleted":"0","num_feature":"45","num_nodes":"73","size_leaf_vector":"1"}},{"base_weights":[-8.390541E-3,-2.2068965E-1,2.5383306E-1,-3.617571E-1,-5.899705E-2,1.0925926E-1,3.7578616E-1,-4.863388E-1,-2.4878049E-1,-9.394904E-2,3.653846E-1,-4.379562E-2,2.6492536E-1,-2.7272728E-1,3.9772728E-1,-4.166667E-3,-2.4859551E-2,2.1052632E-1,-2.9411766E-1,-3.8709676E-1,-6.1619718E-2,4.166667E-3,4.2857143E-1,3.5E-2,-2.5E-1,3.2017544E-1,-4.761905E-2,-4.166667E-3,-2.0833334E-2,4.152824E-1,-1.5625E-2,-3.125E-3,1.875E-2,-4.5833334E-1,-2.1484375E-1,-2.4038462E-2,4.166667E-3,-4.227941E-2,-2.3076924E-2,2.34375E-2,1.25E-2,-1.25E-1,1.5789473E-1,-3.6363637E-1,2.0833334E-2,3.537736E-1,-5.5555557E-3,-1.6666668E-2,1.5384616E-1,4.3820226E-1,2.2857143E-1,-2.3636363E-2,-1.25E-2,1.09375E-2,-1.3716814E-2,-8.430233E-3,8.02139E-4,-0E0,-1.9642858E-2,2.0000001E-2,3.4883723E-3,-1.0000001E-2,-2.3684211E-2,1.3934426E-2,2.228261E-2,-3.125E-3,2.0833334E-2,1.8556701E-2,2.3684211E-2,2.1428572E-2,-3.3333336E-3],"categories":[],"categories_nodes":[],"categories_segments":[],"categories_sizes":[],"default_left":[0,0,0,0,0,0,0,0,0,0,0,0,0,0,0,0,0,0,0,0,0,0,0,0,0,0,0,0,0,0,0,0,0,0,0,0,0,0,0,0,0,0,0,0,0,0,0,0,0,0,0,0,0,0,0,0,0,0,0,0,0,0,0,0,0,0,0,0,0,0,0],"id":14,"left_children":[1,3,5,7,9,11,13,15,17,19,21,23,25,27,29,-1,-1,31,33,35,37,-1,39,41,43,45,47,-1,-1,49,-1,-1,-1,51,53,-1,-1,55,-1,-1,-1,57,59,61,-1,63,-1,-1,65,67,69,-1,-1,-1,-1,-1,-1,-1,-1,-1,-1,-1,-1,-1,-1,-1,-1,-1,-1,-1,-1],"loss_changes":[7.303918E1,1.651559E1,1.0308472E1,5.325962E0,5.0627093E0,6.444476E0,4.6333237E0,7.5891876E-1,4.3307705E0,2.9520092E0,4.2765594E-1,2.2347262E0,2.3291712E0,2.6515144E-1,3.9699554E0,0E0,0E0,8.7664473E-1,2.3359013E0,1.4061208E0,2.177099E0,0E0,3.3482075E-2,1.9860525E0,3.030303E0,1.6912165E0,1.2600732E0,0E0,0E0,1.1879387E0,0E0,0E0,0E0,6.174183E-2,3.361847E0,0E0,0E0,2.0066826E0,0E0,0E0,0E0,1.4732144E0,1.18825E0,4.9952126E-1,0E0,6.0706615E-1,0E0,0E0,7.6522434E-1,4.5957947E-1,2.0952382E0,0E0,0E0,0E0,0E0,0E0,0E0,0E0,0E0,0E0,0E0,0E0,0E0,0E0,0E0,0E0,0E0,0E0,0E0,0E0,0E0],"parents":[2147483647,0,0,1,1,2,2,3,3,4,4,5,5,6,6,7,7,8,8,9,9,10,10,11,11,12,12,13,13,14,14,17,17,18,18,19,19,20,20,22,22,23,23,24,24,25,25,26,26,29,29,33,33,34,34,37,37,41,41,42,42,43,43,45,45,48,48,49,49,50,50],"right_children":[2,4,6,8,10,12,14,16,18,20,22,24,26,28,30,-1,-1,32,34,36,38,-1,40,42,44,46,48,-1,-1,50,-1,-1,-1,52,54,-1,-1,56,-1,-1,-1,58,60,62,-1,64,-1,-1,66,68,70,-1,-1,-1,-1,-1,-1,-1,-1,-1,-1,-1,-1,-1,-1,-1,-1,-1,-1,-1,-1],"split_conditions":[2.55E2,1.93E2,8.7E-1,6.8E1,3.68E2,2.5642856E2,4.05169E1,6.820033E1,1.23E2,1.4426666E2,2.5914285E2,8.62E1,4.89E1,3.25E1,1E0,-5.2951913E0,-4.9845653E0,8.5E-1,5.397045E1,9E-1,1E0,1.4163269E0,3.24E1,7.254621E1,2.56E2,5E0,5E0,-4.6325073E-1,-1.6283569E0,5E0,-5.422212E0,-2.2867585E-2,9.2918855E-1,4E1,-6.9E1,-1.7248825E0,2.6003266E-2,1E0,-5.3252997E0,7.952951E0,3.7895997E0,3.63E1,1.0599169E2,2.74E2,5.643097E-1,3.07E2,-1.2599488E-1,-6.4520913E-1,1E0,9E-1,3.4E1,-2.1015766E0,-4.7882705E0,1.2235107E-1,-1.0129833E0,-2.5046083E-1,8.47435E-3,5.228806E-3,-2.330902E-1,8.0019E-1,1.2387925E-1,-2.4807397E-1,-6.943806E-1,1.6093277E0,3.0973327E0,-3.3736268E-1,4.10943E0,1.8826401E0,4.3159633E0,1.1931038E0,-6.2781256E-1],"split_indices":[36,35,25,36,35,38,41,41,36,40,38,14,44,13,8,0,0,25,41,25,8,0,13,41,3,0,29,0,0,0,0,0,0,2,42,0,0,19,0,0,0,13,41,36,0,38,0,0,20,25,2,0,0,0,0,0,0,0,0,0,0,0,0,0,0,0,0,0,0,0,0],"split_type":[0,0,0,0,0,0,0,0,0,0,0,0,0,0,0,0,0,0,0,0,0,0,0,0,0,0,0,0,0,0,0,0,0,0,0,0,0,0,0,0,0,0,0,0,0,0,0,0,0,0,0,0,0,0,0,0,0,0,0,0,0,0,0,0,0,0,0,0,0,0,0],"sum_hessian":[1.31E3,7.24E2,5.86E2,3.86E2,3.38E2,2.69E2,3.17E2,1.82E2,2.04E2,3.13E2,2.5E1,1.36E2,1.33E2,1E1,3.07E2,5E0,1.77E2,1.8E1,1.86E2,3E1,2.83E2,5E0,2E1,9.9E1,3.7E1,1.13E2,2E1,5E0,5E0,3E2,7E0,7E0,1.1E1,5.9E1,1.27E2,2.5E1,5E0,2.71E2,1.2E1,1.5E1,5E0,4.3E1,5.6E1,3.2E1,5E0,1.05E2,8E0,8E0,1.2E1,2.66E2,3.4E1,5.4E1,5E0,1.5E1,1.12E2,8.5E1,1.86E2,3E1,1.3E1,1.4E1,4.2E1,1.4E1,1.8E1,6E1,4.5E1,7E0,5E0,9.6E1,1.7E2,2E1,1.4E1],"tree_param":{"num_deleted":"0","num_feature":"45","num_nodes":"71","size_leaf_vector":"1"}},{"base_weights":[-1.2810851E-2,-2.0965609E-1,2.4737762E-1,-7.692308E-2,-3.8262194E-1,4.6153847E-2,3.505291E-1,-2.5797874E-1,6.404959E-2,-4.1967213E-1,1.04166664E-1,-3.030303E-1,1.16564415E-1,7.017544E-2,3.9906833E-1,-3.2374102E-1,-7E-2,-1.884058E-1,1.637931E-1,-2.4865592E-2,-2.9583332E-1,2.1428572E-2,-2.7777778E-2,3.125E-3,-4.0384614E-1,1.4150944E-2,3.0172414E-1,1.7777778E-1,-3.0769232E-1,2.8879312E-1,4.589372E-1,-3.6363637E-1,-5.263158E-2,-2.2580644E-1,1.75E-1,-2.265625E-1,1.25E-2,3.028846E-1,-4.225352E-2,-4.25E-1,-1.6393442E-1,-2.0833334E-2,1.5384616E-1,-2.3809524E-2,-4.166667E-3,1.9512194E-1,-9.848485E-2,-0E0,3.6458334E-1,3.2258064E-1,-1.3333334E-1,-2.1875E-2,-4.166667E-3,7.3529415E-2,3.7349397E-1,4.725E-1,3.125E-3,-6.6666673E-3,-1.9626169E-2,1.1111111E-2,-1.3636365E-2,-0E0,-2.0588236E-2,-1.25E-2,1.6666668E-2,-8.490566E-3,-2.2916667E-2,-1.1111111E-2,1.7447917E-2,1.4583333E-2,-5.4166666E-3,-9.09091E-3,-2.3500001E-2,2.0833334E-2,-1.1160715E-2,-4.166667E-3,1.5625E-2,1.2857144E-2,-7.1428576E-3,-1.71875E-2,-9.803922E-4,1.25E-2,-1.25E-2,2.0833334E-2,-0E0,-1.25E-2,2.2115385E-2,-2.1875E-2,9.375E-3,-2.1428572E-2,9.821429E-3,3.846154E-3,2.112676E-2,2.409794E-2,7.1428576E-3],"categories":[],"categories_nodes":[],"categories_segments":[],"categories_sizes":[],"default_left":[0,0,0,0,0,0,0,0,0,0,0,0,0,0,0,0,0,0,0,0,0,0,0,0,0,0,0,0,0,0,0,0,0,0,0,0,0,0,0,0,0,0,0,0,0,0,0,0,0,0,0,0,0,0,0,0,0,0,0,0,0,0,0,0,0,0,0,0,0,0,0,0,0,0,0,0,0,0,0,0,0,0,0,0,0,0,0,0,0,0,0,0,0,0,0],"id":15,"left_children":[1,3,5,7,9,11,13,15,17,19,21,23,25,27,29,31,33,35,37,-1,39,-1,41,-1,43,45,47,49,51,53,55,57,59,61,63,65,-1,67,69,71,73,-1,75,-1,-1,77,79,81,83,85,87,-1,-1,89,91,93,-1,-1,-1,-1,-1,-1,-1,-1,-1,-1,-1,-1,-1,-1,-1,-1,-1,-1,-1,-1,-1,-1,-1,-1,-1,-1,-1,-1,-1,-1,-1,-1,-1,-1,-1,-1,-1,-1,-1],"loss_changes":[6.801664E1,1.7327026E1,1.185656E1,1.0966274E1,5.9593964E0,4.829642E0,5.1158752E0,2.3013773E0,6.1246095E0,2.7853928E0,1.0391865E0,1.2413316E0,3.086675E0,2.3722897E0,1.9933205E0,1.4842863E0,1.9481453E0,1.210881E0,4.999522E0,0E0,1.97476E0,0E0,1.3354701E0,0E0,5.6318665E-1,2.1799006E0,1.1000361E0,2.070251E0,3.4214735E-1,2.0875673E0,1.0834656E0,7.526474E-1,1.2099947E0,1.3017076E0,1.4291666E0,7.6397896E-1,0E0,2.5936842E0,1.5982394E0,5.711365E-1,2.192501E0,0E0,5.1522434E-1,0E0,0E0,8.961673E-1,1.2700814E0,7.5E-1,9.11458E-1,2.2357318E0,1.5458333E0,0E0,0E0,2.1822479E0,1.1746664E0,5.5475235E-1,0E0,0E0,0E0,0E0,0E0,0E0,0E0,0E0,0E0,0E0,0E0,0E0,0E0,0E0,0E0,0E0,0E0,0E0,0E0,0E0,0E0,0E0,0E0,0E0,0E0,0E0,0E0,0E0,0E0,0E0,0E0,0E0,0E0,0E0,0E0,0E0,0E0,0E0,0E0],"parents":[2147483647,0,0,1,1,2,2,3,3,4,4,5,5,6,6,7,7,8,8,9,9,10,10,11,11,12,12,13,13,14,14,15,15,16,16,17,17,18,18,20,20,22,22,24,24,25,25,26,26,27,27,28,28,29,29,30,30,31,31,32,32,33,33,34,34,35,35,37,37,38,38,39,39,40,40,42,42,45,45,46,46,47,47,48,48,49,49,50,50,53,53,54,54,55,55],"right_children":[2,4,6,8,10,12,14,16,18,20,22,24,26,28,30,32,34,36,38,-1,40,-1,42,-1,44,46,48,50,52,54,56,58,60,62,64,66,-1,68,70,72,74,-1,76,-1,-1,78,80,82,84,86,88,-1,-1,90,92,94,-1,-1,-1,-1,-1,-1,-1,-1,-1,-1,-1,-1,-1,-1,-1,-1,-1,-1,-1,-1,-1,-1,-1,-1,-1,-1,-1,-1,-1,-1,-1,-1,-1,-1,-1,-1,-1,-1,-1],"split_conditions":[2.6E2,5E0,2.5257143E2,1.657E2,3.0476666E2,1E0,1E0,8.8E-1,1E0,1E0,3.883E1,1.8686667E2,8.8E-1,3.8E1,3.31E2,1.6585715E2,3.3E1,1.1248852E2,8.5E1,-4.7353373E0,5.4783558E1,2.0593612E0,4.196E1,1.285286E-1,2.693E2,6.54E1,6.741838E1,3.24E2,3.66E1,1E0,5E0,1.2407143E2,3.05E1,3.697E1,8.9E1,8.3E1,1.2063217E0,7.8E-1,1.6728572E2,1.7621428E2,2E0,-1.2024254E0,1.2E1,-3.6810346E0,-8.4397507E-1,4E0,1E0,2.76E1,2.63E2,5E0,3.56E2,-2.9429932E0,-3.3455965E-1,8E-1,1E0,1E0,6.5065765E-1,-1.0653054E0,-1.3975426E0,2.8141364E-1,-1.0138401E0,-8.503228E-2,-1.2715905E0,-1.8562698E-1,2.2623329E-1,-4.270489E-1,-4.0823374E0,-5.703964E-1,1.1634858E0,6.8677294E-1,-1.2266236E-1,-5.6397047E0,-1.395868E0,3.8377762E-1,-7.500076E-1,-5.727997E-2,7.763962E-1,6.303261E-1,-1.8774453E-1,-2.8385162E-1,-2.7439881E-2,2.9730377E-1,-1.5499115E-1,1.8845581E0,8.9711154E-1,-2.2447999E0,2.6154404E0,-1.2028633E0,3.6365816E-1,-5.166817E-1,6.214981E-1,3.5996628E-1,2.7298563E0,4.3671646E0,1.1825593E0],"split_indices":[35,0,38,40,40,34,34,25,12,31,15,40,25,44,35,38,13,41,14,0,41,0,15,0,40,14,41,38,13,19,0,39,13,15,3,14,0,25,39,39,29,0,29,0,0,0,24,13,3,1,37,0,0,25,28,11,0,0,0,0,0,0,0,0,0,0,0,0,0,0,0,0,0,0,0,0,0,0,0,0,0,0,0,0,0,0,0,0,0,0,0,0,0,0,0],"split_type":[0,0,0,0,0,0,0,0,0,0,0,0,0,0,0,0,0,0,0,0,0,0,0,0,0,0,0,0,0,0,0,0,0,0,0,0,0,0,0,0,0,0,0,0,0,0,0,0,0,0,0,0,0,0,0,0,0,0,0,0,0,0,0,0,0,0,0,0,0,0,0,0,0,0,0,0,0,0,0,0,0,0,0,0,0,0,0,0,0,0,0,0,0,0,0],"sum_hessian":[1.326E3,7.55E2,5.71E2,4.28E2,3.27E2,1.94E2,3.77E2,1.87E2,2.41E2,3.04E2,2.3E1,3.2E1,1.62E2,5.6E1,3.21E2,1.38E2,4.9E1,6.8E1,1.73E2,1.85E2,1.19E2,6E0,1.7E1,7E0,2.5E1,1.05E2,5.7E1,4.4E1,1.2E1,1.15E2,2.06E2,1.2E2,1.8E1,3E1,1.9E1,6.3E1,5E0,1.03E2,7E1,5.9E1,6E1,5E0,1.2E1,2E1,5E0,4E1,6.5E1,1E1,4.7E1,3E1,1.4E1,7E0,5E0,3.3E1,8.2E1,1.99E2,7E0,1.4E1,1.06E2,8E0,1E1,1.4E1,1.6E1,5E0,1.4E1,5.2E1,1.1E1,8E0,9.5E1,1.1E1,5.9E1,1E1,4.9E1,5E0,5.5E1,5E0,7E0,3.4E1,6E0,1.5E1,5E1,5E0,5E0,4.1E1,6E0,5E0,2.5E1,7E0,7E0,6E0,2.7E1,1.2E1,7E1,1.93E2,6E0],"tree_param":{"num_deleted":"0","num_feature":"45","num_nodes":"95","size_leaf_vector":"1"}},{"base_weights":[-4.576659E-3,-2.2788605E-1,2.263566E-1,-8.215298E-2,-3.904762E-1,-3.4166667E-1,2.8412968E-1,-2.2119816E-1,1.3868614E-1,-4.234694E-1,6.818182E-2,-4E-1,1.25E-2,1.3125E-1,3.89049E-1,1.0294118E-1,-2.798913E-1,-2.6785713E-1,2.4090908E-1,-2.486111E-2,-3.043478E-1,-1.7857143E-1,2.2222223E-2,-4.3E-1,-4.166667E-3,1.8134715E-1,-7.2916664E-2,-7.5000003E-3,4.0384614E-1,-2.0833334E-2,2.0689656E-1,-4.207317E-1,-1.6504854E-1,-4.1666666E-1,-0E0,1.1029412E-1,4.4186047E-1,2.5E-1,-3.7745097E-1,-1.6666668E-2,4.166667E-3,-4.642857E-1,-1.1111111E-2,7.920792E-2,2.9032257E-1,-3.4375E-1,6.0606062E-2,2.920354E-1,4.579646E-1,-7.1428576E-3,1.5217391E-2,-2.4583334E-2,-1.0869565E-2,2.2058825E-3,-1.32142855E-2,-1.25E-2,-2.3076924E-2,1.25E-2,-1.25E-2,1.8421052E-2,5E-4,2.4305556E-2,9.375E-3,-4.166667E-3,2.2222223E-2,-2.3584906E-2,-1.35E-2,-2.4324326E-2,-1.25E-2,-1.2096774E-3,1.1875E-2,1.6470589E-2,-5.5555557E-3,-2.2727273E-2,-4.166667E-3,-1.4583333E-2,1.25E-2,3.846154E-3,2.0000001E-2,9.375E-3,2.3287673E-2],"categories":[],"categories_nodes":[],"categories_segments":[],"categories_sizes":[],"default_left":[0,0,0,0,0,0,0,0,0,0,0,0,0,0,0,0,0,0,0,0,0,0,0,0,0,0,0,0,0,0,0,0,0,0,0,0,0,0,0,0,0,0,0,0,0,0,0,0,0,0,0,0,0,0,0,0,0,0,0,0,0,0,0,0,0,0,0,0,0,0,0,0,0,0,0,0,0,0,0,0,0],"id":16,"left_children":[1,3,5,7,9,11,13,15,17,19,21,23,-1,25,27,29,31,33,35,-1,37,39,-1,41,-1,43,45,-1,47,-1,49,51,53,55,57,59,61,63,65,-1,-1,67,-1,69,71,73,75,77,79,-1,-1,-1,-1,-1,-1,-1,-1,-1,-1,-1,-1,-1,-1,-1,-1,-1,-1,-1,-1,-1,-1,-1,-1,-1,-1,-1,-1,-1,-1,-1,-1],"loss_changes":[6.765928E1,1.5772327E1,2.1263699E1,1.0870111E1,4.795639E0,2.1708336E0,9.348396E0,4.1571846E0,5.757983E0,2.4316254E0,2.1219337E0,4.8666668E-1,0E0,2.4679837E0,2.8283844E0,1.9227517E0,2.9066658E0,1.1160715E0,2.8384633E0,0E0,4.754689E0,5.952381E-1,0E0,2.5301647E-1,0E0,2.1252227E0,1.7566286E0,0E0,1.9115067E0,0E0,1.0319126E0,1.07588E0,2.1496367E0,1.9230843E-2,7.5E-1,1.7567415E0,3.928461E-1,9.444444E-1,9.055891E-1,0E0,0E0,7.818508E-2,0E0,1.6588769E0,1.4959307E0,4.23769E-1,2.2746215E0,2.5936012E0,3.8876343E-1,0E0,0E0,0E0,0E0,0E0,0E0,0E0,0E0,0E0,0E0,0E0,0E0,0E0,0E0,0E0,0E0,0E0,0E0,0E0,0E0,0E0,0E0,0E0,0E0,0E0,0E0,0E0,0E0,0E0,0E0,0E0,0E0],"parents":[2147483647,0,0,1,1,2,2,3,3,4,4,5,5,6,6,7,7,8,8,9,9,10,10,11,11,13,13,14,14,15,15,16,16,17,17,18,18,20,20,21,21,23,23,25,25,26,26,28,28,30,30,31,31,32,32,33,33,34,34,35,35,36,36,37,37,38,38,41,41,43,43,44,44,45,45,46,46,47,47,48,48],"right_children":[2,4,6,8,10,12,14,16,18,20,22,24,-1,26,28,30,32,34,36,-1,38,40,-1,42,-1,44,46,-1,48,-1,50,52,54,56,58,60,62,64,66,-1,-1,68,-1,70,72,74,76,78,80,-1,-1,-1,-1,-1,-1,-1,-1,-1,-1,-1,-1,-1,-1,-1,-1,-1,-1,-1,-1,-1,-1,-1,-1,-1,-1,-1,-1,-1,-1,-1,-1],"split_conditions":[2.43E2,5E0,6.8E-1,1E0,2.8935715E2,4.72E2,3.03E2,1.35E2,7.65E-1,1E0,6.77E1,1E0,2.3866653E-1,8.86E1,1E0,6.375E-1,1E0,2E0,1.96E2,-4.4985704E0,1.16E2,2E0,1.2538697E0,4.667E1,-1.5818329E-1,8.5E-1,2E2,-2.6563722E-1,9E-1,-4.6171184E0,4.3E1,1.9743333E2,8.200958E1,1.45E2,8.3E1,1.6578572E2,8.54E1,5.870102E1,5.4783558E1,-6.0798645E-1,2.7852327E-1,3.95E2,-1.5200474E0,2.49E2,5.065E1,8.7E-1,2.39E2,2.667143E2,4.86E1,-7.7121276E-1,5.818222E-1,-2.0494096E0,-5.676327E-1,3.584671E-2,-6.5368503E-1,-3.3068618E-1,-2.5599484E0,2.528908E-1,-2.1043358E0,9.7804147E-1,9.185105E-2,3.4799225E0,2.2330582E0,-6.2385255E-1,6.5976256E-1,-1.580067E0,-9.4744414E-1,-3.1367214E0,-1.826477E-1,-2.288971E-2,5.1947176E-1,9.0249634E-1,-3.0193862E-1,-6.5262794E-1,-1.9088745E-2,-5.33168E-1,7.178192E-1,1.674099E-1,2.4741395E0,2.741516E0,3.2040703E0],"split_indices":[36,0,33,28,39,36,36,36,33,31,14,11,0,14,24,33,33,24,39,0,36,24,0,15,0,25,3,0,33,0,36,40,41,3,14,39,14,41,41,0,0,35,0,37,15,25,35,39,14,0,0,0,0,0,0,0,0,0,0,0,0,0,0,0,0,0,0,0,0,0,0,0,0,0,0,0,0,0,0,0,0],"split_type":[0,0,0,0,0,0,0,0,0,0,0,0,0,0,0,0,0,0,0,0,0,0,0,0,0,0,0,0,0,0,0,0,0,0,0,0,0,0,0,0,0,0,0,0,0,0,0,0,0,0,0,0,0,0,0,0,0,0,0,0,0,0,0,0,0,0,0,0,0,0,0,0,0,0,0,0,0,0,0,0,0],"sum_hessian":[1.31E3,6.66E2,6.44E2,3.52E2,3.14E2,5.9E1,5.85E2,2.16E2,1.36E2,2.93E2,2.1E1,5.4E1,5E0,2.39E2,3.46E2,3.3E1,1.83E2,2.7E1,1.09E2,1.79E2,1.14E2,1.3E1,8E0,4.9E1,5E0,1.92E2,4.7E1,9E0,3.37E2,5E0,2.8E1,8.1E1,1.02E2,1.7E1,1E1,6.7E1,4.2E1,1.3E1,1.01E2,8E0,5E0,4.1E1,8E0,1E2,9.2E1,1.5E1,3.2E1,1.12E2,2.25E2,6E0,2.2E1,5.9E1,2.2E1,3.3E1,6.9E1,5E0,1.2E1,5E0,5E0,1.8E1,4.9E1,3.5E1,7E0,5E0,8E0,5.2E1,4.9E1,3.6E1,5E0,6.1E1,3.9E1,8.4E1,8E0,1E1,5E0,1.1E1,2.1E1,3.8E1,7.4E1,7E0,2.18E2],"tree_param":{"num_deleted":"0","num_feature":"45","num_nodes":"81","size_leaf_vector":"1"}},{"base_weights":[-1.714939E-2,-2.124665E-1,2.3985891E-1,-4.720812E-1,-1.1909091E-1,-2.9E-1,2.9054055E-1,1.25E-2,-4.921875E-1,-2.5559703E-1,1.0600707E-2,-3.9285713E-1,1.1111111E-2,1.6988418E-1,4.096154E-1,-2.486631E-2,-1.25E-2,-2.868526E-1,1.9444445E-1,-1.017964E-1,1.7094018E-1,-2.265625E-2,-1.8181819E-1,1.03365384E-1,4.3269232E-1,1.5789473E-1,4.2768595E-1,-4.5833334E-1,-2.3177083E-1,2.1875E-2,-0E0,3.9772727E-2,-2.5625E-1,1.5384615E-2,3.5849056E-1,-1.25E-2,-4.166667E-3,-7.058824E-2,2.2177419E-1,4.680851E-1,4.166667E-3,1.875E-2,-9.375E-3,4.630682E-1,3.283582E-1,-2.4519231E-2,-1.1111111E-2,1.4583333E-2,-1.3259669E-2,-1.25E-2,1.25E-2,1.1818182E-2,-1.3970588E-2,-1.6287878E-2,3.3333336E-3,7.692308E-3,-9.259259E-3,-0E0,2.0212768E-2,-2.3611112E-2,1.8382354E-3,-1.8518519E-3,1.4540817E-2,2.4404762E-2,1.25E-2,1.9387756E-2,2.4414062E-2,1.875E-2,-3.125E-3],"categories":[],"categories_nodes":[],"categories_segments":[],"categories_sizes":[],"default_left":[0,0,0,0,0,0,0,0,0,0,0,0,0,0,0,0,0,0,0,0,0,0,0,0,0,0,0,0,0,0,0,0,0,0,0,0,0,0,0,0,0,0,0,0,0,0,0,0,0,0,0,0,0,0,0,0,0,0,0,0,0,0,0,0,0,0,0,0,0],"id":17,"left_children":[1,3,5,7,9,11,13,-1,15,17,19,21,-1,23,25,-1,-1,27,29,31,33,-1,35,37,39,41,43,45,47,-1,49,51,53,55,57,-1,-1,59,61,63,-1,-1,-1,65,67,-1,-1,-1,-1,-1,-1,-1,-1,-1,-1,-1,-1,-1,-1,-1,-1,-1,-1,-1,-1,-1,-1,-1,-1],"loss_changes":[6.591089E1,1.8028069E1,1.5310539E1,2.9831657E0,9.739742E0,2.7215877E0,7.372589E0,0E0,1.14616394E-1,3.8255463E0,5.1175404E0,4.5180607E-1,0E0,4.483029E0,1.115139E0,0E0,0E0,2.2645817E0,8.506944E-1,3.6617908E0,3.407902E0,0E0,5.3030282E-2,4.299964E0,6.039629E-1,1.4950658E0,6.9844055E-1,3.4508514E-1,3.4363127E0,0E0,7.5E-1,5.5879345E0,1.8173294E0,1.8336182E0,8.695302E-1,0E0,0E0,3.6822712E0,2.226512E0,8.308029E-2,0E0,0E0,0E0,1.4487076E-1,1.2448692E0,0E0,0E0,0E0,0E0,0E0,0E0,0E0,0E0,0E0,0E0,0E0,0E0,0E0,0E0,0E0,0E0,0E0,0E0,0E0,0E0,0E0,0E0,0E0,0E0],"parents":[2147483647,0,0,1,1,2,2,3,3,4,4,5,5,6,6,8,8,9,9,10,10,11,11,13,13,14,14,17,17,18,18,19,19,20,20,22,22,23,23,24,24,25,25,26,26,27,27,28,28,30,30,31,31,32,32,33,33,34,34,37,37,38,38,39,39,43,43,44,44],"right_children":[2,4,6,8,10,12,14,-1,16,18,20,22,-1,24,26,-1,-1,28,30,32,34,-1,36,38,40,42,44,46,48,-1,50,52,54,56,58,-1,-1,60,62,64,-1,-1,-1,66,68,-1,-1,-1,-1,-1,-1,-1,-1,-1,-1,-1,-1,-1,-1,-1,-1,-1,-1,-1,-1,-1,-1,-1,-1],"split_conditions":[2.55E2,6.8E1,6.8E-1,4E0,1E0,4.3E2,8.8E-1,2.1847458E-1,6.8E1,2.9814285E2,1E0,4.53E1,1.9746208E-1,3.1085715E2,2E0,-4.2736416E0,-4.1301346E-1,6.8E-1,4E0,8.251753E1,7.18E1,-2.6946068E0,1.49E2,9E-1,5E0,8E1,8.5E1,2.425E2,1.13E2,3.6824129E0,8.71E1,5E0,9E-1,2.36E2,3.8E1,-3.6324692E-1,-1.6671593E0,7.9E-1,1E0,5.026E1,1.9704743E-1,5.469376E-1,-3.3235016E-1,9E-1,3.8E1,-4.4250345E0,-2.02332E0,1.1226883E0,-9.1547203E-1,-8.534355E-1,8.55632E-1,3.7553293E-1,-8.4065247E-1,-8.412773E-1,6.0748674E-2,5.050495E-1,-3.875824E-1,3.8298187E-1,2.0033863E0,-4.574936E-1,1.4752961E-2,-3.037262E-2,1.2099122E0,3.0668685E0,2.1889954E0,2.7814615E0,3.890326E0,1.5730103E0,-8.9566045E-2],"split_indices":[36,35,33,0,33,36,25,0,36,38,28,15,0,38,24,0,0,33,0,41,14,0,3,33,0,3,14,40,35,0,14,0,25,36,37,0,0,25,28,15,0,0,0,25,2,0,0,0,0,0,0,0,0,0,0,0,0,0,0,0,0,0,0,0,0,0,0,0,0],"split_type":[0,0,0,0,0,0,0,0,0,0,0,0,0,0,0,0,0,0,0,0,0,0,0,0,0,0,0,0,0,0,0,0,0,0,0,0,0,0,0,0,0,0,0,0,0,0,0,0,0,0,0,0,0,0,0,0,0,0,0,0,0,0,0,0,0,0,0,0,0],"sum_hessian":[1.311E3,7.45E2,5.66E2,1.96E2,5.49E2,4.9E1,5.17E2,5E0,1.91E2,2.67E2,2.82E2,4.1E1,8E0,2.58E2,2.59E2,1.86E2,5E0,2.5E2,1.7E1,1.66E2,1.16E2,3.1E1,1E1,2.07E2,5.1E1,1.8E1,2.41E2,5.9E1,1.91E2,7E0,1E1,8.7E1,7.9E1,6.4E1,5.2E1,5E0,5E0,8.4E1,1.23E2,4.6E1,5E0,1.1E1,7E0,1.75E2,6.6E1,5.1E1,8E0,1.1E1,1.8E2,5E0,5E0,5.4E1,3.3E1,6.5E1,1.4E1,3.8E1,2.6E1,6E0,4.6E1,1.7E1,6.7E1,2.6E1,9.7E1,4.1E1,5E0,4.8E1,1.27E2,5.9E1,7E0],"tree_param":{"num_deleted":"0","num_feature":"45","num_nodes":"69","size_leaf_vector":"1"}},{"base_weights":[-3.4456927E-2,-2.2361478E-1,2.1366782E-1,-4.8267326E-1,-1.2926391E-1,-3.3333334E-1,2.729885E-1,-2.487245E-2,-0E0,-2.435484E-1,1.4112903E-2,-3.9215687E-1,7.1428576E-3,1.5E-1,4.248927E-1,2.9411766E-1,-2.7380952E-1,-2.7118644E-1,1.0263158E-1,-4.2391303E-1,-4.166667E-3,-5.6603774E-2,1.9537815E-1,4.364035E-1,-4.166667E-3,2.2916667E-2,-4.166667E-3,-3.9492753E-1,-1.656051E-1,-3.9772728E-1,9.375E-2,-8.264462E-3,2.9285714E-1,-4.5945945E-1,-1.25E-2,1.4285715E-1,-1.8181819E-1,8E-2,3.2017544E-1,2.0833333E-1,4.4700462E-1,-2.2098215E-2,-9.259259E-3,-1.0629921E-2,1.6129032E-3,-2.2857143E-2,-7.5000003E-3,1.5625E-2,-5.5555557E-3,-1.764706E-2,2.3809525E-3,2.0000001E-2,4.8076925E-3,-1.25E-2,-2.4218751E-2,1.607143E-2,-9.375E-3,1.25E-2,-1.3392857E-2,6.435644E-3,-6E-3,1.7961165E-2,-2.0833334E-3,4.166667E-3,1.4285715E-2,9.375E-3,2.2738095E-2],"categories":[],"categories_nodes":[],"categories_segments":[],"categories_sizes":[],"default_left":[0,0,0,0,0,0,0,0,0,0,0,0,0,0,0,0,0,0,0,0,0,0,0,0,0,0,0,0,0,0,0,0,0,0,0,0,0,0,0,0,0,0,0,0,0,0,0,0,0,0,0,0,0,0,0,0,0,0,0,0,0,0,0,0,0,0,0],"id":18,"left_children":[1,3,5,7,9,11,13,-1,-1,15,17,19,-1,21,23,25,27,29,31,33,-1,35,37,39,-1,-1,-1,41,43,45,47,49,51,53,-1,55,57,59,61,63,65,-1,-1,-1,-1,-1,-1,-1,-1,-1,-1,-1,-1,-1,-1,-1,-1,-1,-1,-1,-1,-1,-1,-1,-1,-1,-1],"loss_changes":[6.270566E1,1.846494E1,1.884622E1,1.4406319E0,9.130296E0,1.6526608E0,9.688515E0,0E0,0E0,5.1243515E0,6.2909036E0,4.6483374E-1,0E0,2.729895E0,1.3994408E0,1.0919118E0,3.7876167E0,2.7618694E0,4.01052E0,1.6950703E-1,0E0,1.3496692E0,3.4013195E0,4.5812988E-1,0E0,0E0,0E0,1.2796078E0,1.4666834E0,5.790582E-1,7.517361E-1,2.347478E0,1.4368129E0,7.200146E-2,0E0,1.2991071E0,1.2930194E0,1.2332675E0,1.6256914E0,9.226197E-2,3.515663E-1,0E0,0E0,0E0,0E0,0E0,0E0,0E0,0E0,0E0,0E0,0E0,0E0,0E0,0E0,0E0,0E0,0E0,0E0,0E0,0E0,0E0,0E0,0E0,0E0,0E0,0E0],"parents":[2147483647,0,0,1,1,2,2,3,3,4,4,5,5,6,6,9,9,10,10,11,11,13,13,14,14,15,15,16,16,17,17,18,18,19,19,21,21,22,22,23,23,27,27,28,28,29,29,30,30,31,31,32,32,33,33,35,35,36,36,37,37,38,38,39,39,40,40],"right_children":[2,4,6,8,10,12,14,-1,-1,16,18,20,-1,22,24,26,28,30,32,34,-1,36,38,40,-1,-1,-1,42,44,46,48,50,52,54,-1,56,58,60,62,64,66,-1,-1,-1,-1,-1,-1,-1,-1,-1,-1,-1,-1,-1,-1,-1,-1,-1,-1,-1,-1,-1,-1,-1,-1,-1,-1],"split_conditions":[2.57E2,6.8E1,6.8E-1,1.03E2,1E0,4.72E2,3.39E2,-4.0599594E0,8.6940005E-2,1.11E2,8.5E-1,4.02E2,2.2387238E-1,1E0,5E0,3.22E1,1E0,3.44E2,2E0,4.53E1,-2.842888E-1,3.836E1,2E0,7.65E-1,-3.6475372E-1,6.010429E-1,-1.9999657E0,2.24E2,2.34E2,1E0,4.103E1,1E0,1E0,6.148674E1,-9.4132465E-1,5.7224705E1,1E0,4.547E1,6.1E1,5E0,1E0,-2.0033524E0,-5.234501E-1,-5.7516634E-1,5.771141E-2,-3.064577E0,-9.6063234E-2,1.6712724E-1,-5.2632064E-1,-1.3346767E0,1.6932793E-1,2.3286858E0,1.8157044E-1,-2.2760339E0,-2.6022394E0,4.543793E-1,-6.875168E-1,2.2870255E-1,-2.365036E-1,4.5875627E-1,-3.6254653E-1,1.4149666E0,-3.9325714E-2,2.5285339E-2,1.8602532E0,8.6134034E-1,3.6295776E0],"split_indices":[35,36,33,42,28,35,35,0,0,36,33,36,0,28,0,13,33,37,24,15,0,15,24,33,0,0,0,35,36,9,15,24,17,41,0,41,43,15,42,1,24,0,0,0,0,0,0,0,0,0,0,0,0,0,0,0,0,0,0,0,0,0,0,0,0,0,0],"split_type":[0,0,0,0,0,0,0,0,0,0,0,0,0,0,0,0,0,0,0,0,0,0,0,0,0,0,0,0,0,0,0,0,0,0,0,0,0,0,0,0,0,0,0,0,0,0,0,0,0,0,0,0,0,0,0,0,0,0,0,0,0,0,0,0,0,0,0],"sum_hessian":[1.334E3,7.57E2,5.77E2,2.01E2,5.56E2,5.6E1,5.21E2,1.95E2,6E0,3.09E2,2.47E2,5E1,6E0,2.89E2,2.32E2,1.6E1,2.93E2,5.8E1,1.89E2,4.5E1,5E0,5.2E1,2.37E2,2.27E2,5E0,1.1E1,5E0,1.37E2,1.56E2,4.3E1,1.5E1,1.2E2,6.9E1,3.6E1,9E0,2E1,3.2E1,1.24E2,1.13E2,1.1E1,2.16E2,1.11E2,2.6E1,1.26E2,3E1,3.4E1,9E0,7E0,8E0,1.6E1,1.04E2,4.4E1,2.5E1,5E0,3.1E1,1.3E1,7E0,5E0,2.7E1,1E2,2.4E1,1.02E2,1.1E1,5E0,6E0,7E0,2.09E2],"tree_param":{"num_deleted":"0","num_feature":"45","num_nodes":"67","size_leaf_vector":"1"}},{"base_weights":[-3.300825E-2,-2.1883117E-1,2.2074468E-1,-9.659091E-2,-3.8066465E-1,-3.625E-1,2.647619E-1,-2.562814E-1,3.5123967E-2,-2.4863388E-2,-2.3489933E-1,-4.5588234E-1,7.1428576E-3,1.3688213E-1,3.9163497E-1,-4.065934E-1,-1.2844037E-1,-2.4107143E-1,1.1764706E-1,-3.0708662E-1,1.7391305E-1,-1.25E-2,-2.4137931E-2,4.5161292E-2,2.6605505E-1,2.736842E-1,4.556213E-1,-4.5454547E-1,-1.3333334E-1,1.3513513E-1,-2.6027396E-1,1.7857144E-2,-2.4137931E-2,4.4642857E-1,5.9375E-2,-4.1911766E-1,-1.75E-1,2.2499999E-2,-3.5714287E-2,9.913793E-2,-1.125E-1,-1.25E-2,2.9326922E-1,1.5625E-2,3.984375E-1,4.6646342E-1,4.166667E-3,-1.25E-2,-2.326389E-2,1.25E-2,-1.75E-2,8.928572E-4,2.2499999E-2,7.5000003E-3,-1.6015625E-2,-1.25E-2,1.3333335E-2,1.25E-2,2.3913044E-2,-1.6826924E-3,1.14035085E-2,-3.125E-3,-2.2950819E-2,-1.8518519E-2,-7.3529413E-4,-2.0833334E-2,1.1111111E-2,1.3125E-2,6.4935064E-4,1.5625E-2,-1.0606061E-2,6.410257E-3,1.9318182E-2,-1.25E-2,1.0526316E-2,9.09091E-3,2.175926E-2,2.4143836E-2,1.5789473E-2],"categories":[],"categories_nodes":[],"categories_segments":[],"categories_sizes":[],"default_left":[0,0,0,0,0,0,0,0,0,0,0,0,0,0,0,0,0,0,0,0,0,0,0,0,0,0,0,0,0,0,0,0,0,0,0,0,0,0,0,0,0,0,0,0,0,0,0,0,0,0,0,0,0,0,0,0,0,0,0,0,0,0,0,0,0,0,0,0,0,0,0,0,0,0,0,0,0,0,0],"id":19,"left_children":[1,3,5,7,9,11,13,15,17,-1,19,21,-1,23,25,27,29,31,33,35,37,-1,-1,39,41,43,45,47,49,51,53,55,-1,57,59,61,63,-1,65,67,69,-1,71,73,75,77,-1,-1,-1,-1,-1,-1,-1,-1,-1,-1,-1,-1,-1,-1,-1,-1,-1,-1,-1,-1,-1,-1,-1,-1,-1,-1,-1,-1,-1,-1,-1,-1,-1],"loss_changes":[6.2903404E1,1.5195808E1,1.4575441E1,9.263792E0,5.509098E0,1.9527836E0,8.464252E0,3.7717695E0,5.5441465E0,0E0,4.450553E0,6.7444324E-2,0E0,3.1039681E0,1.8602295E0,1.1318026E0,3.8227165E0,3.5130851E0,3.5561843E0,1.805975E0,1.3472049E0,0E0,0E0,1.3302071E0,1.6041155E0,3.0521793E0,6.4328E-1,5.2714348E-2,1.3333334E0,1.358253E0,1.8462005E0,1.9327382E0,0E0,5.551243E-2,2.5186381E0,9.388561E-1,1.8735565E0,0E0,1.4682539E0,1.6291506E0,1.7598485E0,0E0,1.5485868E0,1.7092928E0,4.3033123E-1,2.5309372E-1,0E0,0E0,0E0,0E0,0E0,0E0,0E0,0E0,0E0,0E0,0E0,0E0,0E0,0E0,0E0,0E0,0E0,0E0,0E0,0E0,0E0,0E0,0E0,0E0,0E0,0E0,0E0,0E0,0E0,0E0,0E0,0E0,0E0],"parents":[2147483647,0,0,1,1,2,2,3,3,4,4,5,5,6,6,7,7,8,8,10,10,11,11,13,13,14,14,15,15,16,16,17,17,18,18,19,19,20,20,23,23,24,24,25,25,26,26,27,27,28,28,29,29,30,30,31,31,33,33,34,34,35,35,36,36,38,38,39,39,40,40,42,42,43,43,44,44,45,45],"right_children":[2,4,6,8,10,12,14,16,18,-1,20,22,-1,24,26,28,30,32,34,36,38,-1,-1,40,42,44,46,48,50,52,54,56,-1,58,60,62,64,-1,66,68,70,-1,72,74,76,78,-1,-1,-1,-1,-1,-1,-1,-1,-1,-1,-1,-1,-1,-1,-1,-1,-1,-1,-1,-1,-1,-1,-1,-1,-1,-1,-1,-1,-1,-1,-1,-1,-1],"split_conditions":[2.6E2,5E0,6.375E-1,1.6385715E2,6E2,4.19E2,3.31E2,1E0,8.5E-1,-3.9069614E0,3.75E2,2.85E1,9.845009E-2,2.5885715E2,2E0,2.3E2,8E0,4.620194E1,-1.16E2,1E0,4.03E2,-3.0325425E0,-3.0350723E0,5E1,4.349658E1,2.85E2,5.37E1,2.79E1,1E0,8.890792E1,7.579546E1,2.64E2,-2.486457E0,2.67E1,2.1128572E2,1.13E2,9.8E1,1.5306152E0,4.196E1,8E0,1E0,-2.724823E-1,9E-1,9E-1,1E1,3.9E1,1.0824661E0,-1.3203499E0,-1.8594903E0,1.814782E0,-3.0970833E0,1.6197205E-3,8.599831E-1,7.960892E-2,-7.706055E-1,-1.0061356E0,1.8363725E-1,1.4207153E0,2.862954E0,-3.6257934E-2,5.6058425E-1,-2.6613617E-2,-1.7569866E0,-6.907703E-1,-2.0908356E-2,-1.1190872E0,1.7560998E-1,3.6582565E-1,1.8065644E-2,1.3320885E0,-1.9016266E-1,5.41177E-1,2.0087967E0,-8.572632E-1,7.410843E-1,2.6227784E0,2.4989E0,3.6081588E0,3.1363373E0],"split_indices":[35,0,33,38,32,35,35,33,33,0,37,13,0,39,24,37,29,41,42,33,37,0,0,42,41,38,44,13,10,41,41,37,0,13,38,35,3,0,15,29,0,0,33,33,2,2,0,0,0,0,0,0,0,0,0,0,0,0,0,0,0,0,0,0,0,0,0,0,0,0,0,0,0,0,0,0,0,0,0],"split_type":[0,0,0,0,0,0,0,0,0,0,0,0,0,0,0,0,0,0,0,0,0,0,0,0,0,0,0,0,0,0,0,0,0,0,0,0,0,0,0,0,0,0,0,0,0,0,0,0,0,0,0,0,0,0,0,0,0,0,0,0,0,0,0,0,0,0,0,0,0,0,0,0,0,0,0,0,0,0,0],"sum_hessian":[1.332E3,7.69E2,5.63E2,4.39E2,3.3E2,3.9E1,5.24E2,1.98E2,2.41E2,1.82E2,1.48E2,3.3E1,6E0,2.62E2,2.62E2,9E1,1.08E2,5.5E1,1.86E2,1.26E2,2.2E1,5E0,2.8E1,1.54E2,1.08E2,9.4E1,1.68E2,7.6E1,1.4E1,3.6E1,7.2E1,2.7E1,2.8E1,2.7E1,1.59E2,6.7E1,5.9E1,9E0,1.3E1,1.15E2,3.9E1,5E0,1.03E2,3.1E1,6.3E1,1.63E2,5E0,5E0,7.1E1,5E0,9E0,2.7E1,9E0,9E0,6.3E1,1.3E1,1.4E1,5E0,2.2E1,1.03E2,5.6E1,7E0,6E1,2.6E1,3.3E1,5E0,8E0,3.9E1,7.6E1,7E0,3.2E1,3.8E1,6.5E1,1.3E1,1.8E1,1E1,5.3E1,1.45E2,1.8E1],"tree_param":{"num_deleted":"0","num_feature":"45","num_nodes":"79","size_leaf_vector":"1"}},{"base_weights":[-2.2659732E-2,-2.2045153E-1,2.2811447E-1,-4.6134022E-1,-1.3660714E-1,-2.5E-1,2.7155963E-1,-2.4864865E-2,1.25E-2,-2.6048952E-1,-7.2727273E-3,-3.970588E-1,5.882353E-2,1.4126395E-1,3.9711192E-1,-3.2207206E-1,-4.6153847E-2,-5.625E-2,3.1944445E-1,-4.4642857E-1,-7.1428576E-3,-2.0833334E-2,2.9166666E-1,5.6410257E-2,3.6E-1,2.8804347E-1,4.4892472E-1,-4.7272727E-1,-2.7083334E-1,-2.159091E-1,2.9545453E-1,-1.25E-1,1.4754099E-1,4.1666668E-2,4.4E-1,-2.3913044E-2,-1.25E-2,4.166667E-3,2.1428572E-2,1.2080537E-1,-1.4893617E-1,2.0833333E-1,2.4375001E-2,-9.375E-3,3.2941177E-1,2.7272728E-1,4.5738637E-1,-1.25E-2,-2.4500001E-2,-5.0847456E-3,-1.7954545E-2,-2.3611112E-2,-1.8518519E-3,-3.125E-3,2.3333333E-2,-9.239131E-3,3.4883723E-3,3.5E-3,2.2916667E-2,-4.166667E-3,7.1428576E-3,2.375E-2,1.25E-2,-1.818182E-2,7.91367E-3,-1.5178571E-2,3.7500001E-3,1.2500001E-3,2.0588236E-2,1.8269232E-2,-3.125E-3,4.166667E-3,2.0833334E-2,2.471591E-2,2.0786516E-2],"categories":[],"categories_nodes":[],"categories_segments":[],"categories_sizes":[],"default_left":[0,0,0,0,0,0,0,0,0,0,0,0,0,0,0,0,0,0,0,0,0,0,0,0,0,0,0,0,0,0,0,0,0,0,0,0,0,0,0,0,0,0,0,0,0,0,0,0,0,0,0,0,0,0,0,0,0,0,0,0,0,0,0,0,0,0,0,0,0,0,0,0,0,0,0],"id":20,"left_children":[1,3,5,7,9,11,13,-1,-1,15,17,19,21,23,25,27,29,31,33,35,-1,-1,37,39,41,43,45,47,49,51,53,55,57,59,61,-1,-1,-1,-1,63,65,67,-1,-1,69,71,73,-1,-1,-1,-1,-1,-1,-1,-1,-1,-1,-1,-1,-1,-1,-1,-1,-1,-1,-1,-1,-1,-1,-1,-1,-1,-1,-1,-1],"loss_changes":[6.681334E1,1.5145443E1,1.2406315E1,5.086403E0,8.970569E0,2.294118E0,8.859516E0,0E0,0E0,3.7601452E0,4.418441E0,3.629198E-1,2.0036764E0,4.9724836E0,1.4360542E0,1.5856743E0,3.8331292E0,3.3809938E0,1.1872225E0,5.551243E-2,0E0,0E0,3.0654752E-1,2.596537E0,1.3487501E0,1.8716278E0,1.5256882E-1,8.90913E-2,2.471343E0,1.9997895E0,1.3774621E0,2.108759E0,1.4379646E0,1.6369049E-1,4.7499657E-2,0E0,0E0,0E0,0E0,2.762063E0,1.6503038E0,1.3323529E0,0E0,0E0,1.2211819E0,2.6515144E-1,6.526184E-2,0E0,0E0,0E0,0E0,0E0,0E0,0E0,0E0,0E0,0E0,0E0,0E0,0E0,0E0,0E0,0E0,0E0,0E0,0E0,0E0,0E0,0E0,0E0,0E0,0E0,0E0,0E0,0E0],"parents":[2147483647,0,0,1,1,2,2,3,3,4,4,5,5,6,6,9,9,10,10,11,11,12,12,13,13,14,14,15,15,16,16,17,17,18,18,19,19,22,22,23,23,24,24,25,25,26,26,27,27,28,28,29,29,30,30,31,31,32,32,33,33,34,34,39,39,40,40,41,41,44,44,45,45,46,46],"right_children":[2,4,6,8,10,12,14,-1,-1,16,18,20,22,24,26,28,30,32,34,36,-1,-1,38,40,42,44,46,48,50,52,54,56,58,60,62,-1,-1,-1,-1,64,66,68,-1,-1,70,72,74,-1,-1,-1,-1,-1,-1,-1,-1,-1,-1,-1,-1,-1,-1,-1,-1,-1,-1,-1,-1,-1,-1,-1,-1,-1,-1,-1,-1],"split_conditions":[2.55E2,6.8E1,6.8E-1,7.6E1,1E0,9E-1,8.8E-1,-3.6616135E0,2.74839E-1,8.6827415E1,1.26E2,1E0,2.8373334E2,2.8542856E2,1E0,6.375E-1,8.8E-1,7.95E1,2.3742857E2,2.87E2,-5.2624243E-1,-2.3936913E0,3.75E2,8.71E1,3.53E2,6E1,2.1413333E2,2E0,1.78E2,1E0,1.9228572E2,2.34E2,8.7E-1,5E0,3.777E1,-3.2703075E0,-2.9180696E0,4.2631533E-2,9.352761E-2,5.22E1,1.4E1,8.2E-1,2.509671E0,-1.4955902E-1,1.4372362E2,2.44E2,6E0,-3.6137407E0,-4.141075E0,-3.6476174E-1,-9.5933306E-1,-1.8703225E0,-1.1287079E-1,-1.5591125E-1,2.10799E0,-2.5836182E-1,5.569191E-2,1.6810761E-1,2.0875251E0,-2.053589E-1,2.2407113E-1,2.5305314E0,1.3280777E0,-2.771332E-1,4.3629152E-1,-4.0961915E-1,4.8228762E-1,4.2323E-1,1.2823769E0,1.6435715E0,-1.4013214E-1,3.5383606E-1,1.6740891E0,3.6421967E0,2.5670135E0],"split_indices":[36,35,33,36,33,25,25,0,0,41,42,11,40,38,33,33,25,14,38,3,0,0,36,14,36,14,40,29,3,30,38,36,25,1,15,0,0,0,0,14,29,25,0,0,41,35,29,0,0,0,0,0,0,0,0,0,0,0,0,0,0,0,0,0,0,0,0,0,0,0,0,0,0,0,0],"split_type":[0,0,0,0,0,0,0,0,0,0,0,0,0,0,0,0,0,0,0,0,0,0,0,0,0,0,0,0,0,0,0,0,0,0,0,0,0,0,0,0,0,0,0,0,0,0,0,0,0,0,0,0,0,0,0,0,0,0,0,0,0,0,0,0,0,0,0,0,0,0,0,0,0,0,0],"sum_hessian":[1.345E3,7.52E2,5.93E2,1.93E2,5.59E2,4.9E1,5.44E2,1.84E2,9E0,2.85E2,2.74E2,3.3E1,1.6E1,2.68E2,2.76E2,2.21E2,6.4E1,2.39E2,3.5E1,2.7E1,6E0,5E0,1.1E1,1.94E2,7.4E1,9.1E1,1.85E2,5.4E1,1.67E2,4.3E1,2.1E1,1.79E2,6E1,1.1E1,2.4E1,2.2E1,5E0,5E0,6E0,1.48E2,4.6E1,3.5E1,3.9E1,7E0,8.4E1,1E1,1.75E2,5E0,4.9E1,5.8E1,1.09E2,1.7E1,2.6E1,7E0,1.4E1,1.37E2,4.2E1,4.9E1,1.1E1,5E0,6E0,1.9E1,5E0,1E1,1.38E2,2.7E1,1.9E1,1.9E1,1.6E1,7.7E1,7E0,5E0,5E0,8.7E1,8.8E1],"tree_param":{"num_deleted":"0","num_feature":"45","num_nodes":"75","size_leaf_vector":"1"}},{"base_weights":[-3.7218045E-2,-2.3759398E-1,1.6291292E-1,-4.6948355E-1,-1.2803532E-1,-2.982456E-1,2.0573771E-1,-2.487374E-2,-9.375E-2,-2.4440299E-1,4.032258E-2,-4.516129E-1,-1.1111111E-1,9.8648645E-2,3.692946E-1,-1.6666668E-2,9.375E-3,2.3529412E-1,-2.7579364E-1,-1.00961536E-1,2.1686748E-1,-2.4038462E-2,-1.25E-2,1.6666668E-2,-3.1578946E-1,1.25E-2,1.9883041E-1,3.960177E-1,-3.125E-2,2.2916667E-2,-1.25E-2,-4.027778E-1,-1.7931035E-1,-3.8636363E-1,-2.4096385E-2,3.3695653E-1,6.5789476E-2,-1.9642858E-2,-4.166667E-3,3.1088082E-2,-2.1875E-2,-7.954545E-2,2.9296875E-1,2.8169015E-1,4.4551283E-1,9.090909E-2,-1.25E-2,-5.5555557E-3,-2.125E-2,5.882353E-3,-1.0852713E-2,-2.3333333E-2,-9.375E-3,5.0925924E-3,-1.25E-2,2.0689657E-2,9.722223E-3,1.923077E-2,-4.8076925E-3,2.1875E-2,6.72043E-4,-1.4062501E-2,1.7241379E-3,1.7117118E-2,-1.3888889E-3,1.8867925E-2,-0E0,1.4E-2,2.3674242E-2,1.25E-2,-4.166667E-3],"categories":[],"categories_nodes":[],"categories_segments":[],"categories_sizes":[],"default_left":[0,0,0,0,0,0,0,0,0,0,0,0,0,0,0,0,0,0,0,0,0,0,0,0,0,0,0,0,0,0,0,0,0,0,0,0,0,0,0,0,0,0,0,0,0,0,0,0,0,0,0,0,0,0,0,0,0,0,0,0,0,0,0,0,0,0,0,0,0,0,0],"id":21,"left_children":[1,3,5,7,9,11,13,-1,15,17,19,21,23,25,27,-1,-1,29,31,33,35,-1,-1,-1,37,39,41,43,45,-1,-1,47,49,51,53,55,57,-1,-1,59,-1,61,63,65,67,69,-1,-1,-1,-1,-1,-1,-1,-1,-1,-1,-1,-1,-1,-1,-1,-1,-1,-1,-1,-1,-1,-1,-1,-1,-1],"loss_changes":[5.3373604E1,1.6834557E1,1.3214207E1,2.193531E0,8.884768E0,1.5857387E0,1.0647814E1,0E0,1.140625E0,4.100439E0,4.6612916E0,6.2034607E-2,2.5614035E0,3.1908083E0,2.5919914E0,0E0,0E0,1.9546568E0,3.0152454E0,2.2721877E0,1.483685E0,0E0,0E0,0E0,3.0764425E-1,1.6865284E0,4.5045033E0,1.1533585E0,4.502841E-1,0E0,0E0,6.527767E-1,1.6507449E0,2.6382565E-1,2.3869925E0,4.2324638E-1,1.9989878E0,0E0,0E0,1.3783236E0,0E0,1.0216986E0,2.0365705E0,1.9133668E0,5.8966255E-1,3.2575756E-1,0E0,0E0,0E0,0E0,0E0,0E0,0E0,0E0,0E0,0E0,0E0,0E0,0E0,0E0,0E0,0E0,0E0,0E0,0E0,0E0,0E0,0E0,0E0,0E0,0E0],"parents":[2147483647,0,0,1,1,2,2,3,3,4,4,5,5,6,6,8,8,9,9,10,10,11,11,12,12,13,13,14,14,17,17,18,18,19,19,20,20,24,24,25,25,26,26,27,27,28,28,31,31,32,32,33,33,34,34,35,35,36,36,39,39,41,41,42,42,43,43,44,44,45,45],"right_children":[2,4,6,8,10,12,14,-1,16,18,20,22,24,26,28,-1,-1,30,32,34,36,-1,-1,-1,38,40,42,44,46,-1,-1,48,50,52,54,56,58,-1,-1,60,-1,62,64,66,68,70,-1,-1,-1,-1,-1,-1,-1,-1,-1,-1,-1,-1,-1,-1,-1,-1,-1,-1,-1,-1,-1,-1,-1,-1,-1],"split_conditions":[2.4E2,6.8E1,6.375E-1,7.6E1,1E0,2.8626666E2,3.27E2,-3.4785328E0,2.39E1,1.11E2,9E-1,3.17E2,3.38E2,2E0,4.8E1,-6.620545E-1,6.7315215E-1,4.43E1,9E-1,6.8E-1,2.11E2,-3.6721237E0,-4.7579994E0,4.4092562E-2,3.95E2,5.71E1,1E0,3.44E2,8E0,4.5154497E-1,-1.909758E0,2.99E1,1.3426666E2,2.19E2,5E0,5E0,1.16E1,-1.9084038E0,-4.5214692E-1,1.29E2,-7.209595E-1,2.1371428E2,9.09E1,8.62E1,2.6892856E2,1E0,-8.362145E-1,-5.703518E-1,-1.7847687E0,1.1079445E-1,-4.2567444E-1,-2.579972E0,-8.741593E-1,1.7812577E-1,-4.9201202E-1,2.455626E0,9.777832E-1,1.7442547E0,-8.0402374E-2,1.3635361E0,2.6994323E-2,-3.0047533E-1,1.4524041E-1,1.3884343E0,-3.3876803E-2,1.8830093E0,2.5675965E-2,1.3553857E0,3.7994003E0,7.5755924E-1,-1.48909E-1],"split_indices":[36,36,33,35,28,40,35,0,44,36,33,35,35,24,44,0,0,44,33,33,36,0,0,0,35,44,28,36,1,0,0,13,40,36,0,0,44,0,0,35,0,39,14,14,39,9,0,0,0,0,0,0,0,0,0,0,0,0,0,0,0,0,0,0,0,0,0,0,0,0,0],"split_type":[0,0,0,0,0,0,0,0,0,0,0,0,0,0,0,0,0,0,0,0,0,0,0,0,0,0,0,0,0,0,0,0,0,0,0,0,0,0,0,0,0,0,0,0,0,0,0,0,0,0,0,0,0,0,0,0,0,0,0,0,0,0,0,0,0,0,0,0,0,0,0],"sum_hessian":[1.329E3,6.64E2,6.65E2,2.12E2,4.52E2,5.6E1,6.09E2,1.97E2,1.5E1,2.67E2,1.85E2,3E1,2.6E1,3.69E2,2.4E2,8E0,7E0,1.6E1,2.51E2,1.03E2,8.2E1,2.5E1,5E0,8E0,1.8E1,1.99E2,1.7E2,2.25E2,1.5E1,1.1E1,5E0,1.07E2,1.44E2,2.1E1,8.2E1,4.5E1,3.7E1,1.3E1,5E0,1.92E2,7E0,4.3E1,1.27E2,7E1,1.55E2,1E1,5E0,8E0,9.9E1,1.6E1,1.28E2,1.4E1,7E0,5.3E1,2.9E1,2.8E1,1.7E1,1.2E1,2.5E1,7E0,1.85E2,1.5E1,2.8E1,1.1E2,1.7E1,5.2E1,1.8E1,2.4E1,1.31E2,5E0,5E0],"tree_param":{"num_deleted":"0","num_feature":"45","num_nodes":"71","size_leaf_vector":"1"}},{"base_weights":[-2.0167427E-2,-2.0576131E-1,2.1075085E-1,-4.719388E-1,-1.076779E-1,-2.5E-1,2.5325885E-1,-2.486702E-2,5.5555557E-3,-1.9060053E-1,1.0197368E-1,-3.970588E-1,5.882353E-2,1.21031746E-1,3.688811E-1,-3.726415E-1,-1.205036E-1,-2.9126214E-2,3.7E-1,-2.3076923E-1,-2.3863636E-2,-1.1111111E-2,1.6666668E-2,5.927835E-2,3.220339E-1,2.5E-2,3.9325842E-1,-4.1666668E-2,-4.105263E-1,-4.4047618E-1,-6.329114E-2,-6.185567E-2,2.1428572E-2,2.5925925E-1,2.3958333E-2,4.166667E-3,-2.1875E-2,8.287293E-2,-2.5E-1,3.6734694E-1,9.090909E-2,-2.0833334E-2,2E-1,2.1568628E-1,4.3317974E-1,-2.0833334E-2,1.4285715E-2,-2.21875E-2,-1.09375E-2,-2.4324326E-2,-4.166667E-3,5.7142857E-4,-1.3492065E-2,1.0526316E-2,-6.329114E-3,1.8421052E-2,-0E0,7.518797E-4,1.3265306E-2,-2.2222223E-2,4.166667E-3,2.2499999E-2,1.12499995E-2,-4.166667E-3,1.25E-2,1.75E-2,-4.166667E-3,1.8518519E-3,2.0000001E-2,1.4375E-2,2.3174157E-2],"categories":[],"categories_nodes":[],"categories_segments":[],"categories_sizes":[],"default_left":[0,0,0,0,0,0,0,0,0,0,0,0,0,0,0,0,0,0,0,0,0,0,0,0,0,0,0,0,0,0,0,0,0,0,0,0,0,0,0,0,0,0,0,0,0,0,0,0,0,0,0,0,0,0,0,0,0,0,0,0,0,0,0,0,0,0,0,0,0,0,0],"id":22,"left_children":[1,3,5,7,9,11,13,-1,-1,15,17,19,21,23,25,27,29,31,33,35,-1,-1,-1,37,39,41,43,45,47,49,51,53,-1,55,-1,-1,-1,57,59,61,63,-1,65,67,69,-1,-1,-1,-1,-1,-1,-1,-1,-1,-1,-1,-1,-1,-1,-1,-1,-1,-1,-1,-1,-1,-1,-1,-1,-1,-1],"loss_changes":[5.6357494E1,1.8981617E1,1.1540472E1,2.958107E0,9.302952E0,2.294118E0,8.165222E0,0E0,0E0,4.842372E0,5.351786E0,3.433771E-1,1.3856208E0,3.1088772E0,2.3876762E0,1.3120213E0,5.0613065E0,1.5694697E0,4.8023176E-1,8.806089E-1,0E0,0E0,0E0,1.436393E0,5.8450985E-1,1.6291666E0,1.7993126E0,1.5922619E0,5.082226E-1,6.4961433E-1,3.6607919E0,1.736794E0,0E0,7.641325E-1,0E0,0E0,0E0,2.2359607E0,9.444444E-1,4.7525454E-1,3.2575756E-1,0E0,6.666666E-1,1.6644878E0,8.2471466E-1,0E0,0E0,0E0,0E0,0E0,0E0,0E0,0E0,0E0,0E0,0E0,0E0,0E0,0E0,0E0,0E0,0E0,0E0,0E0,0E0,0E0,0E0,0E0,0E0,0E0,0E0],"parents":[2147483647,0,0,1,1,2,2,3,3,4,4,5,5,6,6,9,9,10,10,11,11,12,12,13,13,14,14,15,15,16,16,17,17,18,18,19,19,23,23,24,24,25,25,26,26,27,27,28,28,29,29,30,30,31,31,33,33,37,37,38,38,39,39,40,40,42,42,43,43,44,44],"right_children":[2,4,6,8,10,12,14,-1,-1,16,18,20,22,24,26,28,30,32,34,36,-1,-1,-1,38,40,42,44,46,48,50,52,54,-1,56,-1,-1,-1,58,60,62,64,-1,66,68,70,-1,-1,-1,-1,-1,-1,-1,-1,-1,-1,-1,-1,-1,-1,-1,-1,-1,-1,-1,-1,-1,-1,-1,-1,-1,-1],"split_conditions":[2.57E2,6.8E1,6.8E-1,1.03E2,8.8E-1,3.06E2,3.21E2,-3.348357E0,5.20538E-1,1E0,8.829442E1,7E0,9E-1,9E-1,7.65E-1,1.18E2,7.2E-1,3.76E2,9E-1,2E0,-3.1267357E0,-7.533619E-1,2.2139816E-1,5E0,4.16E1,2.85E2,8E-1,1.0728571E2,2.2057143E2,1.0157498E2,5E0,1.56E2,2.5717075E0,4E0,2.788904E0,5.256119E-2,-2.0266702E0,2.5885715E2,3.695E2,6E0,6E0,-7.9440385E-1,4.605E1,3.7E2,3.41E2,-3.977726E0,9.0851134E-1,-1.517691E0,-1.5845321E0,-3.8203156E0,-2.4551393E-3,1.4238739E-2,-5.130348E-1,1.4560509E-1,-1.5605278E-1,1.3405564E0,2.8099061E-3,2.0914841E-2,1.2946709E0,-3.0620345E-1,4.007187E-1,1.4259156E0,7.861542E-1,-4.3688964E-2,1.2127854E0,1.4361725E0,-1.3884735E-1,1.1636887E-1,2.4192169E0,1.5193284E0,3.60943E0],"split_indices":[35,36,33,42,25,39,35,0,0,24,41,29,25,25,33,35,34,36,25,0,0,0,0,0,44,38,25,38,38,41,0,36,0,0,0,0,0,39,39,29,29,0,15,36,35,0,0,0,0,0,0,0,0,0,0,0,0,0,0,0,0,0,0,0,0,0,0,0,0,0,0],"split_type":[0,0,0,0,0,0,0,0,0,0,0,0,0,0,0,0,0,0,0,0,0,0,0,0,0,0,0,0,0,0,0,0,0,0,0,0,0,0,0,0,0,0,0,0,0,0,0,0,0,0,0,0,0,0,0,0,0,0,0,0,0,0,0,0,0,0,0,0,0,0,0],"sum_hessian":[1.313E3,7.28E2,5.85E2,1.95E2,5.33E2,4.9E1,5.36E2,1.87E2,8E0,3.82E2,1.51E2,3.3E1,1.6E1,2.51E2,2.85E2,1.05E2,2.77E2,1.02E2,4.9E1,1.2E1,2.1E1,8E0,8E0,1.93E2,5.8E1,1.9E1,2.66E2,1.1E1,9.4E1,4.1E1,2.36E2,9.6E1,6E0,2.6E1,2.3E1,5E0,7E0,1.8E2,1.3E1,4.8E1,1E1,5E0,1.4E1,5E1,2.16E2,5E0,6E0,7.9E1,1.5E1,3.6E1,5E0,1.74E2,6.2E1,1.8E1,7.8E1,1.8E1,8E0,1.32E2,4.8E1,8E0,5E0,2.9E1,1.9E1,5E0,5E0,9E0,5E0,2.6E1,2.4E1,3.9E1,1.77E2],"tree_param":{"num_deleted":"0","num_feature":"45","num_nodes":"71","size_leaf_vector":"1"}},{"base_weights":[-4.664179E-2,-2.1400523E-1,1.7504333E-1,-6.892523E-2,-3.976261E-1,9.2364535E-2,3.6918604E-1,-2E-1,7.5980395E-2,-2.4875622E-2,-2.4817519E-1,1.13520406E-1,-2.3333333E-2,1.0714286E-1,4.5038167E-1,-2.4009901E-1,1.4583333E-1,-1.875E-1,1.7449665E-1,-1.4361702E-1,-4.659091E-1,-1.03896104E-1,1.6613925E-1,-2.25E-1,3.9130434E-1,4.7107437E-1,1.8181819E-1,8.695652E-2,-2.8055555E-1,-1.5625E-2,3.529412E-1,7.5000003E-3,-2.5531915E-1,-2.5E-1,2.3106061E-1,-2.1341464E-1,3.0769232E-1,-1.25E-2,-2.4358975E-2,-2.1818182E-1,1.7391305E-1,-1.2658228E-2,2.2478992E-1,4.166667E-3,-3.3333334E-1,4.166667E-3,2.3611112E-2,3.3333334E-1,2.4299067E-2,2.0833334E-2,-4.166667E-3,1.4062501E-2,-1.5625E-2,-1.07438015E-2,-2.0416668E-2,4.166667E-3,2.2916667E-2,1.3888889E-3,-2.0833334E-2,4.166667E-3,-1.923077E-2,5.4166666E-3,1.6438356E-2,-1.6666668E-2,2.8846154E-3,4.166667E-3,2.1875E-2,-5.4054055E-3,-2.1052632E-2,1.607143E-2,-2.5000002E-3,2.1875E-2,-3.125E-3,-8.333334E-4,1.291866E-2,-4.166667E-3,-2.2499999E-2,2.2499999E-2,4.166667E-3],"categories":[],"categories_nodes":[],"categories_segments":[],"categories_sizes":[],"default_left":[0,0,0,0,0,0,0,0,0,0,0,0,0,0,0,0,0,0,0,0,0,0,0,0,0,0,0,0,0,0,0,0,0,0,0,0,0,0,0,0,0,0,0,0,0,0,0,0,0,0,0,0,0,0,0,0,0,0,0,0,0,0,0,0,0,0,0,0,0,0,0,0,0,0,0,0,0,0,0],"id":23,"left_children":[1,3,5,7,9,11,13,15,17,-1,19,21,-1,23,25,27,29,31,33,35,37,39,41,43,45,47,49,51,53,-1,55,-1,57,59,61,63,65,-1,-1,67,69,71,73,-1,75,-1,-1,77,-1,-1,-1,-1,-1,-1,-1,-1,-1,-1,-1,-1,-1,-1,-1,-1,-1,-1,-1,-1,-1,-1,-1,-1,-1,-1,-1,-1,-1,-1,-1],"loss_changes":[4.9754124E1,2.0325336E1,9.227608E0,8.144402E0,4.907303E0,4.8546553E0,3.611349E0,3.155219E0,5.3279667E0,0E0,3.0520096E0,4.501821E0,0E0,4.0520964E0,6.423569E-1,2.6971664E0,2.3884804E0,1.3200798E0,3.635435E0,3.0266953E0,8.027458E-2,2.482665E0,3.3166084E0,6.958332E-1,5.338161E-1,8.645439E-2,7.196969E-1,1.872962E0,1.4228878E0,0E0,4.4485283E-1,0E0,2.1583924E0,8.397435E-1,1.5472293E0,2.6851158E0,3.4214735E-1,0E0,0E0,1.1826718E0,7.757763E-1,1.7998418E0,1.934226E0,0E0,4.000002E-1,0E0,0E0,4.000002E-1,0E0,0E0,0E0,0E0,0E0,0E0,0E0,0E0,0E0,0E0,0E0,0E0,0E0,0E0,0E0,0E0,0E0,0E0,0E0,0E0,0E0,0E0,0E0,0E0,0E0,0E0,0E0,0E0,0E0,0E0,0E0],"parents":[2147483647,0,0,1,1,2,2,3,3,4,4,5,5,6,6,7,7,8,8,10,10,11,11,13,13,14,14,15,15,16,16,17,17,18,18,19,19,20,20,21,21,22,22,23,23,24,24,25,25,26,26,27,27,28,28,30,30,32,32,33,33,34,34,35,35,36,36,39,39,40,40,41,41,42,42,44,44,47,47],"right_children":[2,4,6,8,10,12,14,16,18,-1,20,22,-1,24,26,28,30,32,34,36,38,40,42,44,46,48,50,52,54,-1,56,-1,58,60,62,64,66,-1,-1,68,70,72,74,-1,76,-1,-1,78,-1,-1,-1,-1,-1,-1,-1,-1,-1,-1,-1,-1,-1,-1,-1,-1,-1,